~o
<STREAMINFO> 1 39
<VECSIZE> 39<NULLD><MFCC_D_A_0><DIAGC>
~s "silst"
<NUMMIXES> 16
<MIXTURE> 1 1.852895e-02
<MEAN> 39
 -9.924411e+00 -7.514661e+00 7.473872e+00 -4.710688e+00 -5.886463e+00 -2.397933e+00 -3.592232e+00 -5.296951e+00 -4.683535e+00 -5.958579e+00 -5.010749e+00 -3.129624e+00 9.769382e+01 -2.409191e+00 -4.971519e-01 1.365284e+00 2.112926e+00 2.963068e+00 2.160569e+00 1.928625e+00 1.592475e+00 1.109767e+00 1.072240e+00 1.324670e+00 9.092944e-01 -1.730667e+00 -3.873407e-02 -6.349393e-01 -4.445519e-01 -5.337625e-01 7.074253e-02 3.309059e-02 5.269935e-02 2.195930e-01 -2.809730e-02 4.455454e-05 1.577973e-01 4.978412e-02 3.750446e-01
<VARIANCE> 39
 1.195783e+02 7.889074e+01 1.209508e+02 1.074977e+02 1.461763e+02 1.144381e+02 1.140977e+02 1.323419e+02 1.176352e+02 1.259525e+02 9.158894e+01 7.549118e+01 7.090530e+01 9.489583e+00 7.645308e+00 1.245138e+01 1.429678e+01 1.401315e+01 1.398019e+01 1.458817e+01 1.278575e+01 1.314091e+01 1.457502e+01 1.164169e+01 9.367680e+00 1.367845e+01 1.237693e+00 1.062213e+00 1.538096e+00 1.653503e+00 1.823299e+00 1.703301e+00 1.825257e+00 1.814450e+00 1.715989e+00 1.759764e+00 1.542735e+00 1.253770e+00 9.152258e-01
<GCONST> 1.701046e+02
<MIXTURE> 2 5.605353e-02
<MEAN> 39
 -1.600041e+01 -1.257751e+01 6.256330e+00 -3.463504e+00 -1.493279e+00 1.640451e+00 -2.633960e-02 -5.223852e+00 -3.023035e+00 -3.800709e+00 -1.726799e+00 -1.653711e+00 8.763760e+01 -2.208562e-01 2.772796e-01 3.205853e-01 5.222644e-01 7.221905e-01 1.035288e+00 1.181060e+00 1.328522e+00 1.274992e+00 1.366557e+00 1.119796e+00 8.232996e-01 -2.007332e-02 -9.210739e-02 -5.332236e-02 -1.152254e-01 -2.648227e-01 -1.263588e-01 -3.062424e-01 -2.716202e-01 -3.660413e-03 -1.513471e-01 -1.152437e-01 -1.235680e-01 -3.630348e-02 2.968008e-01
<VARIANCE> 39
 1.190816e+01 1.758443e+01 2.514981e+01 2.911267e+01 4.035389e+01 4.310456e+01 5.147413e+01 5.801857e+01 5.546650e+01 6.216835e+01 5.685534e+01 4.631655e+01 2.454843e+01 2.262756e+00 2.935892e+00 3.679590e+00 4.637938e+00 5.204670e+00 5.729797e+00 6.406259e+00 6.924089e+00 6.975311e+00 7.129093e+00 6.095277e+00 5.266519e+00 1.711037e+00 3.914087e-01 4.680536e-01 5.783404e-01 7.421461e-01 9.605600e-01 1.019952e+00 1.194215e+00 1.273133e+00 1.226878e+00 1.321769e+00 1.149372e+00 9.906719e-01 2.765428e-01
<GCONST> 1.353171e+02
<MIXTURE> 3 6.996790e-02
<MEAN> 39
 -1.765969e+01 -1.341994e+01 3.415021e+00 -6.929050e+00 -3.377640e+00 -3.035654e+00 -4.779285e+00 -7.640619e+00 -8.062797e+00 -7.201972e+00 -6.066684e+00 -3.868416e+00 9.065694e+01 1.734800e-01 4.281418e-01 7.117428e-01 7.491309e-01 2.085368e-01 3.434171e-01 2.468044e-01 -1.895105e-01 1.226831e-01 1.957051e-01 1.475472e-01 1.722257e-01 -3.744547e-01 1.553613e-01 -5.182911e-02 2.257437e-01 1.510550e-01 1.151783e-01 2.928036e-01 3.605842e-01 3.115761e-01 5.100371e-01 2.317323e-01 3.822698e-01 1.947373e-01 7.724296e-02
<VARIANCE> 39
 2.897320e+01 3.694816e+01 3.708098e+01 4.080324e+01 5.730527e+01 5.506994e+01 6.426862e+01 7.635503e+01 7.254495e+01 7.872176e+01 6.729840e+01 5.621761e+01 2.462876e+01 2.418633e+00 3.023090e+00 3.366162e+00 4.101027e+00 5.158245e+00 5.394567e+00 5.968920e+00 6.435659e+00 6.659005e+00 6.578511e+00 5.714361e+00 4.965653e+00 1.486279e+00 5.144562e-01 6.242512e-01 6.336048e-01 7.975579e-01 1.078291e+00 1.034863e+00 1.185446e+00 1.439845e+00 1.303482e+00 1.447338e+00 1.155835e+00 1.059673e+00 3.177269e-01
<GCONST> 1.402502e+02
<MIXTURE> 4 5.566563e-02
<MEAN> 39
 -2.116145e+01 -1.658110e+01 3.304068e+00 -1.196672e+01 -3.024645e+00 -5.375964e+00 -4.686181e+00 9.079864e-03 -4.451526e+00 -2.380545e+00 -9.281336e-02 5.875825e-01 1.019958e+02 -1.389186e-01 -5.934786e-02 4.102779e-01 1.115536e-01 3.540676e-01 1.125726e-01 6.838658e-01 1.273929e+00 7.675031e-01 1.017493e+00 1.200726e+00 7.874685e-01 3.795542e-02 5.359988e-01 1.781589e-01 3.098257e-01 6.457968e-01 -2.569861e-02 3.737386e-01 2.237197e-01 -5.029771e-01 -4.660337e-02 -4.105709e-01 -2.599350e-01 -2.788056e-01 -8.580496e-01
<VARIANCE> 39
 1.029964e+02 9.710779e+01 1.259765e+02 1.340359e+02 1.708234e+02 1.665854e+02 1.571920e+02 1.392057e+02 1.536251e+02 1.404776e+02 1.108502e+02 8.708237e+01 7.935294e+01 5.000198e+00 4.968303e+00 6.134150e+00 7.779653e+00 8.844490e+00 1.003448e+01 9.605928e+00 1.033171e+01 9.500932e+00 9.161489e+00 7.777984e+00 6.632536e+00 6.492131e+00 1.625223e+00 1.506664e+00 2.004872e+00 2.346442e+00 2.850488e+00 2.847477e+00 2.774634e+00 2.518496e+00 2.652421e+00 2.434602e+00 2.060678e+00 1.681111e+00 1.254408e+00
<GCONST> 1.706582e+02
<MIXTURE> 5 1.240442e-01
<MEAN> 39
 -1.612809e+01 -1.313527e+01 6.139140e+00 -4.145700e+00 -2.459081e+00 4.539603e-01 -1.026168e+00 -6.468474e+00 -3.529272e+00 -5.013958e+00 -2.908047e+00 -2.415848e+00 8.736145e+01 -3.286517e-02 1.196632e-01 2.006787e-01 2.558663e-01 1.679696e-01 3.078589e-01 3.095250e-01 1.686896e-01 2.646319e-01 2.214348e-01 1.683116e-01 1.478680e-01 -1.550342e-01 -4.893434e-02 1.521468e-02 -9.623381e-02 -1.362292e-01 1.917244e-03 -1.119392e-01 -1.270750e-01 5.023750e-02 -1.038190e-01 -5.489461e-03 -2.576571e-02 -1.561410e-03 1.963466e-01
<VARIANCE> 39
 9.543155e+00 1.420512e+01 2.232190e+01 2.479413e+01 3.800617e+01 3.810960e+01 4.764569e+01 5.623913e+01 5.325620e+01 6.059101e+01 5.643740e+01 4.443171e+01 1.991603e+01 1.317050e+00 1.785083e+00 2.282941e+00 2.856941e+00 3.934862e+00 4.177784e+00 4.963120e+00 5.375232e+00 5.560906e+00 5.813878e+00 4.916567e+00 4.267469e+00 6.896245e-01 2.498274e-01 3.175711e-01 4.382595e-01 5.596542e-01 7.908461e-01 8.326536e-01 9.960214e-01 1.079102e+00 1.087041e+00 1.194434e+00 1.012872e+00 8.738089e-01 1.454451e-01
<GCONST> 1.258599e+02
<MIXTURE> 6 6.126167e-02
<MEAN> 39
 -1.660579e+01 -1.509203e+01 3.340593e+00 -6.475289e+00 -2.587014e+00 5.631115e-01 -2.218296e-01 -1.934375e+00 -1.638911e+00 -2.414042e+00 -1.535682e-01 4.691873e-02 9.187283e+01 -1.878813e-01 3.615148e-01 3.440565e-01 1.733347e-02 -2.041202e-01 -2.362262e-01 -1.343251e-01 -1.355902e-01 -2.117845e-01 2.327088e-01 5.940875e-02 2.533182e-02 2.069241e-02 2.781010e-01 2.945803e-01 2.088257e-01 -3.321146e-01 -3.357862e-01 -4.370936e-01 -4.802679e-01 -3.098816e-01 -4.194954e-01 -3.519847e-01 -3.721221e-01 -2.584847e-01 6.845641e-01
<VARIANCE> 39
 3.172790e+01 4.145017e+01 5.867729e+01 6.832420e+01 8.265851e+01 8.137798e+01 8.702779e+01 9.871597e+01 9.272830e+01 9.533267e+01 7.737218e+01 6.631542e+01 4.064953e+01 8.060431e+00 7.809627e+00 1.025493e+01 1.486590e+01 1.362188e+01 1.326928e+01 1.230131e+01 1.225941e+01 1.200022e+01 1.151880e+01 9.075806e+00 7.868615e+00 9.891506e+00 1.099279e+00 1.014238e+00 1.434117e+00 2.034727e+00 2.010873e+00 1.902735e+00 2.007402e+00 2.046486e+00 1.975668e+00 1.919327e+00 1.633268e+00 1.351512e+00 1.334726e+00
<GCONST> 1.635819e+02
<MIXTURE> 7 5.682782e-02
<MEAN> 39
 -1.701862e+01 -1.341238e+01 4.905102e+00 -6.328104e+00 -3.696873e+00 -2.575899e+00 -4.417843e+00 -9.201303e+00 -8.543228e+00 -8.409226e+00 -7.121085e+00 -5.063379e+00 8.970613e+01 2.289319e-01 2.221757e-01 5.010563e-01 3.477374e-01 -3.270146e-01 -3.761683e-01 -5.804249e-01 -1.136714e+00 -8.958837e-01 -9.913076e-01 -7.412814e-01 -3.597047e-01 -3.476700e-01 9.609021e-02 5.325598e-03 7.648469e-02 9.639170e-02 1.370578e-01 2.474964e-01 3.210062e-01 4.230736e-01 5.501971e-01 3.899926e-01 4.818133e-01 3.135984e-01 1.227351e-01
<VARIANCE> 39
 2.006999e+01 2.300198e+01 2.910029e+01 3.441493e+01 5.053301e+01 4.832253e+01 5.845882e+01 6.766901e+01 6.351357e+01 7.264783e+01 6.215393e+01 5.270843e+01 2.169650e+01 1.835181e+00 2.279033e+00 2.625673e+00 3.347455e+00 4.635846e+00 4.767118e+00 5.491971e+00 5.709394e+00 6.031423e+00 6.376309e+00 5.435081e+00 4.831952e+00 9.524822e-01 3.385167e-01 4.126061e-01 4.923387e-01 6.523863e-01 9.431393e-01 9.310623e-01 1.079481e+00 1.235174e+00 1.186973e+00 1.338997e+00 1.064543e+00 9.829823e-01 2.038928e-01
<GCONST> 1.333996e+02
<MIXTURE> 8 5.435796e-02
<MEAN> 39
 -8.294474e+00 -9.149146e+00 7.689310e+00 -1.415906e+00 1.999180e+00 2.132245e+00 -1.813746e+00 -3.963565e+00 -7.244375e+00 -9.441394e+00 -7.867959e+00 -5.962059e+00 9.881309e+01 -1.435358e+00 -1.026778e+00 -2.086636e-01 3.191071e-01 1.237307e+00 8.783246e-01 1.028368e+00 9.514499e-01 6.831216e-01 7.501369e-01 6.276189e-01 5.400029e-01 -1.052309e+00 -2.915124e-02 -2.958168e-01 -4.231195e-01 -7.559099e-01 -5.898414e-01 -4.486774e-01 -1.620628e-01 3.401924e-02 3.087989e-01 3.722391e-01 4.582522e-01 3.234372e-01 1.134118e-01
<VARIANCE> 39
 9.084277e+01 6.844708e+01 1.022175e+02 8.803481e+01 1.266692e+02 1.066317e+02 1.191418e+02 1.406195e+02 1.422985e+02 1.299510e+02 9.694315e+01 7.744807e+01 6.150898e+01 4.230722e+00 4.484196e+00 6.114343e+00 7.612642e+00 8.423483e+00 8.032092e+00 8.748849e+00 8.357473e+00 8.275731e+00 8.902906e+00 7.832180e+00 6.737319e+00 3.248069e+00 5.166726e-01 6.024961e-01 9.185096e-01 1.100427e+00 1.293011e+00 1.321503e+00 1.458079e+00 1.491532e+00 1.474773e+00 1.477229e+00 1.329331e+00 1.151886e+00 2.712806e-01
<GCONST> 1.564127e+02
<MIXTURE> 9 9.703037e-02
<MEAN> 39
 -1.626924e+01 -1.349541e+01 6.223898e+00 -4.760525e+00 -3.505196e+00 -2.737102e-01 -1.635859e+00 -7.527242e+00 -4.285554e+00 -6.177886e+00 -4.335729e+00 -3.325318e+00 8.793783e+01 -8.811152e-02 -6.486052e-02 -1.424824e-01 -2.024934e-01 -3.544897e-01 -3.614516e-01 -4.546108e-01 -6.498716e-01 -6.062674e-01 -5.976058e-01 -6.637264e-01 -5.045445e-01 -1.559108e-01 -6.679410e-02 -2.216923e-02 -1.654929e-01 -1.980311e-01 -5.209800e-02 -2.209850e-01 -2.449681e-01 -7.131319e-02 -2.481896e-01 -1.327409e-01 -1.403806e-01 -1.063031e-01 1.845699e-01
<VARIANCE> 39
 9.254631e+00 1.309574e+01 2.255808e+01 2.377623e+01 3.718913e+01 3.701194e+01 4.765219e+01 5.441528e+01 5.253739e+01 6.072819e+01 5.616301e+01 4.482573e+01 1.693965e+01 1.407188e+00 1.872402e+00 2.246549e+00 2.853445e+00 4.072274e+00 4.210610e+00 5.044701e+00 5.349776e+00 5.667051e+00 5.930655e+00 4.917152e+00 4.262943e+00 7.136027e-01 2.351490e-01 2.993955e-01 4.189247e-01 5.317379e-01 7.581965e-01 8.055760e-01 9.663342e-01 1.034566e+00 1.039552e+00 1.167074e+00 9.775957e-01 8.344604e-01 1.354202e-01
<GCONST> 1.251017e+02
<MIXTURE> 10 9.623723e-02
<MEAN> 39
 -1.640094e+01 -1.330176e+01 5.829840e+00 -4.202875e+00 -2.489197e+00 7.695380e-01 -8.037225e-01 -6.226528e+00 -3.629995e+00 -4.653705e+00 -2.731680e+00 -2.272598e+00 8.784377e+01 -4.030271e-01 5.052549e-02 -2.129067e-01 -6.365697e-02 1.711668e-01 2.418433e-01 2.390418e-01 4.577211e-01 2.261188e-01 4.711906e-01 1.663464e-01 6.751289e-02 -8.073742e-04 -8.537762e-02 -3.198504e-02 -1.542162e-01 -3.086472e-01 -1.548574e-01 -3.738346e-01 -3.663526e-01 -1.058652e-01 -3.073664e-01 -2.344501e-01 -2.528755e-01 -1.484178e-01 2.957780e-01
<VARIANCE> 39
 1.125778e+01 1.640372e+01 2.430183e+01 2.735514e+01 3.991111e+01 4.204591e+01 5.155445e+01 5.831674e+01 5.499619e+01 6.235270e+01 5.912389e+01 4.672873e+01 2.237181e+01 2.387268e+00 2.949275e+00 3.460576e+00 4.351442e+00 5.264898e+00 5.533247e+00 6.347865e+00 6.910005e+00 7.080558e+00 7.080588e+00 5.998500e+00 5.013622e+00 1.659929e+00 3.828065e-01 4.318404e-01 5.547950e-01 7.048998e-01 9.455653e-01 9.742389e-01 1.145521e+00 1.245028e+00 1.189165e+00 1.301894e+00 1.124599e+00 9.462759e-01 2.571499e-01
<GCONST> 1.343181e+02
<MIXTURE> 11 8.012138e-02
<MEAN> 39
 -1.832334e+01 -1.350735e+01 3.274862e+00 -7.278986e+00 -3.398679e+00 -3.421158e+00 -5.158129e+00 -7.811649e+00 -8.614697e+00 -7.228603e+00 -6.687085e+00 -4.494856e+00 9.105354e+01 7.035954e-02 1.322597e-01 2.386942e-01 1.656751e-01 -3.634784e-01 -3.540149e-01 -5.286601e-01 -9.129380e-01 -7.856063e-01 -6.792244e-01 -6.967707e-01 -4.234162e-01 -3.693166e-01 2.169511e-01 -1.017358e-01 1.744111e-01 8.266471e-02 -2.457800e-02 1.756354e-01 2.319477e-01 1.037176e-01 3.703788e-01 2.256123e-02 2.253484e-01 9.876043e-02 2.343964e-02
<VARIANCE> 39
 2.801462e+01 3.518353e+01 3.523829e+01 3.890600e+01 5.777005e+01 5.527939e+01 6.717679e+01 7.923951e+01 7.695603e+01 7.934708e+01 6.876248e+01 5.621033e+01 2.353113e+01 2.274325e+00 2.649477e+00 2.971699e+00 3.730654e+00 4.995414e+00 5.142205e+00 5.876368e+00 6.308546e+00 6.479943e+00 6.524994e+00 5.534852e+00 4.778552e+00 1.334867e+00 4.890365e-01 5.781525e-01 5.970774e-01 7.438491e-01 1.069691e+00 1.008823e+00 1.173937e+00 1.454182e+00 1.344959e+00 1.437822e+00 1.128530e+00 1.019229e+00 3.014309e-01
<GCONST> 1.390829e+02
<MIXTURE> 12 7.326620e-02
<MEAN> 39
 -2.009593e+01 -1.781695e+01 2.081019e+00 -1.186226e+01 -2.232133e+00 -5.000010e+00 -5.324792e+00 -1.015823e-01 -5.679183e+00 -4.293952e+00 -7.219670e-01 -3.116138e-01 1.006207e+02 -2.463000e-01 -3.371259e-01 -7.268104e-02 -2.518225e-01 -2.270291e-01 -4.820221e-01 -1.759150e-01 -3.794359e-02 -3.268444e-01 -1.048293e-01 -3.407195e-02 -6.405327e-02 -2.920271e-01 4.938224e-01 2.328019e-01 3.602208e-01 5.362149e-01 -1.092496e-01 2.910716e-01 1.777656e-01 -5.370710e-01 -3.142019e-03 -3.285748e-01 -3.173022e-01 -2.639056e-01 -5.481581e-01
<VARIANCE> 39
 8.176554e+01 9.809668e+01 1.074243e+02 1.135771e+02 1.536845e+02 1.473159e+02 1.558636e+02 1.440500e+02 1.705680e+02 1.515575e+02 1.189515e+02 9.108752e+01 6.049054e+01 3.439243e+00 3.853016e+00 4.662692e+00 6.125012e+00 6.848728e+00 7.839489e+00 8.072687e+00 8.921865e+00 8.657208e+00 8.138809e+00 7.060134e+00 6.057323e+00 3.665711e+00 1.077325e+00 1.243764e+00 1.444747e+00 1.773394e+00 2.189510e+00 2.183885e+00 2.404253e+00 2.287611e+00 2.409796e+00 2.210737e+00 1.888252e+00 1.553724e+00 8.100696e-01
<GCONST> 1.642237e+02
<MIXTURE> 13 4.296249e-02
<MEAN> 39
 -1.613157e+01 -1.521045e+01 3.384198e+00 -6.991900e+00 -2.984741e+00 1.206511e-01 -4.256021e-01 -2.062171e+00 -1.926345e+00 -2.797410e+00 -2.621490e-01 -2.875547e-01 9.234179e+01 -2.084865e-01 1.267099e-01 1.106422e-01 -2.063162e-01 -5.309556e-01 -8.306317e-01 -1.127457e+00 -1.338713e+00 -1.283957e+00 -1.099516e+00 -1.165992e+00 -7.623441e-01 -1.018057e-01 3.699566e-01 3.071845e-01 1.239677e-01 -4.886218e-01 -4.322784e-01 -4.683412e-01 -5.855681e-01 -4.226544e-01 -4.798644e-01 -4.090152e-01 -5.316290e-01 -3.076643e-01 8.095942e-01
<VARIANCE> 39
 3.148143e+01 4.100266e+01 6.004167e+01 7.131127e+01 8.955928e+01 8.317966e+01 9.067345e+01 1.030957e+02 9.954419e+01 1.011863e+02 8.056615e+01 6.696611e+01 3.907511e+01 6.786757e+00 6.995212e+00 9.704987e+00 1.475897e+01 1.345853e+01 1.240419e+01 1.223256e+01 1.209997e+01 1.125521e+01 1.129894e+01 9.020059e+00 7.807710e+00 8.211832e+00 1.063248e+00 1.091039e+00 1.549631e+00 2.421033e+00 2.051986e+00 1.862079e+00 2.085129e+00 2.156234e+00 1.979932e+00 1.945368e+00 1.601653e+00 1.362659e+00 1.419106e+00
<GCONST> 1.636762e+02
<MIXTURE> 14 5.443385e-02
<MEAN> 39
 -9.333829e+00 -1.065944e+01 7.387125e+00 -1.636186e+00 3.904511e+00 4.322851e+00 -1.315319e-01 -3.174690e+00 -7.819560e+00 -1.030733e+01 -8.248912e+00 -6.114080e+00 9.767355e+01 -1.712392e+00 -1.571028e+00 -1.194992e+00 -8.203535e-01 -7.484531e-02 -4.699317e-01 7.625081e-02 9.252778e-02 2.081275e-01 3.253423e-01 4.037870e-01 4.654472e-01 -1.092991e+00 4.948256e-02 -1.377504e-01 -3.860800e-01 -8.022925e-01 -8.932909e-01 -6.963781e-01 -4.464926e-01 -2.251032e-01 1.538479e-01 3.062162e-01 3.867044e-01 3.254454e-01 1.561949e-01
<VARIANCE> 39
 6.880035e+01 6.155583e+01 9.515044e+01 8.885389e+01 1.191535e+02 1.112462e+02 1.284541e+02 1.368524e+02 1.383822e+02 1.282981e+02 9.134987e+01 7.914405e+01 5.245028e+01 4.235755e+00 4.660449e+00 6.348050e+00 7.599102e+00 9.356427e+00 8.606776e+00 9.063288e+00 8.665416e+00 8.374388e+00 8.853534e+00 8.026087e+00 7.136139e+00 3.044965e+00 4.947445e-01 5.926581e-01 9.456427e-01 1.207942e+00 1.381859e+00 1.365234e+00 1.553338e+00 1.549014e+00 1.475879e+00 1.468548e+00 1.290671e+00 1.195796e+00 2.657903e-01
<GCONST> 1.563475e+02
<MIXTURE> 15 3.198471e-02
<MEAN> 39
 -1.720866e+01 -1.362867e+01 5.104177e+00 -6.748864e+00 -4.241100e+00 -2.890318e+00 -4.569488e+00 -9.873213e+00 -9.004730e+00 -9.169136e+00 -8.105269e+00 -5.925899e+00 9.012244e+01 1.872684e-01 -3.878335e-02 1.300028e-01 -1.828300e-01 -9.253070e-01 -1.065771e+00 -1.302255e+00 -1.925043e+00 -1.741803e+00 -1.909341e+00 -1.598459e+00 -1.029542e+00 -3.942419e-01 8.492857e-02 -1.221135e-02 1.388904e-02 2.584333e-02 3.839642e-02 1.040625e-01 1.654869e-01 2.639853e-01 3.769473e-01 2.357989e-01 3.545903e-01 2.433267e-01 1.169526e-01
<VARIANCE> 39
 1.829877e+01 2.009335e+01 2.786712e+01 3.261045e+01 4.838403e+01 4.602571e+01 5.760671e+01 6.514848e+01 6.296544e+01 7.005014e+01 6.044035e+01 5.112075e+01 2.000342e+01 1.798842e+00 2.140338e+00 2.528611e+00 3.246444e+00 4.629613e+00 4.647513e+00 5.477031e+00 5.565372e+00 5.826074e+00 6.457539e+00 5.355456e+00 4.774657e+00 9.027178e-01 3.081139e-01 3.725493e-01 4.535219e-01 6.164404e-01 8.976631e-01 8.882393e-01 1.071745e+00 1.180302e+00 1.153616e+00 1.306563e+00 1.026946e+00 9.410256e-01 1.866316e-01
<GCONST> 1.317316e+02
<MIXTURE> 16 2.716782e-02
<MEAN> 39
 -1.143276e+01 -8.377947e+00 7.241142e+00 -4.852489e+00 -5.213981e+00 -2.476403e+00 -4.645927e+00 -6.875764e+00 -5.768008e+00 -6.922502e+00 -5.746569e+00 -4.010296e+00 9.652362e+01 -2.387041e+00 -1.003487e+00 2.794638e-01 1.424052e+00 2.166732e+00 1.258120e+00 1.367401e+00 9.379229e-01 4.767181e-01 2.758389e-01 5.475371e-01 2.644762e-01 -1.323371e+00 1.314738e-01 -5.730599e-01 -4.622194e-01 -7.140514e-01 -1.675218e-01 -5.458220e-02 7.813478e-04 1.705106e-01 -8.978864e-02 2.280145e-03 1.317342e-01 5.411350e-02 4.796619e-01
<VARIANCE> 39
 1.037726e+02 6.857544e+01 1.082268e+02 1.023774e+02 1.420417e+02 1.211396e+02 1.190935e+02 1.305921e+02 1.185933e+02 1.220272e+02 9.208998e+01 7.709724e+01 6.217748e+01 8.738075e+00 7.336545e+00 1.128166e+01 1.417137e+01 1.416088e+01 1.325185e+01 1.469032e+01 1.283029e+01 1.320390e+01 1.386069e+01 1.157701e+01 9.625049e+00 1.189220e+01 1.144340e+00 1.009034e+00 1.501989e+00 1.594985e+00 1.884472e+00 1.683011e+00 1.874621e+00 1.840906e+00 1.715482e+00 1.747223e+00 1.564129e+00 1.324429e+00 9.028701e-01
<GCONST> 1.690847e+02
~h "b"
<BEGINHMM>
<NUMSTATES> 5
<STATE> 2
<NUMMIXES> 16
<MIXTURE> 1 3.383085e-02
<MEAN> 39
 8.618446e+00 2.584712e+00 1.854459e+01 1.413337e+01 -1.933104e+00 -2.744278e+00 -7.820662e+00 -1.889379e+01 -2.351017e+01 2.177215e+00 4.169587e+00 -1.667329e+01 1.048843e+02 -5.111191e-01 1.839757e+00 1.328174e+00 -7.464198e-01 1.539379e+00 2.606992e+00 9.675699e-01 8.426760e-01 2.364259e+00 -1.237144e+00 -1.336480e+00 1.357835e+00 -2.287942e+00 -3.188519e-01 -3.814301e-01 -5.692249e-02 -6.412166e-01 3.829959e-01 -1.950428e-01 1.401363e-01 3.657650e-01 8.850995e-01 -3.458241e-01 -5.033476e-01 5.480687e-01 4.931910e-02
<VARIANCE> 39
 2.216043e+01 4.250002e+01 5.263283e+01 1.206504e+02 4.329151e+01 1.247931e+02 2.057068e+02 1.094210e+02 1.745094e+02 1.257281e+02 9.697309e+01 7.681508e+01 3.109399e+01 1.260094e+00 2.431428e+00 2.752871e+00 5.504253e+00 5.760334e+00 7.061523e+00 7.699839e+00 6.821819e+00 9.935014e+00 5.351738e+00 6.887106e+00 7.388200e+00 1.797668e+00 1.696561e-01 5.998170e-01 5.251600e-01 8.568302e-01 1.075283e+00 1.384322e+00 1.345712e+00 1.156819e+00 1.901546e+00 1.208525e+00 1.595920e+00 1.139481e+00 3.470822e-01
<GCONST> 1.463694e+02
<MIXTURE> 2 4.805458e-02
<MEAN> 39
 4.371875e+00 -1.902986e+00 1.232086e+01 -1.673180e+00 -9.244500e-01 -2.521130e+00 -9.565204e+00 -1.242937e+01 -7.305383e+00 -2.987643e+00 -8.580652e-01 -3.944164e+00 1.027207e+02 -4.436256e-01 3.583392e+00 2.210014e+00 3.103184e+00 2.655219e+00 2.809692e+00 2.879477e+00 -2.914653e-01 -7.866275e-01 -1.422168e+00 -6.893916e-01 -2.549011e-01 -3.404205e+00 -3.086872e-01 -5.204437e-01 3.093804e-01 -7.601693e-01 -7.745425e-01 -6.456642e-01 -1.276402e-01 6.373729e-01 -1.037411e-01 -8.323436e-04 -1.254231e-01 -4.196663e-01 1.225941e+00
<VARIANCE> 39
 1.081724e+02 7.525025e+01 5.811535e+01 7.497394e+01 7.272363e+01 1.197230e+02 1.108477e+02 1.576604e+02 1.038716e+02 7.831330e+01 1.072411e+02 6.875556e+01 8.234216e+01 1.228168e+01 7.247792e+00 1.057155e+01 1.438882e+01 1.335795e+01 1.604390e+01 1.280467e+01 1.336020e+01 1.572530e+01 1.209947e+01 1.663961e+01 1.161155e+01 1.185725e+01 1.409405e+00 1.393089e+00 1.537702e+00 1.509455e+00 1.351064e+00 1.550523e+00 1.668100e+00 1.924136e+00 2.107481e+00 1.619482e+00 1.388131e+00 1.541673e+00 7.649878e-01
<GCONST> 1.683732e+02
<MIXTURE> 3 6.332532e-02
<MEAN> 39
 1.047273e+01 3.021999e+00 1.656962e+01 -4.290317e+00 -2.557144e+00 -1.216766e+01 -1.246619e+01 -9.972454e+00 -1.869090e+01 -7.394452e-01 -7.526037e+00 -1.041360e+01 1.108977e+02 2.102301e-02 1.207757e+00 6.506244e-01 7.058934e-01 -5.248084e-01 8.485409e-01 2.347932e-01 -8.369542e-01 1.091066e+00 -8.775638e-01 3.181222e-01 2.591606e-01 -1.409988e+00 -1.790406e-01 -2.723543e-01 -6.518476e-02 -2.063076e-02 -1.854943e-01 3.156767e-01 9.271038e-02 -1.551253e-01 3.802158e-01 -6.375101e-02 4.042771e-01 4.022500e-02 5.739921e-02
<VARIANCE> 39
 1.887571e+01 4.626396e+01 6.907684e+01 1.497301e+02 1.421091e+02 9.124202e+01 1.435466e+02 1.422143e+02 2.205545e+02 1.444063e+02 2.003608e+02 8.904669e+01 3.504073e+01 5.842852e-01 1.700024e+00 1.858468e+00 3.394997e+00 3.308274e+00 7.150385e+00 3.988834e+00 6.206731e+00 5.775219e+00 5.869705e+00 7.244683e+00 4.555747e+00 7.152820e-01 1.693254e-01 3.858145e-01 5.848425e-01 6.247470e-01 8.043935e-01 1.025348e+00 8.373280e-01 1.065542e+00 1.181747e+00 1.125775e+00 1.208844e+00 7.941465e-01 2.568827e-01
<GCONST> 1.405388e+02
<MIXTURE> 4 4.887900e-02
<MEAN> 39
 3.904827e+00 4.889079e+00 1.552446e+01 -1.475951e+00 -9.921549e+00 -5.312832e+00 -2.573286e+00 -1.385070e+01 -1.271517e+01 -1.036746e+01 -9.548397e+00 -1.371272e+01 1.041452e+02 1.442408e+00 1.279548e+00 1.313110e+00 1.080589e+00 1.336723e+00 1.752141e-02 -1.062378e+00 -1.889575e-01 2.964597e-01 5.079824e-01 9.496976e-01 -3.113189e-01 -2.913410e-01 -3.291996e-01 -1.226681e+00 -7.837691e-01 -1.283967e+00 -1.730986e-02 -1.465912e-01 -8.712748e-01 2.986420e-01 3.167723e-01 6.745452e-01 8.720973e-01 7.325457e-01 1.006148e+00
<VARIANCE> 39
 6.962014e+01 9.053712e+01 7.712673e+01 1.815568e+02 1.419770e+02 2.042423e+02 1.991130e+02 1.698852e+02 1.661040e+02 1.511145e+02 1.516552e+02 1.416158e+02 1.195469e+02 1.395890e+01 1.040781e+01 9.648540e+00 1.434670e+01 1.126364e+01 1.107710e+01 1.205487e+01 1.325090e+01 1.213950e+01 1.181397e+01 1.160471e+01 1.358506e+01 1.036585e+01 1.218601e+00 1.281425e+00 1.489450e+00 3.652508e+00 2.526962e+00 1.945696e+00 2.566303e+00 2.598358e+00 2.757121e+00 2.328845e+00 1.699593e+00 2.131074e+00 1.668364e+00
<GCONST> 1.770276e+02
<MIXTURE> 5 1.179961e-01
<MEAN> 39
 1.290018e+01 -6.306188e+00 7.819312e+00 -9.179661e+00 -7.302783e+00 -9.775287e+00 -1.713409e+01 -1.750367e+01 -1.686072e+01 -9.902202e-01 2.881793e+00 -7.194937e+00 1.146078e+02 -5.724381e-01 2.796371e+00 1.036562e+00 1.889398e+00 1.651968e+00 1.987128e+00 1.540898e+00 -9.341016e-01 -4.348100e-01 -1.607953e+00 3.966469e-01 1.228911e+00 -3.557092e+00 -5.051457e-01 -1.116146e+00 2.441293e-02 -1.094443e+00 -9.868240e-01 -8.147959e-01 1.062783e-01 1.564051e+00 9.140341e-01 5.016207e-02 -8.496590e-01 -2.985847e-01 1.483787e+00
<VARIANCE> 39
 2.124836e+01 1.074764e+02 1.105831e+02 2.859027e+02 1.135596e+02 1.971503e+02 1.960747e+02 2.255076e+02 2.507461e+02 1.756665e+02 2.098696e+02 1.197109e+02 7.564256e+01 2.889239e+00 5.269449e+00 8.448601e+00 1.337534e+01 1.102448e+01 1.510735e+01 1.407441e+01 1.465476e+01 1.435371e+01 1.205219e+01 1.329383e+01 1.104955e+01 3.580853e+00 3.367001e-01 7.333958e-01 1.568862e+00 2.226943e+00 1.849580e+00 1.720047e+00 2.531059e+00 1.923706e+00 3.488972e+00 2.318516e+00 1.863605e+00 1.983201e+00 5.725448e-01
<GCONST> 1.703819e+02
<MIXTURE> 6 1.006407e-01
<MEAN> 39
 1.161969e+01 1.501271e+00 1.122397e+01 -3.040890e+00 -1.711849e+01 -2.253509e+01 -2.766637e+01 -2.779827e+01 -1.391879e+01 -5.128883e+00 -1.235063e+01 -1.638425e+01 1.111847e+02 -4.882379e-01 1.979595e+00 1.149739e+00 1.248949e+00 1.677091e+00 1.923156e+00 6.130121e-01 -7.045860e-01 -1.128144e-01 -9.140683e-01 9.893175e-01 1.239644e+00 -2.348459e+00 -4.673444e-01 -4.774136e-01 1.551324e-01 -1.360090e-01 6.552342e-01 6.605001e-01 4.940295e-01 6.612515e-01 -1.747176e-01 -1.580853e-01 2.646401e-01 3.537719e-01 8.284003e-03
<VARIANCE> 39
 1.843287e+01 5.302094e+01 6.856414e+01 8.707960e+01 1.130799e+02 1.946252e+02 1.125245e+02 2.951058e+02 1.389140e+02 1.898103e+02 1.237149e+02 1.614350e+02 4.130767e+01 1.210919e+00 2.005520e+00 2.916061e+00 3.638020e+00 6.389659e+00 7.483908e+00 4.819771e+00 7.682428e+00 7.776311e+00 7.418184e+00 6.998307e+00 8.324706e+00 9.981501e-01 2.175762e-01 5.624400e-01 5.806594e-01 9.186270e-01 1.157886e+00 1.235445e+00 1.010714e+00 2.112499e+00 1.296478e+00 1.533369e+00 1.237932e+00 1.673223e+00 4.089919e-01
<GCONST> 1.492241e+02
<MIXTURE> 7 8.485800e-02
<MEAN> 39
 1.760450e+00 3.623670e+00 1.951104e+01 3.662403e+00 1.673067e+00 5.123314e-01 -4.950204e+00 -1.238497e+01 -8.686801e+00 -6.857001e+00 -4.180078e+00 -7.066595e+00 9.684037e+01 2.448261e-01 1.061806e+00 1.079878e+00 8.601925e-01 5.831437e-01 7.977725e-01 6.072318e-01 -7.687133e-02 -1.901104e-02 -3.229680e-01 -2.470701e-01 1.957722e-01 -3.832825e-01 -1.884257e-01 -4.981988e-01 -3.101499e-01 -4.479247e-01 -3.756069e-01 -3.855159e-01 -2.525311e-01 1.107743e-01 -2.317674e-02 8.321304e-02 2.728983e-02 9.456264e-02 4.910478e-01
<VARIANCE> 39
 3.204286e+01 2.597910e+01 3.521131e+01 3.938242e+01 5.646451e+01 7.326582e+01 7.000890e+01 5.617117e+01 7.696780e+01 7.505000e+01 7.288735e+01 6.780459e+01 2.673365e+01 3.826123e+00 3.122093e+00 2.902281e+00 3.983573e+00 4.458256e+00 3.666859e+00 4.779103e+00 4.986052e+00 4.947519e+00 5.015271e+00 4.628141e+00 4.448488e+00 2.132280e+00 5.317425e-01 5.693750e-01 5.653553e-01 6.273850e-01 7.863635e-01 8.331267e-01 1.064566e+00 9.565974e-01 9.945481e-01 9.480291e-01 8.765981e-01 8.529958e-01 4.485764e-01
<GCONST> 1.367930e+02
<MIXTURE> 8 2.959829e-02
<MEAN> 39
 3.974722e+00 2.666785e-02 1.473250e+01 -1.679673e+00 -8.701453e+00 -1.963896e+01 -2.726133e+01 -3.635907e+01 -2.009057e+01 -1.229819e+01 -1.837274e+01 -1.397160e+01 1.073036e+02 2.322758e+00 2.261436e+00 1.561189e+00 1.687746e+00 8.406889e-02 -6.717176e-02 -2.302790e+00 -1.779537e+00 -1.360470e+00 -1.831708e-01 -9.552767e-01 -1.921389e+00 3.044309e-02 -8.397196e-01 -1.181631e+00 -8.508092e-01 -1.373574e+00 1.187936e-01 8.493235e-01 1.859455e+00 2.570301e+00 1.120677e+00 3.200989e-01 8.189760e-01 5.596561e-01 3.704199e-01
<VARIANCE> 39
 4.590859e+01 8.455357e+01 8.947159e+01 1.092434e+02 9.615654e+01 2.815228e+02 8.827336e+01 2.604529e+02 1.604788e+02 2.226445e+02 1.750734e+02 1.333044e+02 9.129108e+01 1.044491e+01 7.547000e+00 6.393924e+00 6.184051e+00 1.086845e+01 2.010468e+01 1.763663e+01 2.481503e+01 1.366683e+01 1.602085e+01 1.296315e+01 1.220659e+01 1.117716e+01 1.154608e+00 1.465417e+00 1.519593e+00 2.273612e+00 1.877192e+00 3.036790e+00 1.472983e+00 3.379530e+00 2.091664e+00 3.738041e+00 2.805884e+00 2.716283e+00 1.693767e+00
<GCONST> 1.765389e+02
<MIXTURE> 9 1.010383e-01
<MEAN> 39
 1.104703e+01 -8.288354e+00 3.670346e+00 -1.516221e+01 -9.780636e+00 -1.284887e+01 -2.378764e+01 -2.042903e+01 -1.514070e+01 -5.162994e+00 -1.078192e+01 -1.246285e+01 1.138192e+02 -7.741100e-01 3.434624e+00 1.774171e+00 3.886486e+00 2.622566e+00 1.792711e+00 9.018990e-01 -2.106343e+00 -1.046293e+00 -1.403052e+00 8.755339e-01 -2.019552e-01 -4.412889e+00 -5.551617e-01 -1.257388e+00 -3.154388e-02 -1.475243e+00 -1.238837e+00 -4.666176e-01 7.936532e-01 1.393638e+00 2.332388e-01 -2.003603e-01 -5.874225e-01 1.863291e-01 1.753977e+00
<VARIANCE> 39
 2.698087e+01 8.747617e+01 1.408563e+02 2.138981e+02 9.636362e+01 1.661227e+02 1.371963e+02 1.682623e+02 1.840210e+02 1.714151e+02 1.498883e+02 1.024365e+02 6.452613e+01 2.828120e+00 5.961426e+00 1.037302e+01 1.385851e+01 1.267944e+01 1.395613e+01 1.404947e+01 1.399779e+01 1.349888e+01 1.444015e+01 9.834016e+00 1.326045e+01 4.434089e+00 3.548657e-01 8.272550e-01 1.486264e+00 2.308321e+00 2.200323e+00 1.664463e+00 2.367478e+00 1.956283e+00 2.547711e+00 2.533838e+00 1.780746e+00 1.819699e+00 7.127696e-01
<GCONST> 1.690732e+02
<MIXTURE> 10 8.933028e-02
<MEAN> 39
 9.904976e+00 -2.594159e+00 4.390459e+00 -6.680384e+00 -2.241246e+01 -2.344820e+01 -2.724562e+01 -2.491007e+01 -1.966296e+01 -1.211954e+01 -2.193913e+01 -2.499771e+01 1.149560e+02 -7.236502e-02 1.406521e+00 5.545123e-01 3.797358e-01 7.611189e-01 1.119293e+00 -3.203318e-02 -7.271341e-01 3.300303e-02 -2.314016e-01 -1.429506e-01 -1.585705e-01 -1.697858e+00 -2.882596e-01 -3.512412e-01 2.833847e-01 -2.317580e-01 5.412080e-01 4.529307e-01 2.857178e-01 2.036379e-01 5.836211e-02 1.234560e-01 4.138435e-01 5.922564e-01 8.555543e-02
<VARIANCE> 39
 2.433741e+01 6.822998e+01 8.417227e+01 1.039984e+02 1.077676e+02 2.494730e+02 1.438336e+02 2.755683e+02 1.293297e+02 1.853165e+02 1.350665e+02 1.557570e+02 4.890714e+01 8.980666e-01 1.986565e+00 2.806031e+00 3.370271e+00 5.082446e+00 6.154109e+00 4.633063e+00 6.034707e+00 4.732397e+00 7.064734e+00 5.871004e+00 5.610156e+00 1.101264e+00 2.323178e-01 5.113549e-01 7.101352e-01 9.579562e-01 1.191803e+00 1.119265e+00 1.047744e+00 1.713778e+00 9.459617e-01 1.271313e+00 1.257645e+00 1.254196e+00 5.006611e-01
<GCONST> 1.478908e+02
<MIXTURE> 11 5.661888e-02
<MEAN> 39
 -4.468161e+00 -6.883680e+00 8.824306e+00 -4.318081e+00 -3.620919e+00 -3.332451e+00 -9.175618e+00 -1.196404e+01 -7.414990e+00 -4.640567e+00 -2.472163e+00 -3.546543e+00 9.862871e+01 1.125894e+00 2.365706e+00 1.764021e+00 2.023172e+00 3.918336e-01 2.951769e-01 1.289495e-01 -1.685723e+00 -1.989258e+00 -2.097207e+00 -1.402869e+00 -1.459741e+00 -1.008437e+00 5.375684e-01 8.079309e-02 3.447797e-01 -7.143698e-01 -8.040156e-01 -9.586390e-01 -4.679660e-01 2.168224e-02 -2.678905e-01 -7.119215e-02 -4.949274e-01 -4.144430e-01 1.545942e+00
<VARIANCE> 39
 1.606597e+02 6.764346e+01 5.775001e+01 6.113719e+01 5.631144e+01 9.523594e+01 1.288278e+02 1.285025e+02 9.433757e+01 7.375307e+01 8.660700e+01 7.108073e+01 1.270906e+02 1.083320e+01 7.466613e+00 7.628619e+00 8.775236e+00 1.105275e+01 1.508532e+01 1.636340e+01 1.360210e+01 1.233642e+01 9.457619e+00 1.180957e+01 1.212237e+01 1.046058e+01 1.724940e+00 1.743861e+00 1.627361e+00 2.147231e+00 1.484100e+00 1.497107e+00 2.294084e+00 2.833978e+00 2.433580e+00 1.942176e+00 1.593656e+00 1.702344e+00 1.101163e+00
<GCONST> 1.687193e+02
<MIXTURE> 12 5.639870e-02
<MEAN> 39
 1.078189e+01 1.532139e+00 1.238319e+01 -7.906801e+00 -7.626176e+00 -1.277890e+01 -1.245240e+01 -1.441037e+01 -1.743278e+01 -3.742832e+00 -6.810768e+00 -8.288384e+00 1.115747e+02 -5.516650e-02 1.066876e+00 4.487961e-01 6.753619e-01 -3.991846e-01 2.180042e-01 3.142342e-01 -1.594715e-01 6.683713e-01 -4.069059e-01 -1.125288e-01 -2.499894e-01 -1.089498e+00 -1.259250e-01 -3.543581e-01 -9.155446e-02 -2.935691e-01 -1.832049e-01 1.856173e-01 -7.716715e-02 2.060398e-01 2.521299e-01 1.207308e-01 2.254521e-01 -5.767815e-02 2.305580e-01
<VARIANCE> 39
 2.297149e+01 5.156013e+01 7.646320e+01 1.832040e+02 1.347605e+02 1.515159e+02 1.869668e+02 2.775950e+02 1.877861e+02 2.277976e+02 1.683597e+02 1.071754e+02 4.435599e+01 6.989589e-01 1.546537e+00 1.742932e+00 3.000770e+00 3.411170e+00 6.192699e+00 4.161314e+00 5.511888e+00 4.861262e+00 5.163209e+00 5.487025e+00 4.960382e+00 9.432951e-01 2.324308e-01 5.546454e-01 6.671719e-01 8.146420e-01 8.060558e-01 1.101843e+00 1.052488e+00 1.370760e+00 1.137795e+00 1.482387e+00 1.158571e+00 7.900545e-01 4.372931e-01
<GCONST> 1.449200e+02
<MIXTURE> 13 6.645026e-02
<MEAN> 39
 1.441452e+00 3.486898e+00 1.877837e+01 1.910693e+00 -1.896190e+00 -2.312597e+00 -9.511320e+00 -1.731012e+01 -1.334040e+01 -1.170877e+01 -9.029212e+00 -9.240310e+00 9.645570e+01 -3.581496e-01 3.823017e-01 6.956034e-01 1.001514e+00 7.505397e-01 5.329749e-01 4.896186e-01 1.899770e-02 1.420508e-01 -7.525800e-01 -9.345875e-01 -8.475267e-01 -6.122492e-01 -1.285005e-02 -4.583153e-01 -4.385803e-01 -7.205086e-01 -4.987765e-01 -5.691642e-01 -2.620957e-01 3.219061e-01 1.504571e-01 1.944426e-01 -4.235543e-02 9.963504e-02 7.470759e-01
<VARIANCE> 39
 2.788292e+01 2.614482e+01 3.470999e+01 3.588224e+01 5.248550e+01 6.082381e+01 7.792680e+01 7.964730e+01 6.048001e+01 9.019548e+01 7.655584e+01 8.277722e+01 3.122467e+01 2.321277e+00 2.217153e+00 2.301989e+00 3.046918e+00 3.970812e+00 4.615965e+00 5.885238e+00 5.250636e+00 4.537623e+00 6.538070e+00 5.819185e+00 4.519846e+00 1.400683e+00 4.601067e-01 4.935227e-01 5.591408e-01 8.364896e-01 9.672710e-01 1.032650e+00 1.179439e+00 1.007060e+00 9.544076e-01 1.203334e+00 9.267175e-01 9.443676e-01 4.938727e-01
<GCONST> 1.371480e+02
<MIXTURE> 14 4.235830e-02
<MEAN> 39
 2.932117e+00 3.534208e+00 1.317004e+01 -4.526786e+00 -1.111109e+01 -9.422118e+00 -1.182062e+01 -1.738990e+01 -1.708355e+01 -1.732218e+01 -1.506201e+01 -1.276716e+01 1.033857e+02 1.025710e+00 8.447722e-01 1.125292e+00 1.043247e+00 7.782737e-02 -4.880680e-01 -8.333162e-01 -1.007839e+00 -8.282205e-01 -6.072523e-02 -3.572027e-01 -1.166632e+00 -2.395341e-01 -2.981523e-01 -1.137224e+00 -6.897570e-01 -1.418874e+00 -7.640509e-02 -6.210967e-02 -2.044875e-01 4.123513e-01 4.512596e-01 8.605254e-01 4.816275e-01 5.026977e-01 1.117993e+00
<VARIANCE> 39
 7.352066e+01 5.369770e+01 7.477925e+01 1.294134e+02 1.132158e+02 2.481193e+02 1.813039e+02 1.715109e+02 1.256777e+02 1.484916e+02 1.756951e+02 1.314816e+02 8.708721e+01 1.430427e+01 8.447705e+00 8.938259e+00 1.433888e+01 1.443880e+01 1.456482e+01 1.322748e+01 1.247872e+01 1.034824e+01 1.015571e+01 1.254498e+01 1.215850e+01 9.363982e+00 1.333234e+00 1.242530e+00 2.213617e+00 3.702145e+00 2.423247e+00 3.648475e+00 2.421937e+00 2.575845e+00 1.931448e+00 2.246257e+00 1.921109e+00 2.470758e+00 2.343481e+00
<GCONST> 1.765892e+02
<MIXTURE> 15 3.820232e-02
<MEAN> 39
 9.718972e+00 1.579996e+00 1.639354e+01 7.334305e+00 -1.222168e+00 -6.921382e+00 -1.150834e+01 -1.991004e+01 -2.172022e+01 -6.252657e-01 2.890808e+00 -1.341380e+01 1.046461e+02 -7.395006e-01 1.642341e+00 1.416422e+00 -6.548585e-01 6.343583e-01 2.087507e+00 1.139468e+00 8.000954e-01 2.266408e+00 -1.093736e+00 -1.216945e+00 3.305625e-01 -2.112309e+00 -4.350829e-01 -4.875829e-01 -3.149704e-01 -4.954376e-01 -1.435223e-01 -3.447338e-01 1.560120e-01 5.119658e-01 7.086307e-01 -2.151569e-01 -5.372198e-01 4.498924e-01 3.363426e-01
<VARIANCE> 39
 2.045880e+01 2.628920e+01 4.508410e+01 9.152898e+01 6.759855e+01 7.625835e+01 1.247769e+02 1.067545e+02 1.828557e+02 1.297985e+02 1.046734e+02 7.946630e+01 3.476029e+01 2.237819e+00 2.177208e+00 2.601381e+00 5.773819e+00 5.441285e+00 5.722511e+00 7.619839e+00 7.590149e+00 1.021627e+01 7.048048e+00 7.482729e+00 7.732210e+00 2.435583e+00 3.181208e-01 5.931576e-01 5.505676e-01 9.857410e-01 1.264383e+00 1.396074e+00 1.374401e+00 1.148559e+00 2.078018e+00 1.207350e+00 1.198535e+00 1.161071e+00 4.879344e-01
<GCONST> 1.472766e+02
<MIXTURE> 16 2.241908e-02
<MEAN> 39
 -5.958307e-01 -6.503058e+00 1.109505e+01 -6.474712e+00 -7.462989e+00 -2.131396e+01 -2.315268e+01 -3.531035e+01 -2.110838e+01 -1.280754e+01 -2.037583e+01 -1.569883e+01 1.085625e+02 2.912029e+00 2.361965e+00 1.186730e+00 2.016061e+00 -1.389346e+00 -1.413271e+00 -3.775083e+00 -3.256421e+00 -3.044673e+00 -1.178198e+00 -3.542213e+00 -4.063058e+00 4.476415e-01 -3.873138e-01 -7.449956e-01 -6.760378e-01 -1.416079e+00 -2.772308e-01 4.837317e-01 1.587991e+00 1.855857e+00 9.511160e-01 3.808991e-01 8.844973e-01 5.464708e-01 6.789993e-01
<VARIANCE> 39
 7.198774e+01 1.218541e+02 8.699339e+01 1.581975e+02 9.221667e+01 3.754165e+02 1.407991e+02 4.186485e+02 1.861303e+02 1.990222e+02 1.247190e+02 1.153737e+02 1.733649e+02 1.043966e+01 1.090127e+01 6.135295e+00 1.074355e+01 1.077128e+01 2.103916e+01 2.365101e+01 5.618238e+01 2.126713e+01 1.874842e+01 1.412918e+01 1.272295e+01 1.276001e+01 9.405735e-01 1.183006e+00 1.171388e+00 2.692024e+00 2.007726e+00 2.408490e+00 3.163751e+00 5.860718e+00 2.194925e+00 3.518366e+00 2.708365e+00 2.032857e+00 1.280460e+00
<GCONST> 1.819851e+02
<STATE> 3
<NUMMIXES> 16
<MIXTURE> 1 3.770604e-02
<MEAN> 39
 6.431725e+00 8.280600e+00 2.447588e+01 1.050279e+01 7.045502e+00 6.514333e+00 -8.310073e-01 -1.042976e+01 -9.631432e+00 -4.990303e+00 -1.159016e+00 -7.277643e+00 9.931731e+01 -1.390990e+00 9.877228e-01 1.859609e+00 1.317673e+00 2.513181e+00 1.784547e+00 1.704282e+00 1.178973e+00 1.581638e+00 -1.118685e+00 -1.935443e+00 2.896684e-01 -2.041530e+00 -2.149567e-02 -1.558326e+00 -1.460066e+00 -2.000149e+00 -1.838615e+00 -1.692867e+00 -8.817401e-01 5.480738e-01 2.522060e-03 4.826463e-01 8.315297e-01 -6.573039e-02 2.337379e+00
<VARIANCE> 39
 3.170474e+01 1.654477e+01 3.298410e+01 6.704226e+01 5.060406e+01 5.440359e+01 5.267760e+01 9.537805e+01 8.874848e+01 7.317212e+01 7.467525e+01 9.668546e+01 3.114090e+01 2.425432e+00 4.912405e+00 5.312763e+00 1.168434e+01 7.902189e+00 8.591011e+00 7.444755e+00 8.770165e+00 9.411176e+00 6.469112e+00 1.217736e+01 6.216719e+00 3.159652e+00 7.390692e-01 6.353174e-01 1.515549e+00 2.121454e+00 1.700333e+00 2.019932e+00 1.193084e+00 1.158516e+00 2.094946e+00 1.734039e+00 2.645282e+00 1.635844e+00 7.822430e-01
<GCONST> 1.522532e+02
<MIXTURE> 2 8.391336e-02
<MEAN> 39
 1.402932e+01 -3.064952e+00 6.935247e+00 -1.166375e+01 -9.587394e+00 -3.699682e+00 -8.224699e+00 -1.431533e+01 -1.819637e+01 -4.474904e+00 7.392727e+00 -3.234262e+00 1.129232e+02 7.611780e-02 -1.043123e+00 -5.316142e-01 -1.854977e+00 -4.220913e-01 -1.259584e+00 -1.397106e+00 1.461191e+00 2.374749e+00 1.118065e+00 1.723813e-01 4.027385e-01 1.219557e+00 -1.550321e-01 -1.619937e+00 -2.247546e-01 -1.318312e+00 -8.214751e-01 -9.064500e-01 -9.970496e-01 1.244300e+00 1.157335e+00 9.043254e-01 -2.563025e-01 -7.892153e-01 1.962766e+00
<VARIANCE> 39
 2.000597e+01 1.025459e+02 8.075603e+01 2.350118e+02 9.202753e+01 1.731923e+02 1.311448e+02 1.084465e+02 1.834204e+02 1.192740e+02 1.351488e+02 1.253529e+02 3.963083e+01 2.123561e+00 5.678733e+00 8.592039e+00 1.481090e+01 8.212446e+00 1.071582e+01 1.273475e+01 1.020035e+01 1.780860e+01 1.423120e+01 1.092975e+01 1.090860e+01 4.125419e+00 5.698021e-01 8.982338e-01 2.045750e+00 2.859061e+00 2.522739e+00 2.000766e+00 1.893274e+00 2.257346e+00 3.831502e+00 2.039607e+00 2.910532e+00 2.384502e+00 7.059454e-01
<GCONST> 1.680304e+02
<MIXTURE> 3 5.736415e-02
<MEAN> 39
 -9.858517e-01 2.831803e+00 1.770860e+01 2.695371e+00 1.048369e+00 -1.343937e+00 -3.884809e+00 -6.101282e+00 -3.347597e+00 -6.831202e+00 -5.771947e+00 -7.030857e+00 9.809348e+01 -5.821008e-02 -7.486517e-01 4.727784e-02 -5.956325e-01 -6.067687e-01 -1.494357e+00 -5.816658e-01 6.678615e-01 -1.805620e-01 9.167271e-01 1.157632e+00 5.341067e-01 2.376236e+00 6.848276e-01 -1.447871e+00 -2.401838e-01 -1.956452e+00 -2.083245e+00 -1.119445e+00 -8.846214e-01 1.653289e-01 -6.300506e-01 3.782699e-01 6.996100e-01 2.658505e-01 2.217511e+00
<VARIANCE> 39
 6.629449e+01 5.825681e+01 4.453120e+01 6.879244e+01 7.397344e+01 1.007606e+02 6.935529e+01 8.424583e+01 7.969122e+01 7.052010e+01 6.212698e+01 5.166019e+01 6.141867e+01 1.451391e+01 8.287675e+00 9.134403e+00 8.314643e+00 8.466419e+00 9.963387e+00 1.104981e+01 7.129271e+00 7.068665e+00 9.678734e+00 6.154437e+00 6.521389e+00 7.285079e+00 1.804637e+00 1.474221e+00 3.807498e+00 3.821359e+00 1.944106e+00 2.517512e+00 1.695936e+00 2.350250e+00 2.780426e+00 2.486069e+00 1.479193e+00 1.509132e+00 1.358837e+00
<GCONST> 1.638736e+02
<MIXTURE> 4 8.684067e-02
<MEAN> 39
 8.194653e+00 5.641097e+00 1.582879e+01 1.437411e+00 -5.371346e+00 -1.348156e+01 -2.771209e+01 -3.252244e+01 -1.765192e+01 -5.737220e+00 -6.170830e+00 -1.145708e+01 1.040781e+02 -1.770025e+00 -1.175127e+00 7.157369e-03 -1.518431e+00 4.964145e-01 8.392928e-01 2.963834e+00 4.768860e+00 1.990120e+00 -1.157293e+00 4.606175e-01 9.798605e-01 2.554243e-01 9.656460e-02 -2.435867e+00 -1.035161e+00 -2.660793e+00 -1.789784e+00 -7.524015e-01 1.162085e+00 2.325368e+00 7.928036e-01 6.533122e-01 -8.779987e-01 9.932064e-02 2.751153e+00
<VARIANCE> 39
 2.024988e+01 4.071914e+01 6.021453e+01 4.166722e+01 7.509768e+01 1.211438e+02 7.253532e+01 1.209206e+02 9.894015e+01 1.553112e+02 1.704550e+02 1.256890e+02 2.521402e+01 4.469849e+00 6.184541e+00 9.221649e+00 1.148017e+01 1.179226e+01 1.168099e+01 1.105770e+01 1.619790e+01 1.233846e+01 1.207496e+01 9.056222e+00 1.281511e+01 7.013555e+00 7.964025e-01 1.123629e+00 2.926902e+00 2.083965e+00 2.649646e+00 2.716991e+00 1.899609e+00 2.280484e+00 2.163792e+00 2.570506e+00 2.506010e+00 2.985142e+00 1.050435e+00
<GCONST> 1.659697e+02
<MIXTURE> 5 7.130717e-02
<MEAN> 39
 3.804906e+00 4.761219e+00 1.837310e+01 7.082626e-01 -4.147408e+00 -7.361252e+00 -1.151987e+01 -1.590419e+01 -1.345348e+01 -1.539250e+01 -1.473181e+01 -1.437870e+01 9.950040e+01 -1.737535e+00 -9.828160e-01 4.988900e-01 -3.236882e-01 -8.438672e-04 5.962864e-01 1.404671e+00 1.107338e+00 3.092134e-01 5.466340e-01 1.522700e+00 7.789292e-01 4.340549e-01 3.612302e-01 -1.391528e+00 -6.505024e-01 -3.198777e+00 -1.888775e+00 -8.797148e-01 -5.059263e-01 3.827885e-01 -6.871993e-02 1.356840e+00 4.426536e-01 1.187398e+00 2.657216e+00
<VARIANCE> 39
 3.557386e+01 2.575696e+01 3.963960e+01 4.327654e+01 5.588395e+01 6.184027e+01 8.543834e+01 7.700160e+01 7.794779e+01 1.060872e+02 7.707506e+01 8.603708e+01 1.803938e+01 4.543617e+00 3.967510e+00 8.620846e+00 7.558439e+00 8.655864e+00 8.419742e+00 8.270854e+00 9.833308e+00 8.798898e+00 8.583641e+00 7.134736e+00 8.537952e+00 5.173555e+00 1.248052e+00 1.153908e+00 4.250520e+00 2.413104e+00 2.357224e+00 2.452827e+00 1.555682e+00 1.760550e+00 2.069374e+00 2.375574e+00 2.149576e+00 2.008451e+00 9.369476e-01
<GCONST> 1.578754e+02
<MIXTURE> 6 6.759049e-02
<MEAN> 39
 1.260132e+01 -1.165586e+01 6.220497e+00 -1.770079e+01 -9.420769e+00 -1.853124e+01 -2.020717e+01 -1.013779e+01 -1.127578e+01 3.881626e+00 -1.006697e+00 -7.407647e+00 1.217520e+02 -1.817500e-01 -3.412255e-01 9.060474e-01 -4.286012e-01 -1.322112e+00 -1.113279e+00 4.361667e-01 1.258599e+00 1.101351e-01 -4.275448e-01 -1.685639e-01 3.929531e-01 5.312487e-01 -5.831582e-01 -7.980778e-01 1.335305e-01 -9.202133e-01 -1.116821e+00 -4.204055e-01 7.474856e-01 1.225971e+00 2.116417e-01 -2.278950e-01 -4.188088e-01 -1.500558e-01 1.388683e+00
<VARIANCE> 39
 3.343966e+01 1.122244e+02 2.025381e+02 2.974937e+02 1.287896e+02 2.734490e+02 1.741671e+02 2.619767e+02 1.931199e+02 1.993175e+02 2.228747e+02 1.128161e+02 6.756736e+01 2.223996e+00 4.438453e+00 1.012115e+01 9.091571e+00 6.530488e+00 1.125241e+01 8.533396e+00 9.581164e+00 1.349289e+01 9.560525e+00 7.824138e+00 7.989242e+00 3.378636e+00 4.498308e-01 9.402258e-01 1.140910e+00 2.265169e+00 1.992978e+00 2.699508e+00 1.860414e+00 3.152401e+00 2.455455e+00 2.113373e+00 2.257425e+00 1.745851e+00 6.745213e-01
<GCONST> 1.689050e+02
<MIXTURE> 7 5.592401e-02
<MEAN> 39
 7.030022e+00 6.818452e+00 2.281542e+01 4.656630e+00 2.650611e+00 7.762794e-01 -5.335694e+00 -1.648565e+01 -1.468774e+01 -8.392895e+00 -6.740885e+00 -1.043562e+01 1.008731e+02 -6.448097e-01 -4.677340e-01 8.375836e-03 -6.663715e-01 -2.569940e-01 1.649881e-02 -2.951352e-01 2.546663e-01 1.438463e+00 -1.784899e-01 2.369243e-01 3.786229e-01 1.761403e-01 6.851575e-02 -1.772292e+00 -7.932543e-01 -1.103455e+00 -1.399269e+00 -2.777984e+00 -8.582036e-01 1.263234e+00 -4.122458e-01 1.394590e+00 6.677790e-01 2.642554e-01 2.331446e+00
<VARIANCE> 39
 1.783338e+01 1.729578e+01 5.103070e+01 4.244912e+01 4.277388e+01 6.235221e+01 7.753207e+01 6.713814e+01 9.193003e+01 8.043137e+01 8.366277e+01 6.491823e+01 2.956501e+01 1.848866e+00 3.181085e+00 3.974138e+00 4.607130e+00 6.647484e+00 1.121020e+01 8.443851e+00 8.750995e+00 9.529918e+00 6.955259e+00 8.674744e+00 4.945468e+00 3.663344e+00 3.546628e-01 4.782960e-01 2.232800e+00 2.198075e+00 2.165900e+00 3.783610e+00 1.776514e+00 4.348246e+00 3.194800e+00 2.466480e+00 1.378905e+00 1.472659e+00 4.882377e-01
<GCONST> 1.509950e+02
<MIXTURE> 8 5.281761e-02
<MEAN> 39
 9.315228e+00 -5.322504e+00 8.074297e+00 -8.234570e+00 -1.138179e+01 -2.363383e+01 -2.491325e+01 -1.901927e+01 -1.077385e+01 -6.969594e+00 -1.880621e+01 -1.786582e+01 1.116421e+02 -7.935048e-01 -1.723482e-02 1.617619e+00 -6.856815e-01 1.494272e-01 1.128820e+00 8.847504e-01 -7.156624e-02 -4.379601e-01 7.648713e-01 1.050862e+00 4.513405e-01 -3.319268e-01 -6.387634e-01 -1.814654e+00 6.074547e-01 -2.890908e+00 -1.867013e+00 -5.427029e-01 1.724246e+00 1.225771e+00 -4.378586e-01 1.254658e-01 2.024776e-01 1.185128e+00 2.465269e+00
<VARIANCE> 39
 2.281411e+01 7.765703e+01 7.234331e+01 1.022588e+02 1.135879e+02 1.684058e+02 9.959000e+01 2.121814e+02 1.325052e+02 1.502260e+02 1.005194e+02 1.005536e+02 4.242269e+01 1.568092e+00 5.056217e+00 7.014379e+00 9.641469e+00 9.995311e+00 1.130366e+01 7.221814e+00 1.109033e+01 6.681376e+00 7.450449e+00 5.785165e+00 8.207479e+00 4.834486e+00 5.110530e-01 9.959963e-01 2.933277e+00 1.756763e+00 3.175662e+00 1.956553e+00 2.482511e+00 3.305431e+00 2.984178e+00 2.912960e+00 2.369695e+00 1.416188e+00 7.754690e-01
<GCONST> 1.635042e+02
<MIXTURE> 9 8.617251e-02
<MEAN> 39
 1.202472e+01 -7.568890e-01 5.789452e+00 -1.047620e+01 -1.014617e+01 -4.210701e+00 -7.315149e+00 -1.664356e+01 -2.256883e+01 -9.546239e+00 1.781773e+00 -5.757030e+00 1.119206e+02 -4.608778e-01 -8.793151e-01 -2.797766e-01 -1.907284e+00 -1.225190e-01 -7.507836e-01 -1.579017e+00 1.324560e+00 2.950251e+00 1.355514e+00 -4.098150e-01 4.937173e-01 8.999089e-01 -1.036752e-01 -1.652846e+00 -2.309574e-01 -1.358016e+00 -1.271773e+00 -9.783298e-01 -1.078877e+00 7.865851e-01 1.445525e+00 1.012469e+00 -2.205175e-01 -4.571305e-01 2.044415e+00
<VARIANCE> 39
 2.217290e+01 8.846911e+01 1.043389e+02 3.123116e+02 1.263798e+02 1.473050e+02 1.619113e+02 1.280914e+02 2.000233e+02 1.781070e+02 1.647751e+02 1.083234e+02 4.046689e+01 2.750597e+00 7.413033e+00 8.408189e+00 1.661388e+01 1.283965e+01 1.269387e+01 1.707582e+01 1.260710e+01 1.996835e+01 1.495352e+01 1.254437e+01 1.066056e+01 4.358262e+00 6.529200e-01 9.022970e-01 2.466519e+00 3.488639e+00 3.417541e+00 2.356128e+00 2.190155e+00 3.579386e+00 4.048715e+00 2.410934e+00 2.903253e+00 2.693142e+00 7.549458e-01
<GCONST> 1.737022e+02
<MIXTURE> 10 6.830884e-02
<MEAN> 39
 -3.232838e+00 -1.081071e+00 1.319351e+01 -2.092109e-01 -2.062027e+00 -2.447443e+00 -5.345066e+00 -7.322955e+00 -5.231621e+00 -6.206493e+00 -6.746983e+00 -7.203495e+00 9.802339e+01 2.121308e-01 -1.011893e+00 5.996011e-02 -1.248269e+00 -1.667317e+00 -1.835317e+00 -1.248726e+00 2.055299e-01 -3.323525e-01 -2.286678e-01 5.826158e-01 3.921694e-01 2.702741e+00 8.963180e-01 -1.093406e+00 1.996346e-02 -2.140883e+00 -1.982289e+00 -1.205264e+00 -9.070622e-01 -1.243769e-03 -4.016356e-01 1.137991e-01 9.657655e-02 1.591863e-01 2.649802e+00
<VARIANCE> 39
 1.056017e+02 6.890826e+01 5.773604e+01 5.969909e+01 5.823679e+01 7.605603e+01 9.168727e+01 7.392738e+01 6.988873e+01 6.653386e+01 6.401052e+01 5.275503e+01 6.880508e+01 1.046284e+01 5.124902e+00 1.041072e+01 7.943138e+00 8.719403e+00 7.809134e+00 1.217669e+01 8.457091e+00 6.875952e+00 8.182171e+00 8.255534e+00 7.273836e+00 6.579638e+00 1.799761e+00 2.329886e+00 4.229583e+00 3.289412e+00 2.440822e+00 2.574867e+00 2.448426e+00 2.609811e+00 2.917967e+00 2.081111e+00 2.209367e+00 1.522462e+00 1.527541e+00
<GCONST> 1.651941e+02
<MIXTURE> 11 7.049103e-02
<MEAN> 39
 1.892877e+00 1.764285e+00 1.594090e+01 -2.422025e+00 -7.416637e+00 -1.022781e+01 -1.568288e+01 -2.220321e+01 -1.945620e+01 -2.146300e+01 -1.946354e+01 -1.874620e+01 1.005565e+02 -1.821211e+00 -7.063237e-01 1.426356e+00 1.634069e-01 -3.606188e-01 1.096509e-03 8.983845e-01 9.643667e-01 -3.768778e-01 -3.428853e-02 1.253747e-01 -2.632600e-01 4.428131e-01 3.977436e-01 -1.293109e+00 -1.805086e-01 -3.161595e+00 -2.051509e+00 -1.008991e+00 -7.565858e-01 7.494960e-01 3.293945e-01 1.650648e+00 4.788705e-01 1.288276e+00 2.581400e+00
<VARIANCE> 39
 2.168302e+01 2.432785e+01 4.385571e+01 4.897558e+01 4.387299e+01 4.587924e+01 5.429276e+01 6.609216e+01 6.991586e+01 8.818042e+01 6.286740e+01 5.345094e+01 1.918090e+01 4.494179e+00 5.349432e+00 8.920715e+00 9.482589e+00 8.981278e+00 9.749269e+00 6.661145e+00 8.185948e+00 7.824548e+00 8.381002e+00 5.565163e+00 7.084692e+00 7.255963e+00 1.016315e+00 1.165647e+00 4.211347e+00 2.141261e+00 2.556036e+00 1.871532e+00 2.264757e+00 1.834474e+00 2.011105e+00 2.072359e+00 2.177726e+00 1.717225e+00 8.031819e-01
<GCONST> 1.550241e+02
<MIXTURE> 12 6.145722e-02
<MEAN> 39
 1.144390e+01 -1.362887e+01 -9.138410e-01 -2.149001e+01 -9.789435e+00 -1.525436e+01 -2.586427e+01 -2.590418e+01 -1.785316e+01 2.440494e+00 -7.669533e+00 -1.611319e+01 1.196621e+02 -6.673878e-02 -9.253932e-01 -5.217094e-01 -1.852173e+00 -1.029040e+00 -7.018478e-01 5.918876e-01 2.733670e+00 1.352480e+00 3.985611e-01 -1.285766e+00 -4.390112e-01 1.170963e+00 -4.363900e-01 -1.422814e+00 -5.109029e-01 -1.455467e+00 -8.413558e-01 -2.025650e-01 1.041464e+00 2.197490e+00 1.002669e+00 -6.276162e-01 -1.101686e+00 4.752938e-01 1.904414e+00
<VARIANCE> 39
 4.072016e+01 9.084196e+01 1.407680e+02 2.579801e+02 1.428765e+02 2.361535e+02 1.636055e+02 4.220289e+02 2.550848e+02 1.804289e+02 1.757857e+02 1.412311e+02 5.087104e+01 1.257063e+00 4.848479e+00 8.332795e+00 1.267647e+01 5.958296e+00 1.007052e+01 9.033031e+00 1.715002e+01 1.521438e+01 1.234638e+01 8.536754e+00 9.546461e+00 4.592188e+00 3.413764e-01 1.084110e+00 1.573416e+00 2.369260e+00 2.478929e+00 2.207800e+00 2.729795e+00 3.212632e+00 3.312505e+00 2.666183e+00 2.371264e+00 2.304216e+00 6.532052e-01
<GCONST> 1.711567e+02
<MIXTURE> 13 7.165542e-02
<MEAN> 39
 6.818150e+00 1.369356e+00 1.258401e+01 -2.217806e+00 -7.546266e+00 -1.226145e+01 -2.739971e+01 -3.372746e+01 -1.947872e+01 -1.073869e+01 -1.556607e+01 -1.851019e+01 1.046780e+02 -7.956610e-01 -1.461944e+00 -7.208312e-01 -2.076932e+00 1.876280e-01 1.674941e-01 1.980044e+00 4.543564e+00 2.223417e+00 1.501141e-01 5.125390e-01 3.302395e-01 1.222670e+00 6.116429e-02 -2.630570e+00 -1.344502e+00 -3.244928e+00 -1.651479e+00 -6.856014e-01 9.101761e-01 2.547080e+00 8.036538e-01 7.692196e-01 -2.572956e-01 8.646024e-01 3.123682e+00
<VARIANCE> 39
 1.583517e+01 4.034848e+01 6.042533e+01 6.089637e+01 7.650436e+01 1.132113e+02 7.410847e+01 1.275087e+02 1.124377e+02 1.320008e+02 1.513351e+02 1.293698e+02 2.510451e+01 4.904147e+00 7.026398e+00 1.029250e+01 1.266097e+01 9.127320e+00 1.271869e+01 1.078794e+01 2.788769e+01 1.173934e+01 1.273420e+01 1.017071e+01 1.291821e+01 8.529942e+00 7.239919e-01 1.205785e+00 3.663325e+00 2.188403e+00 3.714887e+00 3.351384e+00 2.516771e+00 2.548550e+00 2.295771e+00 2.418922e+00 2.887115e+00 2.830805e+00 8.094864e-01
<GCONST> 1.681078e+02
<MIXTURE> 14 4.911535e-02
<MEAN> 39
 5.881979e+00 5.187670e+00 1.918029e+01 2.529244e+00 -1.141598e-01 -2.172769e+00 -9.378233e+00 -1.833130e+01 -1.549731e+01 -7.098857e+00 -3.958873e+00 -8.193469e+00 9.985232e+01 -9.798232e-01 -5.522960e-01 -3.875422e-02 -7.425210e-01 2.990547e-02 -2.958391e-01 -1.869333e-01 9.896532e-01 1.843235e+00 -5.167418e-01 -4.928307e-01 3.058521e-01 3.946076e-01 1.810607e-01 -1.888236e+00 -5.391593e-01 -1.176381e+00 -1.658221e+00 -1.970931e+00 -7.842696e-01 1.201725e+00 2.180458e-01 9.047107e-01 2.013796e-01 1.871355e-01 2.237634e+00
<VARIANCE> 39
 2.121542e+01 2.060286e+01 5.342770e+01 5.492484e+01 5.330148e+01 6.195640e+01 8.381366e+01 6.120676e+01 1.086245e+02 8.073319e+01 7.589131e+01 6.324440e+01 2.770723e+01 2.565128e+00 3.610831e+00 3.657025e+00 4.958817e+00 6.166861e+00 8.113398e+00 1.034885e+01 7.459024e+00 1.154585e+01 7.698076e+00 5.087543e+00 5.076330e+00 4.035112e+00 4.396538e-01 5.106791e-01 2.334825e+00 2.227661e+00 1.778358e+00 2.825402e+00 2.072031e+00 2.502723e+00 3.794158e+00 1.670641e+00 1.560436e+00 1.433773e+00 5.953929e-01
<GCONST> 1.513292e+02
<MIXTURE> 15 4.176173e-02
<MEAN> 39
 4.589171e+00 5.644176e+00 2.131363e+01 5.953383e+00 2.992477e+00 3.467927e+00 -2.657257e+00 -1.268355e+01 -9.746826e+00 -7.198725e+00 -4.297254e+00 -7.298349e+00 9.583117e+01 -2.116228e+00 1.221255e-01 9.675752e-01 5.107962e-01 1.209168e+00 8.680068e-01 1.265581e+00 1.921387e+00 8.551679e-01 -1.741380e+00 -1.632801e+00 -6.741576e-03 -9.283127e-01 2.745897e-01 -1.731618e+00 -1.168860e+00 -1.770896e+00 -1.592983e+00 -1.888069e+00 -1.370234e+00 1.882058e-01 -1.091230e-01 9.035595e-01 6.529575e-01 3.421683e-02 2.620719e+00
<VARIANCE> 39
 2.935156e+01 1.884983e+01 3.315961e+01 5.530131e+01 5.355133e+01 7.388969e+01 6.655243e+01 7.127058e+01 7.763614e+01 7.071391e+01 7.355534e+01 6.807393e+01 2.497852e+01 4.314337e+00 4.901769e+00 3.838410e+00 7.217511e+00 7.155311e+00 5.853690e+00 1.133518e+01 1.057184e+01 1.331032e+01 9.723715e+00 7.582607e+00 8.967195e+00 4.239635e+00 7.961770e-01 5.670950e-01 2.390992e+00 2.368594e+00 1.898573e+00 2.284704e+00 1.172055e+00 1.442513e+00 1.919217e+00 1.686970e+00 1.969490e+00 1.887645e+00 7.384886e-01
<GCONST> 1.531395e+02
<MIXTURE> 16 3.757478e-02
<MEAN> 39
 7.566080e+00 -8.088056e+00 6.418027e+00 -1.269868e+01 -1.331211e+01 -2.469390e+01 -2.690654e+01 -2.433931e+01 -1.644900e+01 -1.123086e+01 -2.188205e+01 -2.028598e+01 1.128581e+02 -8.606741e-01 -2.632220e-01 1.934210e+00 -1.654753e+00 -1.332329e+00 -4.704243e-01 7.958273e-01 4.559790e-01 -1.112414e+00 1.327691e-01 2.580380e-01 5.321015e-01 3.493377e-01 -5.731892e-01 -1.671832e+00 6.717482e-01 -3.120993e+00 -1.638422e+00 -4.451278e-01 1.760976e+00 1.288665e+00 -3.442398e-02 4.879104e-01 2.182450e-02 1.262334e+00 2.432876e+00
<VARIANCE> 39
 2.499887e+01 5.947131e+01 7.493325e+01 8.296589e+01 1.188058e+02 1.856353e+02 1.252810e+02 2.067943e+02 9.628019e+01 1.290495e+02 6.164909e+01 9.300986e+01 3.527234e+01 1.962115e+00 6.184130e+00 8.535008e+00 1.319159e+01 8.878803e+00 1.380194e+01 7.838261e+00 1.568615e+01 6.639000e+00 9.312715e+00 6.567659e+00 7.244306e+00 5.321566e+00 6.714965e-01 1.152748e+00 2.532630e+00 1.518655e+00 2.625478e+00 2.142148e+00 3.220673e+00 2.997208e+00 3.143697e+00 2.452562e+00 2.017807e+00 1.826923e+00 7.297301e-01
<GCONST> 1.641408e+02
<STATE> 4
<NUMMIXES> 16
<MIXTURE> 1 3.764706e-02
<MEAN> 39
 1.752328e+00 4.970402e+00 1.925721e+01 5.202601e+00 4.899628e+00 6.980921e+00 1.590993e+00 -1.026308e+01 -1.109481e+01 -8.200594e+00 -3.530549e+00 -5.311490e+00 9.912838e+01 1.199585e+00 -3.330159e+00 -5.113513e+00 -7.683208e+00 -2.654755e+00 -2.706461e+00 -1.312322e+00 2.486219e+00 2.320832e+00 3.104625e+00 2.410277e+00 1.669642e-01 6.087853e+00 1.046714e+00 -1.712768e+00 -2.184849e+00 -3.096797e+00 -1.658369e+00 -6.800677e-01 -9.049887e-01 2.225155e-01 1.454991e-01 1.112733e+00 1.063468e+00 -8.410851e-01 2.743268e+00
<VARIANCE> 39
 8.618218e+01 4.208593e+01 5.862440e+01 7.746344e+01 8.803651e+01 5.357423e+01 6.529543e+01 1.120828e+02 1.060726e+02 5.829267e+01 7.219140e+01 6.382857e+01 5.615577e+01 7.619001e+00 4.865571e+00 7.817909e+00 1.536635e+01 1.231677e+01 1.318133e+01 1.172072e+01 1.389788e+01 1.951868e+01 1.222745e+01 1.184652e+01 9.624122e+00 7.668091e+00 1.872828e+00 1.699847e+00 2.052271e+00 3.671243e+00 2.873943e+00 3.713016e+00 1.828394e+00 3.673980e+00 3.418523e+00 2.409883e+00 3.691140e+00 3.171768e+00 1.196225e+00
<GCONST> 1.698752e+02
<MIXTURE> 2 8.884442e-02
<MEAN> 39
 1.109648e+01 -1.075222e+01 3.587043e+00 -1.576217e+01 -7.219538e+00 -1.857653e+01 -1.611103e+01 -6.090589e+00 -8.329998e+00 5.779703e+00 7.099492e+00 -5.475648e+00 1.234121e+02 1.314149e+00 -4.874759e+00 -2.131222e+00 -3.857986e+00 -3.461078e+00 -4.726898e+00 -1.942291e+00 4.032405e+00 1.398520e+00 2.879967e+00 1.484246e+00 -1.430998e+00 6.020307e+00 -4.716552e-01 1.218496e-01 8.976727e-01 8.463107e-01 -3.240625e-01 8.691028e-01 8.620284e-01 2.095050e-01 -3.955930e-01 -8.726742e-01 -9.793277e-01 -6.086903e-01 -4.294200e-01
<VARIANCE> 39
 5.093030e+01 6.438927e+01 1.749560e+02 2.440564e+02 1.091334e+02 3.129142e+02 1.310261e+02 1.395929e+02 1.552495e+02 1.629817e+02 1.393667e+02 8.132975e+01 4.889822e+01 7.313274e+00 9.448247e+00 2.608602e+01 2.877347e+01 2.061173e+01 3.291763e+01 1.947842e+01 2.135898e+01 3.337215e+01 2.544559e+01 1.455121e+01 2.104141e+01 9.692784e+00 7.374671e-01 1.028341e+00 1.255007e+00 2.851552e+00 2.198020e+00 2.395299e+00 2.200381e+00 2.289814e+00 2.180103e+00 2.289210e+00 2.410078e+00 1.878182e+00 1.007707e+00
<GCONST> 1.795999e+02
<MIXTURE> 3 6.644013e-02
<MEAN> 39
 2.203295e+00 3.079385e+00 2.274169e+01 6.359445e+00 3.072939e+00 -3.531613e+00 -7.734477e+00 -1.079227e+01 -9.308553e+00 -6.923592e+00 -4.942527e+00 -9.653163e+00 1.032978e+02 -7.455979e-01 -4.706018e+00 1.620969e+00 -1.656760e+00 -5.550525e+00 -6.859710e+00 -3.213890e+00 3.853005e+00 -6.842467e-01 8.279389e-01 1.316897e+00 2.148152e+00 6.119629e+00 2.852508e-01 -1.124012e+00 8.187821e-01 -8.016938e-01 -3.031423e+00 -1.580185e+00 -4.869814e-01 6.681858e-01 -1.483935e+00 3.225963e-01 7.361889e-01 4.534127e-01 1.951812e+00
<VARIANCE> 39
 4.132456e+01 3.991563e+01 4.994598e+01 4.894241e+01 5.949789e+01 1.039745e+02 8.026086e+01 8.197472e+01 1.111912e+02 7.791895e+01 6.956502e+01 5.922120e+01 5.727253e+01 5.392911e+00 4.977335e+00 1.595911e+01 1.076239e+01 1.706087e+01 2.221608e+01 1.864257e+01 2.196068e+01 2.666238e+01 1.734180e+01 9.060315e+00 8.680876e+00 5.596571e+00 8.252269e-01 1.144130e+00 1.656904e+00 1.740445e+00 2.805033e+00 3.494052e+00 2.644254e+00 3.284616e+00 3.597273e+00 2.476716e+00 1.672117e+00 1.972355e+00 9.624721e-01
<GCONST> 1.672469e+02
<MIXTURE> 4 3.857090e-02
<MEAN> 39
 7.884422e+00 6.114691e-01 9.337237e+00 -8.886922e+00 -6.627466e+00 -7.557938e+00 -1.748239e+01 -2.458244e+01 -1.677149e+01 -7.790857e+00 -8.862316e+00 -1.396912e+01 1.081072e+02 1.018062e+00 -6.007729e+00 -5.546914e+00 -9.372612e+00 -1.971990e+00 3.040694e-01 3.104581e+00 7.805851e+00 4.867324e+00 1.291319e+00 -1.009537e+00 1.019485e+00 6.637907e+00 4.886235e-02 -2.405711e+00 -1.217693e+00 -1.564045e+00 -3.513387e-01 -1.202568e-01 1.053205e-03 6.487017e-01 2.267001e-01 4.153683e-01 -6.365970e-01 3.916847e-01 2.522103e+00
<VARIANCE> 39
 4.020848e+01 4.590877e+01 9.182943e+01 1.912535e+02 1.060153e+02 1.015035e+02 1.198388e+02 1.947654e+02 1.227553e+02 1.671974e+02 2.347146e+02 8.996020e+01 4.747801e+01 3.027878e+00 1.398805e+01 1.356800e+01 1.575656e+01 1.507086e+01 2.222445e+01 2.026476e+01 2.229830e+01 1.730175e+01 1.903171e+01 2.688313e+01 1.758607e+01 1.063291e+01 7.310975e-01 1.203151e+00 2.389676e+00 2.878721e+00 3.068949e+00 2.463357e+00 2.655362e+00 4.826052e+00 2.648201e+00 2.124205e+00 3.462448e+00 2.496910e+00 1.014877e+00
<GCONST> 1.776911e+02
<MIXTURE> 5 8.896771e-02
<MEAN> 39
 9.961087e+00 -1.809222e+01 2.119112e+00 -2.294930e+01 -1.359253e+01 -2.165513e+01 -1.826001e+01 -4.206372e+00 -9.498562e-01 4.744727e+00 -7.240899e+00 -9.216707e+00 1.293772e+02 -3.215171e-01 -6.111870e+00 -1.133220e+00 -4.856395e+00 -5.350468e+00 -3.428034e+00 1.486176e+00 5.820210e+00 3.036129e+00 4.098595e-01 -1.581681e+00 1.223813e+00 6.832629e+00 -4.626150e-01 7.501388e-01 1.155566e+00 1.356254e+00 -2.293791e-01 1.094890e+00 7.929716e-01 -8.899052e-01 -1.549015e+00 -1.199663e+00 7.966314e-02 7.759939e-02 -8.536681e-01
<VARIANCE> 39
 3.222094e+01 7.953835e+01 1.480446e+02 2.808180e+02 1.168368e+02 3.385947e+02 2.295961e+02 1.740377e+02 1.535301e+02 2.350645e+02 2.632769e+02 9.920459e+01 6.383588e+01 4.538558e+00 1.283497e+01 2.203753e+01 2.706853e+01 3.020281e+01 2.241840e+01 2.700884e+01 2.267166e+01 2.468243e+01 1.772040e+01 2.124648e+01 2.336044e+01 1.151361e+01 5.093833e-01 1.322273e+00 1.334625e+00 4.261997e+00 2.300802e+00 2.710554e+00 3.737281e+00 4.195636e+00 2.638186e+00 3.680163e+00 3.133595e+00 2.119404e+00 1.509175e+00
<GCONST> 1.847894e+02
<MIXTURE> 6 5.767348e-02
<MEAN> 39
 -4.421536e-01 5.931139e-02 1.922593e+01 1.160910e+00 -7.114423e+00 -1.314657e+01 -1.427717e+01 -1.109553e+01 -1.173878e+01 -1.236688e+01 -9.363245e+00 -9.748170e+00 1.059197e+02 -7.460515e-01 -3.501033e+00 2.872610e+00 -7.049334e+00 -5.660103e+00 -2.100540e+00 1.782757e+00 1.447562e+00 -8.031810e-01 2.667297e+00 5.372450e-01 2.500907e+00 5.979473e+00 5.823940e-01 -1.447797e-01 5.656667e-01 -3.086347e+00 -1.679117e+00 -2.336828e-01 -1.699644e-01 -1.153642e+00 -1.180455e-01 1.281531e+00 -3.968195e-01 7.479130e-01 1.536984e+00
<VARIANCE> 39
 5.839405e+01 6.144129e+01 4.625512e+01 4.973648e+01 7.755421e+01 9.379544e+01 8.258510e+01 1.216821e+02 6.825447e+01 7.158002e+01 9.206660e+01 7.356522e+01 5.621212e+01 6.748189e+00 7.646998e+00 2.745348e+01 1.355476e+01 1.086737e+01 1.357746e+01 1.923816e+01 2.431327e+01 1.510109e+01 1.337505e+01 1.025898e+01 1.017964e+01 5.886852e+00 1.132765e+00 2.375761e+00 2.493853e+00 1.867995e+00 2.426101e+00 2.649559e+00 2.433351e+00 3.576895e+00 1.987067e+00 1.754528e+00 1.851049e+00 1.898406e+00 1.531374e+00
<GCONST> 1.692739e+02
<MIXTURE> 7 4.749865e-02
<MEAN> 39
 7.679103e+00 -6.453953e+00 1.557237e+01 -1.811165e+01 -1.963128e+01 -2.319961e+01 -1.467394e+01 -1.032569e+01 -1.828313e+01 -6.108510e+00 -9.930720e+00 -7.957940e+00 1.173498e+02 -1.779076e+00 -1.715345e+00 4.440659e+00 -6.473660e+00 -4.248603e+00 -3.351252e-01 2.530819e+00 7.612120e-02 -1.660602e+00 2.064406e+00 1.117518e-01 1.805960e+00 3.674561e+00 -3.374093e-01 -1.363696e-01 2.340245e-01 -1.586890e+00 -2.586762e-01 4.340552e-01 2.965488e-01 -7.230612e-01 3.969614e-01 6.070761e-01 -2.314809e-01 1.490833e-01 8.904564e-01
<VARIANCE> 39
 4.833994e+01 9.621028e+01 2.331617e+02 2.805476e+02 1.141041e+02 2.229320e+02 1.560186e+02 2.071423e+02 1.553724e+02 1.083559e+02 9.643809e+01 1.016276e+02 3.921801e+01 4.663184e+00 8.834514e+00 1.717149e+01 2.238954e+01 1.157089e+01 1.353894e+01 1.368316e+01 1.716415e+01 1.337937e+01 1.325237e+01 1.042432e+01 9.328815e+00 9.212614e+00 4.320042e-01 9.617640e-01 1.261042e+00 1.774914e+00 1.790458e+00 1.768774e+00 1.718058e+00 1.848776e+00 2.021213e+00 1.750977e+00 1.703146e+00 1.292406e+00 3.848979e-01
<GCONST> 1.698214e+02
<MIXTURE> 8 6.567872e-02
<MEAN> 39
 3.123607e+00 -2.060352e+00 4.818358e+00 -1.333059e+01 -5.785794e+00 -2.692596e+00 -4.177668e+00 -7.059932e+00 -7.296022e+00 -4.966302e+00 -1.132794e+00 -2.273273e+00 1.115123e+02 3.211517e+00 -3.365557e+00 -5.212686e+00 -9.394384e+00 -3.649768e+00 -8.714598e-01 -1.605182e+00 1.370658e+00 2.003406e+00 3.063746e+00 2.559911e+00 4.347737e-01 6.586259e+00 7.698433e-01 -8.174714e-01 -2.284012e-01 -9.252847e-01 -4.263765e-01 4.615978e-01 -3.553040e-01 -4.598694e-01 -2.160769e-01 2.540601e-01 -2.947940e-02 -8.683068e-01 8.803930e-01
<VARIANCE> 39
 1.069423e+02 5.231069e+01 6.237249e+01 1.070881e+02 7.753424e+01 6.333369e+01 7.183484e+01 9.365554e+01 9.247939e+01 6.330864e+01 7.274196e+01 5.971347e+01 9.792628e+01 7.921280e+00 1.129788e+01 1.094041e+01 2.701097e+01 1.620281e+01 1.756104e+01 1.434431e+01 2.006560e+01 1.936327e+01 2.260800e+01 1.656475e+01 1.777114e+01 1.051128e+01 1.574158e+00 1.798523e+00 1.416949e+00 2.973179e+00 1.784153e+00 2.730767e+00 1.833035e+00 3.123966e+00 2.645425e+00 1.752971e+00 3.337115e+00 2.481396e+00 1.466134e+00
<GCONST> 1.735155e+02
<MIXTURE> 9 8.664498e-02
<MEAN> 39
 9.415912e+00 -1.040199e+01 4.944606e+00 -1.327054e+01 -1.029763e+01 -1.475804e+01 -1.859414e+01 -1.095192e+01 -7.358855e+00 1.967075e+00 3.631918e+00 -5.040440e+00 1.224775e+02 6.742913e-01 -5.021522e+00 -6.567250e-01 -3.613007e+00 -5.239524e+00 -4.217345e+00 -2.200646e+00 2.677893e+00 2.623603e+00 1.956408e+00 4.419767e-01 -3.748287e-01 6.221191e+00 -3.807745e-01 4.424097e-02 7.981304e-01 3.672559e-01 -6.938198e-01 3.636114e-01 1.029886e+00 3.443872e-01 -4.813597e-01 -8.179914e-01 -6.481325e-01 -5.198824e-01 -6.824175e-02
<VARIANCE> 39
 6.102686e+01 6.577704e+01 1.919346e+02 3.308357e+02 1.159470e+02 2.524713e+02 1.308353e+02 1.571719e+02 1.262372e+02 1.688180e+02 1.633198e+02 8.072826e+01 5.507794e+01 6.910077e+00 1.010344e+01 2.872737e+01 3.427540e+01 3.308780e+01 2.594212e+01 2.004904e+01 2.072169e+01 3.840674e+01 2.576412e+01 1.758113e+01 2.518237e+01 1.117538e+01 7.715842e-01 1.110117e+00 1.189919e+00 2.701825e+00 3.161481e+00 2.535782e+00 2.651392e+00 2.958686e+00 2.122467e+00 2.256418e+00 2.652014e+00 2.154026e+00 9.696879e-01
<GCONST> 1.824708e+02
<MIXTURE> 10 9.673142e-02
<MEAN> 39
 1.077306e+01 -2.047497e+01 -6.204697e+00 -3.023556e+01 -1.200523e+01 -1.498055e+01 -2.100106e+01 -1.048347e+01 -3.726059e+00 2.233355e+00 -1.434408e+01 -1.729569e+01 1.278900e+02 -2.133067e-01 -7.584651e+00 -4.367747e+00 -6.552247e+00 -2.825437e+00 -9.434381e-01 2.765944e+00 7.022069e+00 3.340591e+00 -1.612823e-01 -3.216646e+00 7.941335e-01 8.219162e+00 -6.739553e-01 -5.638007e-02 7.103819e-01 1.480780e+00 -9.154147e-02 3.753807e-01 6.958107e-01 -7.016614e-01 -1.335871e+00 -1.413787e+00 -2.323731e-01 7.564563e-01 3.983883e-02
<VARIANCE> 39
 3.320237e+01 6.909814e+01 1.297225e+02 1.708770e+02 1.176858e+02 2.919768e+02 1.938993e+02 1.218783e+02 1.199969e+02 1.399860e+02 1.809684e+02 9.633553e+01 5.222620e+01 4.703873e+00 1.358234e+01 2.415516e+01 2.469236e+01 2.421015e+01 2.145100e+01 2.180178e+01 2.134208e+01 1.933902e+01 1.538116e+01 1.856311e+01 2.170037e+01 1.173110e+01 4.725235e-01 1.170772e+00 1.235559e+00 2.937994e+00 2.043005e+00 2.180553e+00 2.768282e+00 3.452335e+00 2.052279e+00 2.352367e+00 2.302215e+00 2.116636e+00 1.142212e+00
<GCONST> 1.782264e+02
<MIXTURE> 11 6.570329e-02
<MEAN> 39
 -2.474059e-01 -2.307349e+00 1.897029e+01 -1.237036e+00 -1.089033e+01 -1.740841e+01 -1.922232e+01 -1.645446e+01 -1.578016e+01 -1.504438e+01 -1.220298e+01 -1.289334e+01 1.076917e+02 -1.816736e+00 -3.442605e+00 5.717306e+00 -7.333864e+00 -6.026375e+00 -1.531792e+00 9.739280e-01 1.360219e+00 -1.430724e+00 4.103366e+00 3.838608e-02 2.340049e+00 5.746885e+00 2.076356e-01 2.488829e-02 8.485489e-01 -3.301654e+00 -1.782322e+00 -7.571673e-02 -3.861428e-01 -9.737527e-01 -3.232065e-01 1.425281e+00 -7.818430e-01 5.126136e-01 1.503757e+00
<VARIANCE> 39
 5.180022e+01 5.030154e+01 5.460203e+01 5.130350e+01 7.372443e+01 7.547362e+01 7.288955e+01 1.002057e+02 5.913180e+01 6.230686e+01 8.157368e+01 7.087760e+01 6.118734e+01 4.530123e+00 5.970273e+00 1.598679e+01 1.368223e+01 1.181406e+01 1.487267e+01 1.592565e+01 1.860120e+01 1.150092e+01 1.062514e+01 1.065060e+01 8.854074e+00 5.152734e+00 1.135155e+00 1.882315e+00 1.901603e+00 1.467195e+00 2.476503e+00 2.955343e+00 2.444778e+00 2.216679e+00 1.683810e+00 1.546154e+00 1.942666e+00 1.864561e+00 1.399382e+00
<GCONST> 1.645717e+02
<MIXTURE> 12 6.830853e-02
<MEAN> 39
 3.517026e+00 7.219737e-01 1.701163e+01 3.203394e+00 -1.068058e+00 -8.959727e+00 -1.361834e+01 -1.211154e+01 -9.659556e+00 -5.886487e+00 -3.920135e+00 -8.680688e+00 1.053671e+02 -1.217603e+00 -4.810088e+00 3.208474e+00 -1.642666e+00 -6.954736e+00 -5.375215e+00 -1.568650e+00 3.194721e+00 -3.872632e-01 -2.110866e-01 2.605145e-01 2.683957e+00 5.872146e+00 1.427797e-01 -8.659183e-01 1.144713e+00 -1.100020e+00 -3.095095e+00 -9.487063e-01 6.499814e-02 -2.065441e-01 -1.183230e+00 3.019746e-01 1.079938e-01 2.976756e-01 1.786826e+00
<VARIANCE> 39
 4.435443e+01 4.253160e+01 5.254667e+01 5.119000e+01 5.466441e+01 7.095593e+01 8.861190e+01 1.011284e+02 1.007943e+02 8.323322e+01 7.546600e+01 6.334549e+01 6.581488e+01 5.068379e+00 5.705331e+00 1.388196e+01 1.606947e+01 1.804932e+01 1.363982e+01 2.495308e+01 2.427759e+01 2.904824e+01 1.457473e+01 1.209101e+01 9.764868e+00 6.057670e+00 8.742622e-01 1.275080e+00 1.301646e+00 2.223475e+00 2.376595e+00 2.621496e+00 3.031952e+00 2.699000e+00 3.140391e+00 2.185453e+00 2.004313e+00 2.367520e+00 1.237591e+00
<GCONST> 1.682794e+02
<MIXTURE> 13 5.681923e-02
<MEAN> 39
 2.511565e+00 -1.921354e+00 3.837680e+00 -1.436527e+01 -5.916024e+00 -5.020737e+00 -1.016421e+01 -1.326384e+01 -1.272126e+01 -9.350284e+00 -6.255866e+00 -8.568361e+00 1.096648e+02 3.012156e+00 -3.085750e+00 -5.993332e+00 -9.802225e+00 -3.005378e+00 -1.080361e+00 -1.007983e+00 2.774743e+00 1.840414e+00 2.650613e+00 1.787201e-01 6.393557e-01 6.132808e+00 9.615990e-01 -9.343075e-01 -7.165369e-01 -1.791243e+00 -4.789316e-01 1.916676e-01 -3.117671e-01 6.924023e-02 -2.460820e-01 3.052812e-01 -7.003987e-01 -8.328072e-02 1.144276e+00
<VARIANCE> 39
 8.913364e+01 4.553200e+01 7.613866e+01 1.407318e+02 8.347432e+01 6.136192e+01 6.673967e+01 1.107204e+02 8.517290e+01 6.817497e+01 6.807133e+01 5.542017e+01 7.022292e+01 6.439027e+00 1.244845e+01 9.820015e+00 2.488988e+01 1.070908e+01 1.560018e+01 1.308252e+01 1.448892e+01 1.815681e+01 1.460919e+01 1.456238e+01 1.744338e+01 1.047065e+01 1.059490e+00 2.951445e+00 2.085243e+00 3.330474e+00 1.990226e+00 2.586808e+00 1.957620e+00 3.015112e+00 2.320029e+00 2.211715e+00 2.195751e+00 2.315174e+00 2.246217e+00
<GCONST> 1.721435e+02
<MIXTURE> 14 4.836153e-02
<MEAN> 39
 3.377767e+00 4.379145e+00 1.687406e+01 1.155384e+00 4.538059e-01 2.461851e+00 -2.006514e+00 -1.450326e+01 -1.500719e+01 -1.100868e+01 -6.322368e+00 -7.849141e+00 1.004076e+02 9.282879e-01 -3.666409e+00 -5.543594e+00 -7.697760e+00 -2.071747e+00 -2.139473e+00 -1.928539e+00 2.464988e+00 3.126874e+00 3.829089e+00 1.739975e+00 9.226812e-02 6.254575e+00 8.988332e-01 -2.119944e+00 -2.191416e+00 -2.781101e+00 -1.198655e+00 -7.901928e-01 -6.944433e-01 5.043204e-01 4.279384e-01 1.427864e+00 3.898435e-01 -5.961112e-01 2.806633e+00
<VARIANCE> 39
 7.252618e+01 4.789417e+01 5.959310e+01 6.737332e+01 6.777428e+01 5.183156e+01 7.476017e+01 7.041204e+01 9.695771e+01 7.307539e+01 8.723266e+01 6.270640e+01 6.731653e+01 5.188606e+00 6.194561e+00 5.710296e+00 1.373238e+01 1.045077e+01 1.457096e+01 1.272425e+01 1.268050e+01 1.891954e+01 1.413209e+01 1.432073e+01 1.045448e+01 6.578453e+00 1.377190e+00 1.852672e+00 1.704320e+00 3.387405e+00 2.411938e+00 3.774458e+00 2.164412e+00 2.858681e+00 2.881721e+00 3.081253e+00 3.842795e+00 3.279358e+00 1.583037e+00
<GCONST> 1.688637e+02
<MIXTURE> 15 4.904195e-02
<MEAN> 39
 8.351643e+00 -5.314887e+00 5.256144e+00 -9.236839e+00 -6.020403e+00 -1.114483e+01 -2.372701e+01 -2.857912e+01 -1.629348e+01 -4.962847e+00 -1.433580e+01 -2.275160e+01 1.098293e+02 5.829909e-01 -7.011960e+00 -5.753816e+00 -9.101025e+00 -1.351918e+00 -5.318337e-01 2.800924e+00 8.699649e+00 5.189847e+00 1.012980e+00 -2.365290e+00 1.196682e+00 7.480902e+00 -3.489507e-01 -2.441458e+00 -1.063301e+00 -1.370808e+00 -6.400467e-01 -2.200331e-01 8.189680e-01 1.316492e+00 1.307832e-01 -6.097972e-01 -8.409690e-01 1.287525e+00 2.566302e+00
<VARIANCE> 39
 2.275759e+01 5.543419e+01 8.159924e+01 1.358611e+02 8.218712e+01 9.857544e+01 9.405738e+01 1.903442e+02 1.435198e+02 1.360832e+02 1.389380e+02 1.172580e+02 5.423144e+01 3.788749e+00 9.656777e+00 1.328025e+01 1.461603e+01 1.784749e+01 1.937100e+01 2.145723e+01 2.421442e+01 1.681361e+01 1.514585e+01 1.704221e+01 1.684166e+01 7.173876e+00 7.727947e-01 1.048588e+00 2.307324e+00 2.924055e+00 3.100185e+00 2.239299e+00 3.092495e+00 3.913887e+00 3.023289e+00 2.549332e+00 2.050741e+00 2.769524e+00 8.056988e-01
<GCONST> 1.743242e+02
<MIXTURE> 16 3.706564e-02
<MEAN> 39
 4.328546e+00 -9.011720e+00 1.880935e+01 -1.664997e+01 -2.441880e+01 -2.553223e+01 -2.096480e+01 -1.963131e+01 -2.163580e+01 -9.492256e+00 -1.664196e+01 -1.450096e+01 1.173942e+02 -2.830813e+00 -2.501027e+00 6.594332e+00 -9.135120e+00 -4.678125e+00 -4.852638e-02 2.341068e+00 -3.959174e-01 -1.321768e+00 3.716303e+00 -5.853013e-01 2.402890e+00 4.781766e+00 -5.248162e-01 3.689277e-01 1.480385e-01 -1.925413e+00 -1.079017e-01 2.386072e-01 1.817384e-01 -5.821972e-01 5.633677e-01 3.768287e-01 -6.084329e-01 3.565129e-01 8.831158e-01
<VARIANCE> 39
 3.538227e+01 6.592263e+01 1.414910e+02 8.543492e+01 1.181841e+02 1.481817e+02 7.883427e+01 1.352797e+02 8.567515e+01 1.090034e+02 6.601764e+01 1.020003e+02 4.076979e+01 4.547680e+00 5.574872e+00 1.125183e+01 2.055559e+01 1.240203e+01 1.344304e+01 1.654418e+01 1.767356e+01 1.061314e+01 1.112341e+01 1.163582e+01 1.087531e+01 5.255800e+00 4.517496e-01 8.785037e-01 1.374430e+00 1.314044e+00 1.571505e+00 2.070320e+00 2.032132e+00 2.573632e+00 2.053192e+00 1.985088e+00 1.225340e+00 1.586610e+00 4.422089e-01
<GCONST> 1.640391e+02
<TRANSP> 5
 0.000000e+00 1.000000e+00 0.000000e+00 0.000000e+00 0.000000e+00
 0.000000e+00 5.813419e-01 4.186581e-01 0.000000e+00 0.000000e+00
 0.000000e+00 0.000000e+00 3.768166e-01 6.231834e-01 0.000000e+00
 0.000000e+00 0.000000e+00 0.000000e+00 4.857323e-01 5.142677e-01
 0.000000e+00 0.000000e+00 0.000000e+00 0.000000e+00 0.000000e+00
<ENDHMM>
~h "d"
<BEGINHMM>
<NUMSTATES> 5
<STATE> 2
<NUMMIXES> 16
<MIXTURE> 1 4.444891e-02
<MEAN> 39
 5.511743e+00 8.311079e+00 2.300311e+01 7.001581e+00 -4.924888e+00 -7.090042e+00 -7.767899e+00 -7.133452e+00 -3.811403e+00 -4.770941e+00 -1.022166e+01 -1.104554e+01 9.900426e+01 -6.117477e-01 3.456531e-01 1.014418e+00 8.423500e-01 2.290225e+00 1.927302e+00 1.086407e+00 8.735464e-01 1.517721e+00 -3.812941e-02 5.693248e-01 6.552852e-01 -1.216687e+00 -9.190746e-01 -9.631712e-01 -5.959339e-01 -7.161035e-01 -7.902823e-02 -2.245525e-01 1.471578e-02 -2.730455e-02 -5.895447e-01 -9.309047e-02 4.382945e-01 5.386218e-01 9.975597e-01
<VARIANCE> 39
 2.510746e+01 2.360269e+01 3.770536e+01 9.065842e+01 1.157426e+02 7.595751e+01 6.936915e+01 7.489355e+01 7.685776e+01 7.045560e+01 7.991988e+01 6.008122e+01 2.695193e+01 2.967772e+00 2.334119e+00 3.874791e+00 4.915438e+00 8.507646e+00 7.811214e+00 6.136047e+00 6.828091e+00 7.540870e+00 7.831718e+00 4.866102e+00 7.449962e+00 3.779732e+00 6.311287e-01 5.052817e-01 8.669833e-01 1.239846e+00 1.932259e+00 1.631645e+00 1.330392e+00 1.306520e+00 1.471231e+00 1.561095e+00 1.108046e+00 1.273584e+00 1.369968e+00
<GCONST> 1.481373e+02
<MIXTURE> 2 6.299581e-02
<MEAN> 39
 6.732840e+00 -2.870052e+00 1.162333e+01 -5.013109e+00 -4.656182e+00 -1.541887e+01 -2.361098e+01 -7.494547e+00 -2.029138e+00 2.792087e+00 -1.390252e+00 -1.490576e+01 1.150907e+02 -9.851021e-01 2.274061e+00 2.069110e+00 3.953581e+00 2.009863e+00 1.239879e+00 1.969850e+00 -6.588461e-01 -3.166880e-01 -1.129559e+00 -9.902090e-01 6.842957e-01 -3.786708e+00 -2.068166e-01 -1.198143e+00 -1.050249e-01 -1.314771e+00 -1.345168e+00 -4.590253e-01 1.751943e-01 1.076655e+00 -2.915091e-02 -2.878107e-01 2.414805e-01 5.292249e-01 1.681168e+00
<VARIANCE> 39
 2.320675e+01 8.155999e+01 7.932296e+01 2.096049e+02 1.304456e+02 1.601672e+02 1.678464e+02 1.994780e+02 1.509928e+02 1.361526e+02 2.025162e+02 1.216754e+02 1.077512e+02 2.466040e+00 4.964549e+00 9.321410e+00 1.351335e+01 1.324509e+01 1.785218e+01 1.422601e+01 1.233627e+01 1.092740e+01 9.707335e+00 1.019368e+01 9.633651e+00 9.737763e+00 3.534162e-01 6.978597e-01 9.721063e-01 1.502766e+00 1.774945e+00 2.033734e+00 2.046906e+00 2.130805e+00 1.812389e+00 1.470139e+00 1.467617e+00 1.409156e+00 1.161414e+00
<GCONST> 1.671241e+02
<MIXTURE> 3 8.059871e-02
<MEAN> 39
 2.295018e+00 6.856676e+00 2.343353e+01 8.431064e+00 4.789703e-01 -2.283116e+00 -5.208997e+00 -8.845677e+00 -5.631052e+00 -4.147176e+00 -8.066233e+00 -1.206536e+01 9.943746e+01 -2.814615e+00 -2.105834e+00 -1.178681e+00 -2.319352e+00 1.124581e+00 -9.056402e-01 -1.192383e-01 2.494603e+00 3.972814e-01 -9.316118e-01 1.364709e+00 2.612767e+00 3.371920e+00 3.086869e-02 -1.417517e+00 -7.578389e-01 -1.808429e+00 -2.524341e+00 -2.349165e+00 -1.196715e+00 4.405191e-01 -4.466434e-01 5.407305e-01 9.766217e-01 4.662930e-01 2.966495e+00
<VARIANCE> 39
 3.797060e+01 3.235756e+01 4.725077e+01 8.889035e+01 1.163291e+02 8.296174e+01 8.919083e+01 8.433909e+01 9.166679e+01 8.993242e+01 9.027261e+01 9.919271e+01 4.477115e+01 5.072402e+00 6.209912e+00 8.570019e+00 1.269373e+01 1.829668e+01 1.698810e+01 1.629870e+01 1.134015e+01 1.186634e+01 1.070164e+01 9.565533e+00 1.401027e+01 9.954288e+00 8.656160e-01 1.005379e+00 1.946027e+00 1.980683e+00 2.931189e+00 2.785004e+00 2.186377e+00 3.111343e+00 3.038344e+00 2.351070e+00 1.740971e+00 2.647963e+00 8.511062e-01
<GCONST> 1.668513e+02
<MIXTURE> 4 5.449715e-02
<MEAN> 39
 -9.047124e-01 3.312092e+00 1.442997e+01 -6.770820e-01 -1.323564e+01 -1.473142e+01 -1.279319e+01 -1.586172e+01 -1.147670e+01 -1.152852e+01 -1.042295e+01 -5.916911e+00 1.013883e+02 2.713110e+00 2.680283e+00 2.447444e+00 1.453201e+00 -9.989730e-02 -8.717893e-01 -9.080316e-01 -4.473519e-01 -8.155704e-01 1.679956e-01 -2.172933e-01 -6.832040e-01 7.939661e-01 -7.444874e-01 -9.059789e-01 -3.430498e-01 -4.761508e-01 4.636900e-01 7.974316e-01 6.479943e-01 8.520929e-01 4.748616e-01 4.094322e-01 4.279318e-01 -6.490397e-03 3.288470e-01
<VARIANCE> 39
 1.247437e+02 8.386366e+01 7.033586e+01 9.283032e+01 1.494316e+02 2.058783e+02 1.456688e+02 1.803416e+02 1.070985e+02 1.552092e+02 1.086923e+02 1.194412e+02 8.501947e+01 1.268280e+01 8.673965e+00 7.589662e+00 9.643006e+00 1.731769e+01 1.796693e+01 1.132713e+01 1.102789e+01 9.370496e+00 8.607175e+00 8.646272e+00 1.047547e+01 1.440473e+01 2.713916e+00 1.892744e+00 1.518144e+00 2.024585e+00 3.413639e+00 3.848802e+00 2.736601e+00 2.914544e+00 2.053505e+00 2.043291e+00 2.012184e+00 2.394326e+00 2.063799e+00
<GCONST> 1.761274e+02
<MIXTURE> 5 7.959058e-02
<MEAN> 39
 1.942561e+00 5.959891e+00 1.798417e+01 9.952344e-01 -9.480102e+00 -1.361991e+01 -1.541722e+01 -1.758105e+01 -1.615640e+01 -1.598786e+01 -1.430110e+01 -9.120797e+00 1.015361e+02 -3.200707e+00 -1.580454e+00 -8.335430e-01 -8.244892e-01 2.037076e+00 2.121203e+00 2.384303e+00 2.390200e+00 1.152238e+00 1.549595e+00 2.415699e+00 -6.967302e-01 1.757125e+00 -6.395517e-02 -1.712666e+00 -1.001743e+00 -2.957735e+00 -2.216117e+00 -1.207432e+00 9.187996e-02 7.198685e-01 8.906527e-01 1.115085e+00 2.644933e-01 1.132683e+00 3.174392e+00
<VARIANCE> 39
 4.035953e+01 4.338880e+01 5.174094e+01 6.448213e+01 9.742319e+01 1.166399e+02 9.324187e+01 1.204219e+02 9.896469e+01 1.132389e+02 1.158071e+02 1.164599e+02 3.652681e+01 6.076313e+00 8.531919e+00 1.011588e+01 1.698138e+01 2.064060e+01 1.892102e+01 1.620000e+01 1.652456e+01 1.393600e+01 1.311129e+01 1.389434e+01 1.540298e+01 1.649640e+01 1.067599e+00 1.235231e+00 1.942165e+00 1.932348e+00 3.500748e+00 2.743824e+00 2.807291e+00 2.758581e+00 2.578045e+00 2.234531e+00 2.849635e+00 2.372179e+00 1.116808e+00
<GCONST> 1.720640e+02
<MIXTURE> 6 8.702209e-02
<MEAN> 39
 -7.255524e-02 4.454071e+00 2.116669e+01 5.040949e+00 -2.985066e+00 -3.838742e+00 -6.617333e+00 -1.337656e+01 -1.018643e+01 -1.079908e+01 -1.111409e+01 -1.018982e+01 9.491496e+01 1.711944e+00 1.821367e+00 1.663072e+00 1.196943e+00 3.782392e-01 -3.724799e-02 -1.807415e-01 2.567988e-01 2.661981e-01 -4.031996e-02 -3.304059e-01 -6.288825e-01 6.757604e-01 -6.946072e-01 -7.122631e-01 -6.509020e-01 -5.105690e-01 2.085423e-02 -6.039026e-02 1.722575e-01 6.260864e-01 5.233112e-01 3.960328e-01 3.768724e-01 2.996614e-01 2.545356e-01
<VARIANCE> 39
 3.804679e+01 2.614025e+01 3.236302e+01 4.245646e+01 8.676332e+01 7.412170e+01 8.074062e+01 5.939596e+01 6.069246e+01 6.769508e+01 7.217690e+01 6.072332e+01 3.229715e+01 6.331356e+00 5.322781e+00 4.346272e+00 3.862661e+00 6.002759e+00 6.153723e+00 6.219240e+00 6.654728e+00 5.797946e+00 5.603258e+00 5.619524e+00 5.860091e+00 2.437211e+00 6.996137e-01 6.726005e-01 6.876602e-01 8.367606e-01 1.271882e+00 1.286281e+00 1.238719e+00 1.156581e+00 1.023669e+00 1.146681e+00 1.173206e+00 1.216395e+00 6.854276e-01
<GCONST> 1.444506e+02
<MIXTURE> 7 3.876960e-02
<MEAN> 39
 3.947242e+00 7.650888e-01 8.667967e+00 -8.736319e+00 -1.054643e+01 -1.886437e+01 -1.985403e+01 -1.553983e+01 -6.334460e+00 1.571338e+00 -8.410604e+00 -1.151152e+01 1.179689e+02 -9.402677e-01 -1.082856e+00 6.538271e-02 -6.249994e-02 -1.358196e-02 -1.208609e+00 -3.153023e-01 2.154631e+00 1.142026e+00 -6.042857e-01 9.181402e-01 1.034805e+00 1.116452e+00 1.349039e-01 -1.534452e+00 5.060069e-02 -1.764564e+00 -1.207544e+00 -3.938658e-01 6.080203e-02 1.143355e+00 1.027583e-01 -7.684201e-03 4.368044e-01 4.074335e-01 1.701614e+00
<VARIANCE> 39
 5.295094e+01 1.244363e+02 1.248817e+02 2.812928e+02 1.952381e+02 2.059198e+02 2.241743e+02 2.606910e+02 2.297662e+02 2.833093e+02 2.697658e+02 1.621154e+02 1.173218e+02 3.795822e+00 5.129316e+00 7.692719e+00 1.449833e+01 1.418180e+01 1.190165e+01 1.640618e+01 1.340109e+01 1.310730e+01 1.064723e+01 1.365366e+01 1.075464e+01 4.354328e+00 8.692388e-01 1.700453e+00 1.775157e+00 2.845264e+00 2.694391e+00 2.306754e+00 3.900412e+00 3.007383e+00 2.978891e+00 2.522829e+00 2.741004e+00 1.929644e+00 1.442233e+00
<GCONST> 1.790011e+02
<MIXTURE> 8 5.416865e-02
<MEAN> 39
 3.475103e+00 -1.260114e+01 -5.076112e-01 -1.749081e+01 -2.407554e+01 -3.304585e+01 -1.367327e+01 -6.344295e+00 -5.078521e-01 -1.344397e+01 -1.804341e+01 4.749111e-01 1.292846e+02 1.445124e-01 1.701811e+00 2.182528e+00 2.574270e+00 -1.942707e-01 -1.009262e+00 -7.131497e-01 -1.069870e+00 -4.345680e-01 -1.182273e-01 8.649883e-01 1.132074e+00 -2.009641e+00 -3.266912e-01 -3.527156e-01 2.294439e-01 -8.185889e-01 -5.535882e-01 6.855657e-01 8.675321e-01 1.592958e-01 -6.652448e-01 3.363548e-01 5.302190e-01 -3.178488e-01 6.624231e-01
<VARIANCE> 39
 4.071746e+01 8.488805e+01 1.340640e+02 2.086684e+02 2.126481e+02 1.755815e+02 2.602982e+02 1.947334e+02 2.231662e+02 2.269540e+02 1.438858e+02 1.471844e+02 1.251468e+02 1.662794e+00 3.957358e+00 4.880532e+00 8.016833e+00 9.498089e+00 6.877315e+00 9.353452e+00 7.546622e+00 6.362803e+00 6.810445e+00 6.836473e+00 6.538946e+00 5.702289e+00 2.536689e-01 5.475466e-01 6.171051e-01 1.302800e+00 1.167482e+00 1.017014e+00 1.684775e+00 1.308428e+00 1.219572e+00 1.303474e+00 9.767280e-01 9.407290e-01 8.288714e-01
<GCONST> 1.593064e+02
<MIXTURE> 9 9.556352e-02
<MEAN> 39
 -2.783874e+00 3.686664e+00 1.950202e+01 6.022810e+00 1.277215e+00 -2.256712e+00 -5.391199e+00 -9.177270e+00 -6.473612e+00 -8.106943e+00 -9.722531e+00 -1.056746e+01 9.576711e+01 -2.188209e+00 -2.476092e+00 -1.865067e+00 -2.514919e+00 -1.036444e+00 -1.224517e+00 1.207211e-01 1.428436e+00 -1.984472e-01 1.820587e-01 1.664102e+00 1.584101e+00 4.397207e+00 3.252615e-01 -7.852154e-01 -6.503476e-01 -1.945538e+00 -2.782304e+00 -2.442096e+00 -1.006808e+00 -5.687916e-02 -2.312632e-01 6.899008e-01 4.203636e-01 9.508534e-01 3.133107e+00
<VARIANCE> 39
 6.400094e+01 4.738800e+01 6.133199e+01 5.675539e+01 7.022066e+01 6.879086e+01 7.353680e+01 7.172786e+01 7.282840e+01 7.750567e+01 7.326833e+01 6.808881e+01 4.832083e+01 7.278400e+00 6.115487e+00 8.255303e+00 8.230633e+00 1.513542e+01 1.451514e+01 1.132699e+01 1.009560e+01 1.142902e+01 8.870749e+00 8.520749e+00 8.274815e+00 1.007007e+01 9.555872e-01 1.495687e+00 2.055614e+00 2.201182e+00 2.634057e+00 2.518577e+00 2.190440e+00 2.775375e+00 2.687204e+00 2.263082e+00 2.037627e+00 1.800019e+00 9.493145e-01
<GCONST> 1.638810e+02
<MIXTURE> 10 6.793308e-02
<MEAN> 39
 -2.458797e-01 3.344337e+00 1.878888e+01 1.167837e+00 -8.657170e+00 -1.067541e+01 -1.342095e+01 -1.768013e+01 -1.477336e+01 -1.772990e+01 -1.629593e+01 -1.242152e+01 9.613914e+01 8.414339e-01 1.034771e+00 1.092495e+00 7.928174e-01 2.919492e-01 2.174381e-01 2.537754e-01 -8.418321e-02 -3.837391e-01 -6.327932e-01 -6.018658e-01 -9.475838e-01 1.159736e-01 -5.087605e-01 -5.552830e-01 -5.918264e-01 -5.375370e-01 -3.956486e-02 1.481563e-01 2.674997e-01 5.910125e-01 5.261801e-01 6.156847e-01 5.281644e-01 4.323284e-01 6.136045e-01
<VARIANCE> 39
 3.349953e+01 2.809717e+01 3.163716e+01 4.492185e+01 8.346936e+01 8.803476e+01 9.583630e+01 7.670671e+01 7.183333e+01 1.049597e+02 9.632646e+01 8.603763e+01 3.146900e+01 4.914256e+00 4.375344e+00 3.419595e+00 3.481834e+00 6.702772e+00 7.808883e+00 6.561272e+00 6.426602e+00 6.092761e+00 6.861063e+00 6.524208e+00 6.573335e+00 2.584238e+00 7.664440e-01 7.419171e-01 8.165426e-01 1.065850e+00 1.623868e+00 1.528641e+00 1.541636e+00 1.348768e+00 1.168930e+00 1.469047e+00 1.577809e+00 1.470700e+00 1.050547e+00
<GCONST> 1.490431e+02
<MIXTURE> 11 7.943799e-02
<MEAN> 39
 1.522636e+00 2.585000e+00 1.499615e+01 -1.637762e+00 -1.231897e+01 -1.680854e+01 -1.635791e+01 -1.781930e+01 -1.848861e+01 -2.283886e+01 -2.149367e+01 -1.301753e+01 1.024551e+02 -2.615017e+00 -9.458921e-01 -3.919306e-01 -8.391238e-01 7.564942e-01 1.101198e+00 1.868504e+00 1.374818e+00 4.792219e-01 2.019786e+00 2.824450e+00 -1.775949e-02 2.125756e+00 -4.539051e-02 -1.727869e+00 -1.089480e+00 -3.211447e+00 -2.553712e+00 -9.966549e-01 6.867121e-02 8.872484e-01 9.030267e-01 1.585455e+00 7.354052e-01 1.519685e+00 3.566981e+00
<VARIANCE> 39
 3.833981e+01 3.960632e+01 5.143279e+01 5.334617e+01 9.415874e+01 1.194771e+02 8.950784e+01 1.182607e+02 8.965538e+01 1.039281e+02 1.126737e+02 1.183208e+02 3.655442e+01 5.382342e+00 7.658305e+00 9.161305e+00 1.485428e+01 2.193183e+01 1.454682e+01 1.251831e+01 1.614227e+01 1.312200e+01 1.282494e+01 1.292788e+01 1.336536e+01 1.652770e+01 1.025371e+00 1.306936e+00 1.904539e+00 2.582333e+00 3.628824e+00 3.057766e+00 2.829700e+00 2.936268e+00 2.606786e+00 2.573393e+00 2.750509e+00 2.725860e+00 1.086966e+00
<GCONST> 1.709512e+02
<MIXTURE> 12 6.740176e-02
<MEAN> 39
 -6.848360e+00 -1.855312e+00 1.156159e+01 -3.487656e+00 -1.123211e+01 -1.205093e+01 -1.191550e+01 -1.679185e+01 -1.342577e+01 -1.565100e+01 -1.200716e+01 -7.091335e+00 9.867606e+01 3.669654e+00 3.490039e+00 2.504635e+00 6.219980e-01 -1.918968e+00 -3.141378e+00 -2.936834e+00 -3.051821e+00 -2.832939e+00 -2.479575e+00 -2.373001e+00 -1.705972e+00 1.869054e+00 7.847457e-02 -2.876920e-01 -8.991838e-02 -5.453780e-01 -3.123823e-01 9.854077e-02 3.437383e-01 5.463884e-01 3.469210e-01 4.669315e-01 2.107355e-01 1.179507e-01 8.562239e-01
<VARIANCE> 39
 1.111147e+02 8.763872e+01 6.116910e+01 5.514128e+01 1.498259e+02 1.920492e+02 1.220390e+02 1.674586e+02 1.315843e+02 1.440831e+02 1.098999e+02 9.950453e+01 9.860472e+01 9.798580e+00 1.050912e+01 6.152688e+00 1.013483e+01 1.640842e+01 1.702810e+01 1.183726e+01 1.362369e+01 1.066914e+01 1.208755e+01 1.199617e+01 1.079449e+01 1.089997e+01 2.272614e+00 2.127181e+00 1.308048e+00 2.095861e+00 3.645132e+00 3.695979e+00 2.852281e+00 3.224596e+00 2.443628e+00 2.570451e+00 2.281717e+00 2.063585e+00 2.077141e+00
<GCONST> 1.760345e+02
<MIXTURE> 13 6.546191e-02
<MEAN> 39
 2.923395e+00 6.580841e+00 2.271863e+01 5.911401e+00 -3.200549e+00 -7.577976e+00 -8.215854e+00 -9.763405e+00 -5.475842e+00 -7.492376e+00 -1.102322e+01 -1.085342e+01 9.705032e+01 -1.052012e+00 -8.165365e-03 8.029215e-01 1.041570e+00 1.937815e+00 2.160722e+00 1.237512e+00 4.566239e-01 3.267907e-01 -4.217082e-01 4.700111e-01 -3.596097e-01 -1.131249e+00 -7.157096e-01 -1.071612e+00 -9.772167e-01 -1.321168e+00 -7.760350e-01 -7.360063e-01 -2.069631e-01 1.657134e-01 -4.643215e-01 1.527807e-01 4.612271e-01 6.774622e-01 1.852565e+00
<VARIANCE> 39
 2.575807e+01 2.047735e+01 3.944240e+01 6.349767e+01 9.791235e+01 7.367282e+01 6.616655e+01 6.849788e+01 7.463132e+01 6.929239e+01 7.096011e+01 7.057748e+01 3.741516e+01 3.320269e+00 2.690411e+00 3.905896e+00 5.782434e+00 7.680616e+00 8.199060e+00 6.356333e+00 6.539542e+00 6.680556e+00 7.356604e+00 6.296481e+00 6.079021e+00 4.621199e+00 6.457741e-01 5.791625e-01 1.114952e+00 1.361925e+00 1.987253e+00 1.761502e+00 1.357878e+00 1.400953e+00 1.507926e+00 1.355733e+00 1.263247e+00 1.235081e+00 1.297687e+00
<GCONST> 1.487637e+02
<MIXTURE> 14 6.439462e-02
<MEAN> 39
 6.939652e+00 -5.590941e+00 7.103145e+00 -1.089179e+01 -7.790601e+00 -1.994031e+01 -2.721779e+01 -1.139938e+01 -1.959467e+00 -2.415723e-02 -6.079513e+00 -1.317784e+01 1.185542e+02 -9.107019e-01 1.777393e+00 2.282308e+00 4.233764e+00 7.077640e-01 -1.322494e-01 8.308104e-01 -1.194003e-01 -9.006665e-01 -8.724347e-01 -5.469971e-01 5.615559e-01 -2.874232e+00 -2.203818e-01 -1.229532e+00 -2.707134e-01 -1.495930e+00 -1.486551e+00 -3.696756e-01 6.702342e-01 1.378421e+00 -3.166054e-02 -2.634141e-01 1.864214e-01 4.853074e-01 1.771847e+00
<VARIANCE> 39
 2.243181e+01 8.052990e+01 8.591327e+01 2.169877e+02 1.270218e+02 1.539142e+02 1.678637e+02 2.413739e+02 1.714952e+02 2.063182e+02 2.998834e+02 1.336413e+02 1.091763e+02 2.011802e+00 4.959996e+00 7.212309e+00 1.301773e+01 1.040971e+01 1.321295e+01 1.109433e+01 1.122863e+01 1.034616e+01 7.984320e+00 9.907588e+00 1.009502e+01 8.507777e+00 3.261621e-01 6.754315e-01 1.143439e+00 1.742903e+00 1.637999e+00 1.646452e+00 2.043169e+00 2.061912e+00 1.772154e+00 1.382819e+00 1.607738e+00 1.325426e+00 1.221612e+00
<GCONST> 1.664771e+02
<MIXTURE> 15 3.996672e-02
<MEAN> 39
 1.704999e+00 -2.707546e+00 3.849901e+00 -1.228636e+01 -9.819406e+00 -2.812829e+01 -2.616108e+01 -2.151209e+01 -7.174804e+00 -8.925371e+00 -2.016413e+01 -8.164125e+00 1.169028e+02 -8.010616e-01 -7.926002e-01 6.339807e-01 4.180317e-01 -1.414281e+00 -1.113778e+00 1.018755e+00 2.383290e+00 3.415146e-01 -9.626861e-01 8.845691e-01 1.199573e+00 8.826462e-01 -2.341033e-02 -1.676283e+00 -3.523645e-01 -2.637471e+00 -1.635069e+00 -4.775695e-01 1.486557e+00 1.227401e+00 4.399977e-01 1.965155e-02 5.055672e-01 3.708212e-01 2.355909e+00
<VARIANCE> 39
 5.830260e+01 9.849281e+01 1.352174e+02 1.882069e+02 1.796327e+02 1.809167e+02 1.681649e+02 2.138502e+02 2.288468e+02 2.245882e+02 1.983510e+02 1.360741e+02 7.525270e+01 3.546243e+00 5.145922e+00 9.383977e+00 1.523013e+01 1.452332e+01 1.002079e+01 9.306368e+00 1.130940e+01 1.231981e+01 8.868446e+00 1.218095e+01 9.189885e+00 5.442632e+00 1.026661e+00 1.327393e+00 1.852925e+00 2.828831e+00 2.470433e+00 2.337259e+00 3.143117e+00 2.645432e+00 3.018728e+00 2.214382e+00 2.322942e+00 2.049292e+00 1.270353e+00
<GCONST> 1.748739e+02
<MIXTURE> 16 1.771795e-02
<MEAN> 39
 1.098919e+00 -1.260685e+01 -3.156235e+00 -1.962089e+01 -2.278748e+01 -3.087581e+01 -1.948938e+01 -1.316073e+01 -3.178031e+00 -1.906134e+01 -2.167031e+01 -4.155172e+00 1.264071e+02 4.795994e-01 1.640004e+00 2.165723e+00 2.812838e+00 8.380917e-02 -1.485539e+00 -1.331626e+00 -1.839007e+00 -1.650464e+00 -9.516918e-01 -4.868413e-01 4.798781e-01 -2.214186e+00 -3.404268e-01 -4.512200e-01 7.876953e-02 -9.398561e-01 -6.486115e-01 7.327113e-01 1.075745e+00 5.015701e-01 -3.814710e-01 3.302288e-01 5.276927e-01 -1.009007e-01 8.458360e-01
<VARIANCE> 39
 5.030421e+01 9.591844e+01 1.780034e+02 1.900153e+02 2.731024e+02 1.692938e+02 2.098447e+02 2.045414e+02 2.565381e+02 1.748352e+02 1.378357e+02 1.251010e+02 1.629412e+02 3.123379e+00 6.098622e+00 4.569118e+00 1.136743e+01 1.269085e+01 7.755995e+00 1.134144e+01 9.979237e+00 9.722045e+00 1.089667e+01 9.302989e+00 1.000658e+01 7.676380e+00 3.805104e-01 5.868597e-01 6.448346e-01 1.666762e+00 1.187932e+00 1.073721e+00 1.758283e+00 1.603342e+00 1.527866e+00 1.722080e+00 1.086231e+00 1.128515e+00 8.962497e-01
<GCONST> 1.659201e+02
<STATE> 3
<NUMMIXES> 16
<MIXTURE> 1 3.557956e-02
<MEAN> 39
 7.141963e+00 -7.791976e+00 1.152619e+01 -7.876451e+00 -1.063590e+01 -2.083412e+01 -3.037258e+01 -1.534271e+00 3.847233e+00 3.186548e+00 6.932240e-01 -1.317990e+01 1.223215e+02 -2.257834e-02 -2.449713e+00 1.962453e+00 -4.187896e-01 -3.284614e+00 -3.122307e+00 -5.480834e-01 3.750000e+00 -5.877150e-02 -1.307954e+00 2.547832e-01 1.481049e+00 2.597935e+00 -6.932629e-02 -8.698072e-01 3.674123e-01 -9.029085e-01 -1.143763e+00 1.276756e-01 6.123228e-01 9.258844e-01 -7.099802e-01 -1.423400e-01 5.261426e-01 3.294278e-01 8.644195e-01
<VARIANCE> 39
 3.318478e+01 7.963902e+01 5.754594e+01 1.160736e+02 8.195102e+01 1.074490e+02 1.335567e+02 1.799746e+02 1.651620e+02 9.379398e+01 1.328114e+02 1.103218e+02 6.994926e+01 3.327384e+00 5.151615e+00 5.173163e+00 8.887192e+00 7.018818e+00 9.606559e+00 9.143266e+00 9.762051e+00 1.006656e+01 7.098621e+00 9.703890e+00 6.603280e+00 4.515138e+00 4.029129e-01 6.099338e-01 6.202595e-01 8.637151e-01 1.028795e+00 9.697857e-01 1.366958e+00 1.272003e+00 1.544415e+00 1.065070e+00 1.111102e+00 1.212772e+00 4.166919e-01
<GCONST> 1.547748e+02
<MIXTURE> 2 9.377981e-02
<MEAN> 39
 -3.034815e+00 3.003240e+00 1.849577e+01 5.867170e-01 1.150868e+00 -6.757107e+00 -9.238447e+00 -6.814075e+00 -7.394765e+00 -7.078267e+00 -8.489882e+00 -9.209077e+00 1.089920e+02 -8.285006e-01 -3.916007e+00 -2.535138e+00 -5.021774e+00 -3.070826e+00 -5.168781e+00 -3.135877e+00 2.859583e+00 1.417788e+00 1.715422e+00 3.083639e+00 3.265157e+00 7.325813e+00 1.090610e+00 -1.091981e+00 -2.394003e-01 -1.307105e+00 -2.536143e+00 -1.359559e+00 -5.901981e-01 1.989897e-01 -1.590604e-01 1.309519e+00 5.674991e-01 -1.715228e-01 1.574413e+00
<VARIANCE> 39
 3.727848e+01 4.690532e+01 6.517546e+01 9.473394e+01 9.245859e+01 1.237688e+02 1.080883e+02 7.245727e+01 7.539857e+01 8.958598e+01 7.496953e+01 7.780811e+01 8.870502e+01 5.503903e+00 4.971427e+00 1.181040e+01 1.410367e+01 2.496754e+01 2.349236e+01 1.949028e+01 1.767526e+01 1.928943e+01 1.566630e+01 1.284413e+01 1.176613e+01 5.738373e+00 9.116316e-01 1.639843e+00 2.406141e+00 2.398249e+00 2.364970e+00 3.865939e+00 3.429703e+00 3.548121e+00 3.183414e+00 2.762179e+00 2.382749e+00 3.073292e+00 8.487301e-01
<GCONST> 1.721426e+02
<MIXTURE> 3 6.186296e-02
<MEAN> 39
 -1.111830e+01 -4.209944e+00 1.451290e+01 -5.677035e+00 3.786133e+00 -6.996648e+00 -2.547463e+00 1.468558e+00 -5.217399e+00 -5.326045e+00 -3.292258e+00 -8.537726e-01 1.140673e+02 -1.983852e-01 -3.190719e+00 -2.961155e-01 -3.632639e+00 -5.377182e+00 -6.086870e+00 -3.052123e+00 2.538417e+00 -7.873735e-01 -4.380066e-03 3.187457e+00 2.236102e+00 7.747135e+00 1.863041e+00 -3.255600e-03 9.329152e-01 3.556195e-01 -3.229564e+00 -8.130473e-01 -1.469769e+00 -6.308433e-01 -5.663444e-01 2.735939e-01 6.178352e-01 -1.050531e+00 4.269184e-01
<VARIANCE> 39
 4.666897e+01 7.483305e+01 7.966116e+01 1.111135e+02 1.065775e+02 1.143755e+02 1.247640e+02 9.008469e+01 8.336611e+01 7.691058e+01 7.228576e+01 7.236998e+01 9.286845e+01 9.640859e+00 6.382520e+00 1.237961e+01 1.381067e+01 2.391263e+01 1.534003e+01 1.622842e+01 1.524776e+01 1.817995e+01 1.363458e+01 9.519402e+00 1.148962e+01 5.732120e+00 1.166151e+00 2.212601e+00 2.408998e+00 2.326026e+00 3.005069e+00 3.282414e+00 3.397754e+00 3.519474e+00 3.122533e+00 2.304143e+00 2.240304e+00 2.722330e+00 1.188564e+00
<GCONST> 1.735455e+02
<MIXTURE> 4 1.159740e-01
<MEAN> 39
 4.780605e+00 -1.106990e+01 2.835083e+00 -1.480768e+01 -2.448481e+01 -3.410085e+01 -1.124481e+01 -2.874008e+00 1.983299e+00 -7.080814e+00 -1.234463e+01 -1.532728e-01 1.313103e+02 -4.945794e-01 3.246948e-01 1.929797e+00 3.086725e-01 -1.902471e+00 -7.165684e-01 1.243554e+00 2.358139e-01 -1.047341e+00 -3.569825e-01 1.340213e+00 1.211171e+00 3.733918e-02 -2.185586e-01 -2.900005e-01 2.816020e-01 -7.020686e-01 -3.789885e-01 4.786470e-01 4.868957e-01 1.527391e-01 -5.400544e-01 3.317738e-01 2.840780e-01 -3.360847e-01 4.439407e-01
<VARIANCE> 39
 2.904340e+01 9.099210e+01 1.629719e+02 2.525598e+02 1.917975e+02 1.582253e+02 2.696125e+02 2.343587e+02 2.322244e+02 2.550903e+02 2.007231e+02 1.531257e+02 7.471310e+01 7.434617e-01 1.922937e+00 2.726668e+00 3.831631e+00 5.631157e+00 4.636064e+00 6.282099e+00 5.734180e+00 5.817165e+00 5.933237e+00 4.929789e+00 5.141777e+00 1.222946e+00 1.496877e-01 2.868585e-01 4.425684e-01 7.790835e-01 8.722630e-01 8.384516e-01 1.234814e+00 1.075476e+00 9.534047e-01 8.496516e-01 7.699068e-01 7.661280e-01 3.190920e-01
<GCONST> 1.475952e+02
<MIXTURE> 5 6.528059e-02
<MEAN> 39
 -1.782631e+01 -9.441974e+00 2.799448e+00 -8.567150e+00 -5.527708e+00 -1.964442e+00 2.408578e-01 -2.500367e+00 -4.576298e+00 -2.901630e+00 1.237938e+00 -2.641109e+00 1.069444e+02 3.221272e-01 -2.260209e-01 6.197952e-02 -3.861037e+00 -5.711926e+00 -3.656167e+00 6.306165e-02 -5.922224e-03 -2.397957e-01 1.076664e+00 1.708140e+00 1.564463e+00 7.721221e+00 1.909927e+00 9.776412e-01 1.862528e+00 -7.175661e-01 -2.085783e+00 -1.674844e+00 -1.323773e+00 -1.301065e+00 -4.638354e-01 -5.867055e-01 -1.276818e+00 -6.585043e-02 1.182030e+00
<VARIANCE> 39
 3.548660e+01 4.900826e+01 6.137706e+01 8.847760e+01 7.331934e+01 7.777302e+01 7.473575e+01 6.721140e+01 7.302657e+01 6.849416e+01 6.162537e+01 6.295997e+01 1.533949e+02 1.173673e+01 8.146799e+00 1.313526e+01 1.044143e+01 1.916066e+01 1.468570e+01 1.351278e+01 1.278391e+01 1.172240e+01 1.021879e+01 9.376269e+00 9.097889e+00 1.095410e+01 1.235285e+00 1.788142e+00 2.627891e+00 2.421675e+00 2.745897e+00 3.245860e+00 2.753891e+00 2.851149e+00 2.334550e+00 2.593588e+00 2.300579e+00 2.013008e+00 2.891161e+00
<GCONST> 1.699081e+02
<MIXTURE> 6 3.954894e-02
<MEAN> 39
 6.827086e+00 -7.569524e+00 6.261684e+00 -1.834714e+01 -5.825321e+00 -1.963456e+01 -2.695959e+01 -1.118105e+01 4.149304e-01 1.236559e+01 2.577293e+00 -1.779535e+01 1.285603e+02 5.518071e-01 -2.826661e+00 5.386094e-01 -1.747833e-01 -2.854515e+00 -3.965718e+00 -1.712830e+00 4.297382e+00 2.161650e+00 -1.698763e-01 -1.338945e+00 6.168665e-01 2.864809e+00 -1.987262e-01 -4.733663e-01 1.812691e-01 -4.922692e-01 -9.608001e-01 1.218553e-01 7.678916e-01 1.117313e+00 -5.141751e-01 -6.257479e-01 1.307660e-01 9.017415e-01 4.336754e-01
<VARIANCE> 39
 3.728753e+01 8.618933e+01 7.521709e+01 1.885017e+02 1.161007e+02 1.569469e+02 2.224682e+02 2.885576e+02 1.910488e+02 1.991418e+02 2.523189e+02 1.496281e+02 7.321148e+01 6.879717e+00 6.502009e+00 6.135550e+00 1.611112e+01 1.160013e+01 1.515005e+01 1.380665e+01 1.649826e+01 1.536370e+01 1.036963e+01 1.287474e+01 1.022100e+01 5.912350e+00 4.415493e-01 6.366519e-01 7.167866e-01 1.020538e+00 1.075908e+00 1.109425e+00 1.603861e+00 1.503477e+00 1.905520e+00 1.361261e+00 1.475439e+00 1.356161e+00 4.522536e-01
<GCONST> 1.666189e+02
<MIXTURE> 7 7.709981e-02
<MEAN> 39
 -6.520289e+00 1.231594e+00 1.060159e+01 -4.613561e+00 -1.040830e+01 -1.252500e+01 -1.120371e+01 -1.340549e+01 -1.552679e+01 -1.361069e+01 -8.006212e+00 -7.986015e+00 1.133268e+02 -1.354670e+00 -3.819909e+00 -1.108477e+00 -6.348200e+00 -6.046220e+00 -2.116794e+00 2.285945e+00 2.902054e+00 1.787190e+00 3.713371e+00 2.385206e+00 2.639314e+00 8.396748e+00 1.078882e+00 -1.085024e+00 6.128805e-01 -2.425095e+00 -2.286269e+00 -1.124579e+00 -2.338280e-01 -1.543029e-01 3.179342e-01 8.046538e-01 -1.084537e+00 7.014720e-01 1.359889e+00
<VARIANCE> 39
 4.296971e+01 5.093683e+01 6.473283e+01 6.972068e+01 9.060573e+01 1.017816e+02 7.188321e+01 8.684207e+01 7.585009e+01 7.525016e+01 7.726842e+01 8.061802e+01 7.683817e+01 6.406641e+00 6.848112e+00 1.377801e+01 9.915040e+00 2.006197e+01 1.753313e+01 1.513653e+01 2.259015e+01 1.485789e+01 1.430364e+01 1.604523e+01 1.497601e+01 7.494038e+00 1.153359e+00 1.479444e+00 1.808336e+00 2.188114e+00 2.754639e+00 3.046968e+00 2.581910e+00 2.694511e+00 2.447770e+00 2.308221e+00 1.725890e+00 2.494652e+00 1.127783e+00
<GCONST> 1.699196e+02
<MIXTURE> 8 5.329026e-02
<MEAN> 39
 1.900722e+00 -4.647958e+00 7.294344e+00 -8.980867e+00 -1.972941e+01 -3.316548e+01 -1.986282e+01 -9.720649e+00 -6.803087e+00 -1.623651e+01 -1.521231e+01 9.701950e-01 1.184792e+02 -6.319242e-01 -3.135123e+00 8.240013e-01 -4.612596e+00 -6.331962e+00 -2.037749e+00 4.089316e+00 1.848182e+00 -6.441925e-01 1.225247e+00 3.077783e+00 2.235424e+00 5.590186e+00 -2.292619e-01 -9.655051e-01 -4.575543e-02 -2.372009e+00 -1.190905e+00 6.175792e-01 1.070681e+00 -3.670767e-01 -1.998415e-01 1.151869e+00 9.212534e-02 -7.074990e-01 1.617784e+00
<VARIANCE> 39
 2.712062e+01 7.162528e+01 5.993035e+01 1.381239e+02 1.087534e+02 1.070909e+02 1.086425e+02 1.342662e+02 1.584056e+02 1.170869e+02 1.288098e+02 9.507001e+01 5.484183e+01 5.713251e+00 6.546216e+00 9.192156e+00 1.115157e+01 1.171436e+01 1.284639e+01 1.297013e+01 1.582312e+01 1.701738e+01 1.524878e+01 1.163983e+01 1.314651e+01 6.537281e+00 4.787276e-01 6.577245e-01 1.030892e+00 1.814101e+00 1.837161e+00 1.670677e+00 1.780345e+00 2.124176e+00 1.998355e+00 1.651545e+00 2.151515e+00 1.412571e+00 1.077919e+00
<GCONST> 1.658256e+02
<MIXTURE> 9 7.090592e-02
<MEAN> 39
 -5.917883e+00 9.301715e-02 9.344770e+00 -8.522308e+00 -1.342651e+01 -1.670462e+01 -1.390121e+01 -1.542372e+01 -1.793437e+01 -1.567233e+01 -1.191065e+01 -9.734212e+00 1.154588e+02 -1.597293e+00 -3.942450e+00 -1.077940e+00 -6.649743e+00 -4.641914e+00 -1.408212e+00 1.728181e+00 3.098162e+00 1.963111e+00 3.970149e+00 2.001155e+00 2.336162e+00 8.033371e+00 1.038143e+00 -1.243066e+00 3.189146e-01 -2.478705e+00 -1.969818e+00 -7.332522e-01 -3.548649e-01 -1.756526e-01 4.522228e-01 7.196056e-01 -1.163706e+00 6.505194e-01 1.386007e+00
<VARIANCE> 39
 4.108851e+01 5.193320e+01 7.610284e+01 8.119482e+01 1.158659e+02 1.244730e+02 7.775845e+01 1.077728e+02 8.481606e+01 8.347366e+01 9.144841e+01 8.219974e+01 6.890766e+01 6.969167e+00 8.085184e+00 1.665677e+01 1.134489e+01 2.813054e+01 1.788091e+01 1.698643e+01 2.597014e+01 1.762152e+01 1.712456e+01 1.762242e+01 1.484210e+01 6.721545e+00 1.104035e+00 1.500399e+00 2.123519e+00 2.269202e+00 2.992257e+00 2.955421e+00 2.687321e+00 2.928549e+00 2.968077e+00 2.887803e+00 1.929986e+00 2.287772e+00 1.171452e+00
<GCONST> 1.735810e+02
<MIXTURE> 10 9.211367e-02
<MEAN> 39
 2.852997e+00 -1.295234e+01 -1.207554e+00 -1.658832e+01 -2.836307e+01 -3.449662e+01 -1.968924e+01 -1.049617e+01 -1.828039e+00 -1.870748e+01 -1.878574e+01 2.437563e+00 1.289031e+02 -6.852983e-01 -7.388479e-02 1.476068e+00 -2.750660e-01 -2.711406e+00 -2.672987e-01 2.164867e+00 5.441981e-01 -1.572313e+00 3.181214e-02 1.647300e+00 6.567925e-01 7.977264e-01 -4.639857e-01 -5.571010e-01 -1.210170e-01 -1.370163e+00 -9.007699e-01 8.344984e-01 1.366481e+00 3.992030e-01 -5.369623e-01 5.080108e-01 3.938740e-01 -8.174174e-01 1.084626e+00
<VARIANCE> 39
