~o
<STREAMINFO> 1 39
<VECSIZE> 39<NULLD><MFCC_D_A_Z_0><DIAGC>
~s "silst"
<NUMMIXES> 16
<MIXTURE> 1 1.885647e-02
<MEAN> 39
 2.352529e-01 4.230158e+00 3.113589e+00 1.027920e+01 6.793034e+00 6.668774e+00 1.711016e+00 -6.071532e-01 -1.653796e+00 -4.538286e+00 4.540273e-01 2.282845e-01 -1.151213e+01 -2.635667e+00 -9.050278e-01 1.085418e+00 2.086388e+00 2.855268e+00 2.136169e+00 2.088504e+00 1.982897e+00 1.544528e+00 1.594417e+00 1.521348e+00 9.617263e-01 -2.106294e+00 -7.293008e-02 -5.852147e-01 -6.473972e-01 -8.086527e-01 -1.146517e-01 -9.751211e-02 1.782726e-01 3.683248e-01 3.073738e-01 3.269434e-01 2.387528e-01 1.611907e-01 4.504799e-01
<VARIANCE> 39
 8.121695e+01 7.202508e+01 1.000877e+02 9.622063e+01 1.326243e+02 1.060203e+02 1.195928e+02 1.329138e+02 1.311033e+02 1.496804e+02 9.077038e+01 8.045457e+01 7.676956e+01 7.277481e+00 7.174997e+00 1.222818e+01 1.372377e+01 1.293004e+01 1.284638e+01 1.423458e+01 1.334709e+01 1.419392e+01 1.557796e+01 1.190799e+01 1.025023e+01 9.916839e+00 8.153452e-01 9.212931e-01 1.292484e+00 1.491550e+00 1.645491e+00 1.572535e+00 1.812681e+00 1.804305e+00 1.881107e+00 1.993873e+00 1.571089e+00 1.339957e+00 6.600532e-01
<GCONST> 1.679624e+02
<MIXTURE> 2 6.251965e-02
<MEAN> 39
 -7.653804e+00 -4.276168e-01 2.028319e+00 1.115345e+01 9.698905e+00 8.973840e+00 6.848001e+00 2.343174e+00 4.369425e+00 2.702871e+00 5.939448e+00 2.566152e+00 -2.167441e+01 -1.861368e-01 2.920543e-01 2.925603e-01 5.229911e-01 6.360565e-01 9.511428e-01 1.126570e+00 1.323915e+00 1.408109e+00 1.419639e+00 1.084154e+00 7.551591e-01 -4.386746e-02 -1.047788e-01 -5.170866e-02 -9.932910e-02 -2.501168e-01 -8.713820e-02 -1.880708e-01 -1.653813e-01 -5.614853e-02 -2.147492e-01 -1.977862e-01 -1.648812e-01 8.079667e-03 2.555172e-01
<VARIANCE> 39
 2.068761e+01 2.428302e+01 3.741373e+01 4.452282e+01 5.912302e+01 6.326877e+01 6.062249e+01 7.630095e+01 6.244769e+01 6.696728e+01 7.014204e+01 5.061888e+01 2.468178e+01 2.246292e+00 3.072403e+00 3.640940e+00 4.448383e+00 5.211642e+00 5.602119e+00 6.287945e+00 6.946301e+00 6.977033e+00 7.142039e+00 6.027318e+00 5.180235e+00 1.727088e+00 3.821156e-01 4.856777e-01 5.913473e-01 7.332973e-01 9.602298e-01 1.062613e+00 1.193909e+00 1.308858e+00 1.250911e+00 1.348610e+00 1.143683e+00 9.909838e-01 2.727418e-01
<GCONST> 1.387596e+02
<MIXTURE> 3 6.851307e-02
<MEAN> 39
 -8.340926e+00 -2.679148e+00 -2.135154e+00 5.345199e+00 5.889018e+00 4.550482e+00 2.820212e+00 -1.921417e+00 -8.458145e-01 -2.309683e+00 2.684393e-01 9.063480e-01 -1.897471e+01 1.670780e-01 5.264122e-01 7.386588e-01 8.140988e-01 2.069839e-01 3.053069e-01 1.993160e-01 -3.114997e-01 5.602261e-02 4.439218e-02 -9.852894e-03 1.433948e-01 -4.337552e-01 2.510610e-02 1.442596e-01 2.800638e-01 2.795568e-01 3.192116e-01 3.413337e-01 3.566614e-01 4.042627e-01 4.563361e-01 3.390163e-01 3.031341e-01 2.024435e-01 1.470347e-01
<VARIANCE> 39
 2.438432e+01 3.459268e+01 4.637595e+01 5.080403e+01 6.851637e+01 6.564125e+01 6.997871e+01 8.499957e+01 7.072192e+01 7.614534e+01 8.569100e+01 5.912796e+01 2.685845e+01 2.262781e+00 2.977296e+00 3.479596e+00 4.249662e+00 5.344300e+00 5.539454e+00 6.090581e+00 6.495360e+00 6.556767e+00 6.614610e+00 5.769921e+00 5.165314e+00 1.460116e+00 4.424905e-01 5.148871e-01 6.134124e-01 7.587723e-01 1.018331e+00 1.031568e+00 1.193724e+00 1.334196e+00 1.284095e+00 1.357202e+00 1.180215e+00 1.065001e+00 2.720349e-01
<GCONST> 1.406572e+02
<MIXTURE> 4 5.139786e-02
<MEAN> 39
 -1.321709e+01 -3.262691e+00 -8.386370e-01 2.821254e+00 7.857640e+00 2.991496e+00 3.698721e+00 6.457624e+00 3.223573e+00 4.170705e+00 6.000695e+00 5.727517e+00 -8.608265e+00 -3.395992e-01 -6.677861e-02 5.069195e-01 8.064473e-02 4.533094e-01 1.445444e-01 7.348034e-01 1.474379e+00 8.686628e-01 1.107014e+00 1.368304e+00 8.860050e-01 1.588162e-01 5.967824e-01 6.670564e-02 2.005692e-01 5.085588e-01 -7.807729e-02 3.614153e-01 1.515395e-01 -5.563560e-01 -9.390940e-02 -5.025587e-01 -3.191463e-01 -3.249030e-01 -7.657229e-01
<VARIANCE> 39
 1.023670e+02 1.103462e+02 1.351674e+02 1.449970e+02 1.852744e+02 1.617536e+02 1.553737e+02 1.468541e+02 1.434963e+02 1.421815e+02 1.325236e+02 8.781211e+01 8.359481e+01 6.313138e+00 5.799283e+00 7.385702e+00 8.981757e+00 1.015435e+01 1.096213e+01 1.044896e+01 1.086895e+01 1.013558e+01 9.972194e+00 8.079366e+00 7.008926e+00 8.333317e+00 1.702358e+00 1.705742e+00 2.231990e+00 2.590426e+00 3.035169e+00 2.943600e+00 2.810980e+00 2.624371e+00 2.712151e+00 2.464952e+00 2.134965e+00 1.700095e+00 1.559804e+00
<GCONST> 1.736023e+02
<MIXTURE> 5 1.216138e-01
<MEAN> 39
 -8.451161e+00 -4.339910e-01 9.521358e-01 9.124228e+00 8.500770e+00 7.550076e+00 6.166444e+00 2.463642e-01 2.523065e+00 8.207836e-01 2.690589e+00 1.759612e+00 -2.053397e+01 3.180058e-02 2.686075e-02 2.021852e-01 2.342505e-01 1.198203e-01 3.525186e-01 3.824430e-01 2.663536e-01 4.792691e-01 3.404019e-01 3.058692e-01 1.969350e-01 -2.040849e-01 2.049938e-02 -3.600841e-02 -6.680646e-02 -1.331756e-01 -6.185273e-02 -1.090137e-01 -1.246020e-01 -7.461420e-03 -5.972011e-02 -6.673687e-02 -8.559490e-04 6.552019e-03 1.682456e-01
<VARIANCE> 39
 1.905031e+01 2.114766e+01 3.495874e+01 4.153403e+01 5.517923e+01 5.362410e+01 5.703193e+01 7.218790e+01 6.190409e+01 6.423789e+01 7.192736e+01 4.838077e+01 1.886372e+01 1.389709e+00 1.818286e+00 2.288645e+00 2.856881e+00 3.959265e+00 4.189661e+00 4.952263e+00 5.376649e+00 5.451448e+00 5.725326e+00 4.895984e+00 4.293637e+00 7.379998e-01 3.149602e-01 3.736965e-01 4.826660e-01 6.013726e-01 8.500073e-01 8.938466e-01 1.052472e+00 1.169533e+00 1.145814e+00 1.219649e+00 1.052424e+00 9.060065e-01 1.938719e-01
<GCONST> 1.309328e+02
<MIXTURE> 6 5.950483e-02
<MEAN> 39
 -8.249428e+00 -1.577217e+00 -1.055460e+00 6.211481e+00 6.404768e+00 6.191355e+00 4.301505e+00 -2.955191e+00 -1.125032e+00 -3.102065e+00 -1.369742e+00 6.934786e-01 -1.969616e+01 1.494122e-01 3.371431e-01 5.700640e-01 4.023559e-01 -3.132545e-01 -4.436677e-01 -6.307662e-01 -1.209096e+00 -1.111845e+00 -1.195949e+00 -9.114105e-01 -3.750913e-01 -3.620564e-01 3.835724e-02 6.565193e-02 1.071992e-01 1.257159e-01 1.831849e-01 1.117374e-01 1.659737e-01 4.201366e-01 4.821785e-01 4.539677e-01 4.350342e-01 2.035627e-01 1.692633e-01
<VARIANCE> 39
 2.045004e+01 2.406874e+01 3.787324e+01 4.579406e+01 5.739747e+01 5.755133e+01 6.288544e+01 7.468376e+01 6.310623e+01 6.946437e+01 7.707166e+01 5.353091e+01 2.309965e+01 1.758085e+00 2.215517e+00 2.760956e+00 3.473910e+00 4.589049e+00 4.871555e+00 5.485294e+00 5.625712e+00 5.748764e+00 6.137928e+00 5.444657e+00 4.891191e+00 9.321853e-01 3.026754e-01 3.697537e-01 4.716333e-01 6.333407e-01 8.502392e-01 9.193197e-01 1.059077e+00 1.146524e+00 1.147543e+00 1.231553e+00 1.060115e+00 9.664621e-01 1.748691e-01
<GCONST> 1.338505e+02
<MIXTURE> 7 6.879424e-02
<MEAN> 39
 -8.570931e+00 -3.260073e+00 -1.989779e+00 7.018884e+00 8.355222e+00 8.128135e+00 7.013562e+00 4.072098e+00 5.263474e+00 2.744350e+00 5.186633e+00 4.476197e+00 -1.743289e+01 -3.052251e-01 3.226699e-01 2.731237e-01 6.333848e-02 -1.157210e-02 -2.243918e-01 -7.894060e-02 -6.337802e-02 -1.872368e-01 2.450251e-01 8.825876e-02 4.915842e-02 1.310029e-02 2.423575e-01 2.964098e-01 2.573986e-01 -2.602177e-01 -2.623206e-01 -3.703836e-01 -4.311547e-01 -3.092564e-01 -4.125640e-01 -3.360208e-01 -3.014143e-01 -2.164201e-01 5.965211e-01
<VARIANCE> 39
 3.510980e+01 4.915236e+01 6.804726e+01 7.960120e+01 9.141730e+01 8.837632e+01 9.223637e+01 1.078029e+02 9.345473e+01 9.658470e+01 9.879615e+01 6.879974e+01 3.839423e+01 8.026093e+00 7.653140e+00 9.734794e+00 1.449094e+01 1.282025e+01 1.302080e+01 1.205994e+01 1.202406e+01 1.151096e+01 1.138212e+01 9.000638e+00 7.868271e+00 9.596437e+00 1.089084e+00 1.017690e+00 1.356625e+00 1.966812e+00 1.863330e+00 1.835471e+00 1.983557e+00 1.987061e+00 1.907366e+00 1.850363e+00 1.638247e+00 1.351360e+00 1.293218e+00
<GCONST> 1.640663e+02
<MIXTURE> 8 5.303764e-02
<MEAN> 39
 2.788911e-01 3.278585e+00 2.851476e+00 1.103761e+01 1.310154e+01 1.014672e+01 4.804435e+00 2.666961e+00 -1.335420e+00 -4.429275e+00 -1.569661e+00 -9.786497e-01 -9.664971e+00 -1.303137e+00 -9.487417e-01 -7.899763e-02 5.100824e-01 1.390730e+00 8.694810e-01 9.568482e-01 7.350998e-01 4.656716e-01 5.714971e-01 4.836375e-01 3.768988e-01 -1.165956e+00 -3.533908e-02 -2.946366e-01 -4.246191e-01 -6.818739e-01 -5.743508e-01 -4.022590e-01 -9.386382e-02 8.833031e-03 3.549670e-01 3.992324e-01 4.368303e-01 3.081796e-01 5.324105e-02
<VARIANCE> 39
 8.798918e+01 8.028396e+01 1.168153e+02 1.011067e+02 1.416424e+02 1.133731e+02 1.274156e+02 1.330709e+02 1.288604e+02 1.287443e+02 1.047791e+02 8.241646e+01 6.587899e+01 3.512508e+00 3.993460e+00 5.713573e+00 7.190035e+00 8.186673e+00 7.624948e+00 8.178343e+00 7.694508e+00 7.878818e+00 8.192099e+00 7.287987e+00 6.564390e+00 2.289576e+00 4.785421e-01 5.880089e-01 8.797594e-01 1.084806e+00 1.300290e+00 1.365212e+00 1.471191e+00 1.459487e+00 1.478255e+00 1.468359e+00 1.325109e+00 1.203441e+00 2.369892e-01
<GCONST> 1.556284e+02
<MIXTURE> 9 9.036706e-02
<MEAN> 39
 -8.880649e+00 -7.612351e-01 1.346109e-02 7.938220e+00 7.499547e+00 7.748427e+00 6.043934e+00 -1.113715e+00 2.219353e+00 1.957861e-02 6.552112e-01 1.975132e+00 -2.026455e+01 9.857509e-03 -1.935173e-01 -1.271965e-01 -2.259664e-01 -4.407470e-01 -3.084857e-01 -3.762113e-01 -5.710317e-01 -3.926888e-01 -5.313045e-01 -5.080268e-01 -4.202323e-01 -2.315825e-01 2.955268e-02 -8.096792e-02 -1.501905e-01 -2.409215e-01 -1.772622e-01 -2.658954e-01 -2.712569e-01 -1.541484e-01 -2.200461e-01 -2.394562e-01 -1.547819e-01 -1.402838e-01 1.608265e-01
<VARIANCE> 39
 1.721836e+01 1.915975e+01 3.296722e+01 3.967711e+01 5.087072e+01 5.052381e+01 5.696430e+01 7.169722e+01 6.041487e+01 6.246428e+01 7.157470e+01 4.867292e+01 1.679404e+01 1.449261e+00 1.834247e+00 2.268371e+00 2.876346e+00 3.969742e+00 4.184083e+00 4.951443e+00 5.254043e+00 5.426772e+00 5.660593e+00 4.864925e+00 4.269578e+00 7.290508e-01 2.958358e-01 3.503360e-01 4.715631e-01 5.918022e-01 8.233057e-01 8.666257e-01 1.039736e+00 1.136575e+00 1.105022e+00 1.178965e+00 1.027034e+00 8.711029e-01 1.785880e-01
<GCONST> 1.298128e+02
<MIXTURE> 10 1.034398e-01
<MEAN> 39
 -8.299708e+00 -8.904226e-01 1.003332e+00 9.630630e+00 8.817026e+00 8.405498e+00 6.575965e+00 6.935949e-01 3.860688e+00 1.724455e+00 3.805603e+00 2.288395e+00 -2.108551e+01 -3.367182e-01 -1.678966e-02 -2.011463e-01 -5.468012e-02 5.224296e-02 2.109227e-01 2.594658e-01 4.245279e-01 3.646595e-01 4.732994e-01 1.820285e-01 5.926990e-02 -1.011199e-01 -6.144027e-02 -5.186518e-02 -1.777050e-01 -3.258731e-01 -1.807140e-01 -3.098450e-01 -3.094828e-01 -1.882232e-01 -3.882911e-01 -3.623602e-01 -3.304001e-01 -1.281740e-01 2.562714e-01
<VARIANCE> 39
 1.934671e+01 2.292744e+01 3.814711e+01 4.418549e+01 5.873384e+01 5.806486e+01 5.994786e+01 7.587347e+01 6.310933e+01 6.729270e+01 7.681258e+01 5.107315e+01 2.170558e+01 2.335428e+00 2.971472e+00 3.411336e+00 4.160748e+00 5.249230e+00 5.387157e+00 6.158514e+00 6.864150e+00 6.788482e+00 6.903121e+00 5.893115e+00 4.973042e+00 1.575057e+00 3.875917e-01 4.555330e-01 5.735589e-01 6.989988e-01 9.568898e-01 1.016775e+00 1.159932e+00 1.277830e+00 1.209171e+00 1.292330e+00 1.121882e+00 9.600238e-01 2.547849e-01
<GCONST> 1.376920e+02
<MIXTURE> 11 7.968690e-02
<MEAN> 39
 -9.006428e+00 -2.743167e+00 -3.060914e+00 4.316609e+00 5.452041e+00 4.753994e+00 2.866914e+00 -2.690151e+00 -7.165125e-01 -2.535062e+00 -1.520341e+00 9.560935e-01 -1.845930e+01 7.723860e-02 2.032849e-01 3.315637e-01 2.478296e-01 -4.074952e-01 -3.797467e-01 -5.464159e-01 -1.121040e+00 -9.154781e-01 -8.880171e-01 -7.962232e-01 -4.482768e-01 -4.664841e-01 6.659426e-02 6.452647e-02 1.866992e-01 1.652469e-01 1.602606e-01 1.822634e-01 2.034578e-01 2.099614e-01 2.710419e-01 1.167414e-01 1.471921e-01 9.459206e-02 1.071529e-01
<VARIANCE> 39
 2.625439e+01 3.455069e+01 4.378500e+01 5.074762e+01 6.629749e+01 6.375497e+01 7.223872e+01 8.625146e+01 7.534067e+01 7.766059e+01 8.360385e+01 5.919359e+01 2.631097e+01 2.171641e+00 2.606629e+00 3.089535e+00 3.937018e+00 5.074205e+00 5.383942e+00 5.924133e+00 6.210701e+00 6.326458e+00 6.426849e+00 5.653978e+00 4.917960e+00 1.279153e+00 4.325101e-01 4.873918e-01 5.846567e-01 7.306394e-01 9.972918e-01 1.015351e+00 1.181546e+00 1.330612e+00 1.318945e+00 1.331002e+00 1.142688e+00 1.023803e+00 2.629564e-01
<GCONST> 1.395944e+02
<MIXTURE> 12 6.571475e-02
<MEAN> 39
 -1.306579e+01 -4.005736e+00 -2.990216e+00 1.656107e+00 7.729360e+00 2.669642e+00 2.605061e+00 5.417881e+00 1.734491e+00 1.916730e+00 4.009620e+00 4.412490e+00 -9.369749e+00 -3.530349e-01 -3.205261e-01 -2.017874e-02 -2.554757e-01 -1.103866e-01 -4.993785e-01 -1.504673e-01 1.930277e-01 -3.235921e-01 -8.541211e-02 5.698178e-02 -2.193997e-02 -2.222663e-02 6.332397e-01 8.863909e-02 3.215711e-01 5.214499e-01 -1.221196e-01 3.518566e-01 1.959592e-01 -5.413015e-01 -6.512630e-03 -3.848702e-01 -3.091589e-01 -2.703897e-01 -6.024505e-01
<VARIANCE> 39
 9.458189e+01 1.151609e+02 1.168895e+02 1.253228e+02 1.678710e+02 1.487660e+02 1.673818e+02 1.441731e+02 1.570008e+02 1.471156e+02 1.381648e+02 8.896954e+01 6.465275e+01 4.521369e+00 4.445096e+00 5.292147e+00 7.060119e+00 7.772665e+00 8.675735e+00 9.041279e+00 9.333734e+00 9.369194e+00 8.518096e+00 7.318459e+00 6.251842e+00 4.954985e+00 1.352416e+00 1.521626e+00 1.708935e+00 2.122910e+00 2.527716e+00 2.414729e+00 2.695877e+00 2.435486e+00 2.613242e+00 2.316377e+00 1.992840e+00 1.611858e+00 1.135360e+00
<GCONST> 1.682821e+02
<MIXTURE> 13 4.638536e-02
<MEAN> 39
 -8.285999e+00 -3.492056e+00 -2.984134e+00 5.548689e+00 7.590647e+00 7.624938e+00 6.643906e+00 3.390129e+00 4.996289e+00 2.142436e+00 3.836224e+00 4.004351e+00 -1.655609e+01 -3.069859e-01 5.229660e-02 -7.682249e-02 -1.343616e-01 -4.624366e-01 -8.036438e-01 -9.588199e-01 -1.174056e+00 -1.277283e+00 -1.080119e+00 -1.117608e+00 -7.492672e-01 -1.347698e-01 3.224430e-01 3.146680e-01 2.354066e-01 -2.529035e-01 -3.119153e-01 -3.807603e-01 -4.512677e-01 -3.511893e-01 -4.665639e-01 -3.811803e-01 -3.719405e-01 -2.658132e-01 6.021631e-01
<VARIANCE> 39
 3.903093e+01 4.914787e+01 7.172742e+01 8.068349e+01 9.604414e+01 8.986226e+01 9.977916e+01 1.114423e+02 9.989455e+01 9.968565e+01 1.045064e+02 6.905246e+01 3.844801e+01 7.163841e+00 6.632908e+00 8.692777e+00 1.239911e+01 1.229809e+01 1.200417e+01 1.188968e+01 1.162875e+01 1.102032e+01 1.094974e+01 8.886927e+00 7.519390e+00 7.293804e+00 1.082645e+00 1.034492e+00 1.352865e+00 1.987981e+00 1.835052e+00 1.783234e+00 2.034428e+00 2.039329e+00 1.902741e+00 1.834787e+00 1.599642e+00 1.321820e+00 1.212048e+00
<GCONST> 1.633684e+02
<MIXTURE> 14 3.296459e-02
<MEAN> 39
 -8.542971e+00 -1.753202e+00 -1.735226e+00 5.283594e+00 5.591067e+00 6.941603e+00 4.477910e+00 -4.072415e+00 -9.362689e-01 -3.620751e+00 -3.300356e+00 1.012450e+00 -1.954650e+01 8.091678e-02 4.166545e-02 1.964474e-01 -1.153208e-01 -9.116733e-01 -1.140741e+00 -1.362651e+00 -2.001686e+00 -1.985497e+00 -2.148516e+00 -1.728502e+00 -1.015898e+00 -4.086590e-01 3.471903e-02 1.456115e-02 1.954690e-02 1.753424e-02 4.705861e-02 -5.927737e-02 9.471995e-03 2.662465e-01 3.011080e-01 2.681963e-01 3.017467e-01 8.850002e-02 1.543903e-01
<VARIANCE> 39
 2.062259e+01 2.264625e+01 3.443397e+01 4.471780e+01 5.371323e+01 5.637571e+01 6.194021e+01 7.268369e+01 6.402584e+01 6.918714e+01 7.302598e+01 5.319660e+01 2.205260e+01 1.788743e+00 2.137822e+00 2.789670e+00 3.499715e+00 4.589722e+00 4.878496e+00 5.588188e+00 5.512592e+00 5.552907e+00 6.185285e+00 5.431862e+00 4.721069e+00 8.961126e-01 2.826390e-01 3.448587e-01 4.460698e-01 6.237336e-01 8.138792e-01 8.932874e-01 1.042943e+00 1.099231e+00 1.133002e+00 1.240428e+00 1.038186e+00 9.321057e-01 1.601664e-01
<GCONST> 1.328590e+02
<MIXTURE> 15 5.024588e-02
<MEAN> 39
 -1.050468e+00 1.262031e+00 1.078147e+00 1.047762e+01 1.442327e+01 1.210923e+01 7.687098e+00 3.535183e+00 -3.037785e-01 -4.310896e+00 -2.464224e+00 -8.379106e-01 -1.111483e+01 -1.650931e+00 -1.530865e+00 -1.099377e+00 -7.363009e-01 -1.673691e-02 -4.103321e-01 -7.574539e-03 -1.254602e-01 6.678014e-02 1.408366e-01 2.271928e-01 3.620288e-01 -1.212917e+00 3.920163e-02 -1.246381e-01 -3.624249e-01 -7.769927e-01 -9.200831e-01 -6.984793e-01 -4.601783e-01 -2.714864e-01 1.684406e-01 3.254222e-01 4.122725e-01 3.062205e-01 1.250005e-01
<VARIANCE> 39
 7.027468e+01 7.128365e+01 1.109706e+02 1.008399e+02 1.349993e+02 1.165125e+02 1.287818e+02 1.229160e+02 1.249352e+02 1.148814e+02 1.144474e+02 8.058109e+01 5.470279e+01 4.009005e+00 4.420941e+00 6.234616e+00 7.556161e+00 9.422914e+00 8.606986e+00 8.565186e+00 8.142302e+00 7.942514e+00 8.255781e+00 7.729519e+00 6.944149e+00 2.482721e+00 5.052134e-01 6.026555e-01 9.257634e-01 1.250222e+00 1.437101e+00 1.453005e+00 1.596057e+00 1.551299e+00 1.500638e+00 1.440188e+00 1.344975e+00 1.227455e+00 2.562081e-01
<GCONST> 1.565084e+02
<MIXTURE> 16 2.686681e-02
<MEAN> 39
 -8.152078e-01 3.936224e+00 2.996015e+00 9.850616e+00 7.580702e+00 6.625374e+00 1.992752e+00 -1.773137e+00 -1.179968e+00 -4.181666e+00 -9.966325e-01 -1.310854e-01 -1.240954e+01 -2.388285e+00 -1.202642e+00 1.754569e-01 1.312218e+00 2.032367e+00 1.179284e+00 1.247670e+00 9.936982e-01 6.492854e-01 4.185514e-01 5.785649e-01 3.395261e-01 -1.476104e+00 -5.939282e-02 -5.748723e-01 -6.856699e-01 -9.228175e-01 -3.295541e-01 -1.733517e-01 1.001491e-01 3.442779e-01 2.234017e-01 3.062486e-01 2.605100e-01 1.610295e-01 4.625262e-01
<VARIANCE> 39
 7.983980e+01 6.560322e+01 9.856699e+01 9.389674e+01 1.357977e+02 1.127737e+02 1.198064e+02 1.304237e+02 1.169000e+02 1.277939e+02 9.695555e+01 8.109679e+01 7.169605e+01 7.424265e+00 6.910456e+00 1.082529e+01 1.345256e+01 1.305705e+01 1.201025e+01 1.386463e+01 1.228535e+01 1.255943e+01 1.307985e+01 1.142408e+01 9.703472e+00 9.018610e+00 8.529979e-01 8.655821e-01 1.288119e+00 1.525998e+00 1.782915e+00 1.602766e+00 1.849670e+00 1.819333e+00 1.759824e+00 1.813958e+00 1.561545e+00 1.384988e+00 6.589580e-01
<GCONST> 1.667927e+02
~h "b"
<BEGINHMM>
<NUMSTATES> 5
<STATE> 2
<NUMMIXES> 16
<MIXTURE> 1 5.152489e-02
<MEAN> 39
 1.911030e+01 8.659861e+00 8.449608e+00 2.231189e+01 8.380965e+00 -6.684986e-01 -1.163866e+01 -2.085516e+01 -1.910711e+01 1.215982e+01 1.022542e+01 -1.115367e+01 1.901520e+00 -1.862199e-01 2.359471e+00 9.278148e-01 8.166715e-02 8.595833e-01 2.663002e+00 1.156036e+00 -1.142404e-01 1.145357e+00 -1.341067e+00 -1.618421e-01 4.375525e-01 -2.517352e+00 -2.953383e-01 4.843530e-02 2.008756e-02 -8.425614e-01 2.415456e-01 1.899968e-01 5.703325e-01 8.129387e-01 1.119768e+00 -8.339257e-01 -5.390058e-01 6.422203e-01 -2.066266e-01
<VARIANCE> 39
 2.701431e+01 4.856415e+01 4.132474e+01 9.871049e+01 4.195677e+01 1.141706e+02 2.679161e+02 1.107019e+02 1.994663e+02 1.064120e+02 1.528822e+02 7.372295e+01 3.159773e+01 8.035478e-01 1.592721e+00 2.502317e+00 5.387809e+00 4.632348e+00 6.741549e+00 7.093093e+00 7.380139e+00 1.279245e+01 5.834567e+00 9.338162e+00 7.170541e+00 1.161594e+00 1.642633e-01 4.657014e-01 5.356721e-01 8.781736e-01 8.747246e-01 1.281854e+00 1.269151e+00 1.063603e+00 1.655972e+00 1.025135e+00 1.507432e+00 1.114372e+00 2.544782e-01
<GCONST> 1.443711e+02
<MIXTURE> 2 5.502234e-02
<MEAN> 39
 1.341296e+01 1.261570e+01 8.932739e+00 1.131825e+01 8.096501e+00 1.959237e+00 -4.031669e+00 -6.091072e+00 -4.450611e-01 7.690623e-02 -4.355302e-01 -2.073877e+00 -5.973627e+00 -9.729469e-01 3.457165e+00 2.403663e+00 4.373157e+00 3.620988e+00 3.519151e+00 2.777320e+00 -8.016096e-01 -3.153839e-01 -1.173365e+00 -6.288124e-01 -7.902987e-01 -4.328613e+00 -6.195757e-01 -8.958468e-01 -4.124912e-02 -1.157060e+00 -1.033862e+00 -4.562421e-01 8.459979e-02 5.528319e-01 -2.837885e-01 3.688687e-02 8.022664e-02 -1.525536e-02 1.305090e+00
<VARIANCE> 39
 4.890513e+01 4.664753e+01 5.811907e+01 6.748217e+01 7.465597e+01 1.153196e+02 1.112164e+02 8.406208e+01 8.089687e+01 7.711192e+01 6.975875e+01 5.907585e+01 3.686383e+01 9.716414e+00 7.844272e+00 1.065291e+01 1.352171e+01 1.309990e+01 1.506533e+01 1.566266e+01 1.386749e+01 1.328337e+01 1.112548e+01 1.515361e+01 1.112552e+01 9.648730e+00 7.221574e-01 8.858526e-01 1.617781e+00 1.704840e+00 1.529765e+00 1.438250e+00 1.641904e+00 1.407405e+00 1.571013e+00 1.423415e+00 1.400463e+00 1.356246e+00 7.259770e-01
<GCONST> 1.622369e+02
<MIXTURE> 3 8.645712e-02
<MEAN> 39
 1.299267e+01 1.729438e+01 1.201494e+01 1.251581e+01 6.818104e+00 2.421418e+00 -1.284916e+00 -8.083073e+00 -5.727380e+00 -3.759629e+00 -4.233930e+00 -4.757363e+00 -6.615605e+00 -1.995815e-01 6.979217e-01 8.619686e-01 5.698718e-01 4.841168e-01 1.068884e+00 3.384968e-01 -3.024998e-01 8.501221e-01 -5.083891e-01 8.197345e-02 3.179066e-01 -8.991879e-01 -1.602437e-01 -3.777671e-01 -1.863099e-01 -1.235209e-01 -1.154264e-01 2.446491e-03 -6.901269e-02 -1.986640e-01 1.855981e-02 1.089443e-01 3.210212e-01 1.188296e-01 1.912204e-01
<VARIANCE> 39
 3.263671e+01 2.380721e+01 4.252505e+01 5.578045e+01 7.571337e+01 1.275506e+02 9.976729e+01 7.332014e+01 8.400787e+01 9.733449e+01 1.174383e+02 8.983186e+01 4.137467e+01 1.357742e+00 1.835527e+00 2.088859e+00 3.001688e+00 4.745168e+00 5.731190e+00 4.559848e+00 5.818985e+00 5.619120e+00 5.763555e+00 5.794407e+00 4.362947e+00 1.092684e+00 2.922328e-01 3.347420e-01 4.485134e-01 5.519322e-01 8.236793e-01 9.900966e-01 9.521468e-01 9.271864e-01 9.681404e-01 8.453632e-01 1.083404e+00 7.711449e-01 2.308722e-01
<GCONST> 1.364044e+02
<MIXTURE> 4 8.875412e-02
<MEAN> 39
 2.050440e+01 6.067733e+00 -5.194991e-01 -6.505809e-01 -6.877066e-01 -6.671833e-01 -7.751159e+00 -1.325444e+01 -1.097909e+01 8.970507e-01 3.556730e+00 -4.760499e+00 7.299636e+00 2.445301e-02 2.498288e+00 6.936938e-01 1.556221e+00 1.610680e+00 1.433308e+00 6.156381e-01 -1.145433e+00 -5.774794e-01 -7.212731e-01 1.700699e+00 1.364364e+00 -3.329716e+00 -5.598230e-01 -9.609585e-01 6.845466e-02 -7.853107e-01 -4.500043e-01 -5.959110e-01 3.370595e-02 1.475829e+00 8.965320e-01 1.265363e-01 -5.988242e-01 -2.504452e-02 1.138869e+00
<VARIANCE> 39
 2.603432e+01 1.219214e+02 1.029882e+02 2.682174e+02 1.280552e+02 2.523193e+02 2.520109e+02 2.177830e+02 2.710058e+02 2.237400e+02 1.812576e+02 1.659870e+02 6.549742e+01 2.824735e+00 6.078676e+00 8.446360e+00 1.167562e+01 1.228913e+01 1.709101e+01 1.512798e+01 1.614950e+01 1.531931e+01 1.495011e+01 1.167941e+01 1.168366e+01 3.944321e+00 3.822137e-01 1.003076e+00 1.575271e+00 2.424808e+00 2.289388e+00 1.886828e+00 3.169935e+00 2.569324e+00 4.102303e+00 2.965914e+00 2.483363e+00 2.672723e+00 7.289988e-01
<GCONST> 1.747886e+02
<MIXTURE> 5 8.441168e-02
<MEAN> 39
 1.891137e+01 1.235916e+01 5.998113e+00 1.080303e+01 -7.193461e+00 -1.654510e+01 -1.379867e+01 -1.233724e+01 -4.332085e+00 -2.793730e-01 -7.157027e+00 -1.482684e+01 2.683958e+00 1.536947e-02 1.868797e+00 6.135300e-01 6.905614e-01 6.930807e-01 1.124665e+00 2.264586e-01 -7.027963e-01 1.618917e-01 -4.419374e-01 4.212250e-01 6.091869e-01 -1.857981e+00 -3.372831e-01 -3.344432e-01 1.709139e-01 4.490342e-02 7.379549e-01 8.493603e-01 3.164316e-02 -1.058243e-01 -2.364266e-01 2.489718e-02 6.238207e-01 5.868410e-01 -9.758317e-02
<VARIANCE> 39
 2.584578e+01 4.287587e+01 5.307813e+01 9.774246e+01 1.124946e+02 1.730911e+02 1.481846e+02 2.141283e+02 1.341863e+02 1.483482e+02 1.135792e+02 1.502059e+02 3.324336e+01 7.037651e-01 2.019624e+00 2.319843e+00 3.307780e+00 5.282991e+00 6.483323e+00 4.024255e+00 6.588857e+00 6.649372e+00 6.680197e+00 6.308437e+00 6.097645e+00 9.768249e-01 2.534373e-01 5.580865e-01 6.887673e-01 8.492316e-01 1.250930e+00 1.297764e+00 1.000658e+00 1.695601e+00 1.215166e+00 1.670380e+00 1.199849e+00 1.272569e+00 4.266193e-01
<GCONST> 1.460519e+02
<MIXTURE> 6 4.739749e-02
<MEAN> 39
 5.278266e+00 6.331132e+00 1.176850e+00 6.562184e+00 8.023459e+00 8.070694e+00 1.944698e+00 -5.724360e+00 -2.232615e+00 -1.491976e+00 2.048699e+00 2.441243e+00 -9.222430e+00 1.494238e+00 2.501890e+00 1.852151e+00 1.677619e+00 3.686029e-01 1.505056e-01 2.556864e-01 -6.814194e-01 -1.258790e+00 -8.816218e-01 -6.474212e-01 -6.113870e-01 -3.258849e-01 5.259275e-01 -3.768257e-01 -1.848718e-01 -1.018730e+00 -7.514153e-01 -9.005178e-01 -7.391145e-01 2.286802e-01 1.989256e-01 3.675250e-01 -5.740256e-04 -5.113125e-01 1.667482e+00
<VARIANCE> 39
 1.397041e+02 5.129089e+01 6.088152e+01 1.083179e+02 6.940139e+01 8.524974e+01 1.078134e+02 7.876687e+01 1.158949e+02 9.257681e+01 7.437874e+01 7.843129e+01 1.246553e+02 1.445303e+01 8.355536e+00 7.678397e+00 1.057707e+01 8.025572e+00 8.434156e+00 1.013365e+01 8.265162e+00 8.878419e+00 9.115582e+00 8.803865e+00 9.118505e+00 1.064769e+01 1.415248e+00 1.459600e+00 1.859042e+00 1.952368e+00 1.850509e+00 1.498034e+00 1.982723e+00 1.688742e+00 2.171420e+00 1.840371e+00 1.544364e+00 1.705943e+00 1.369265e+00
<GCONST> 1.657475e+02
<MIXTURE> 7 5.542858e-02
<MEAN> 39
 1.659821e+01 1.593952e+01 9.948761e+00 1.390417e+01 5.090690e+00 2.659855e-02 -1.098813e+01 -2.195010e+01 -9.383216e+00 3.970083e+00 5.031068e+00 -2.573592e+00 -4.887172e+00 -9.213749e-01 1.302961e+00 1.500265e+00 1.045574e+00 1.602966e+00 1.723972e+00 1.217201e+00 3.348686e-01 7.533856e-01 -1.157968e+00 3.069778e-01 9.712601e-01 -2.228674e+00 -4.681469e-01 -8.388532e-01 -2.097015e-01 -4.650944e-01 -1.609419e-01 -1.817992e-01 5.566930e-01 1.392383e+00 4.840946e-01 -2.709748e-01 -5.643883e-01 -3.304324e-01 4.564813e-01
<VARIANCE> 39
 2.797849e+01 3.378258e+01 3.415118e+01 5.066619e+01 1.083734e+02 1.275184e+02 1.389585e+02 1.343872e+02 1.204362e+02 1.156974e+02 8.414680e+01 1.162228e+02 3.424540e+01 2.560157e+00 2.178358e+00 2.845965e+00 5.010298e+00 8.096428e+00 7.409862e+00 6.132842e+00 7.743439e+00 9.368801e+00 9.216742e+00 8.357877e+00 9.400328e+00 2.114945e+00 3.735583e-01 7.245942e-01 7.777679e-01 1.118788e+00 1.145230e+00 1.046335e+00 9.512327e-01 1.438008e+00 1.669993e+00 1.149078e+00 1.125977e+00 1.634954e+00 6.050436e-01
<GCONST> 1.493271e+02
<MIXTURE> 8 3.883608e-02
<MEAN> 39
 1.155155e+01 1.602527e+01 1.076453e+01 1.447096e+01 1.898484e+00 -3.909475e+00 -9.674058e+00 -1.749342e+01 -9.614854e+00 -4.674702e+00 -5.559933e+00 -9.630756e+00 -8.264174e+00 3.675018e+00 2.282788e+00 1.623848e+00 6.692485e-01 -6.499140e-01 -7.441948e-01 -1.886850e+00 -1.927346e+00 -1.305608e+00 1.832022e-01 -1.490749e-01 -1.304578e+00 1.389412e+00 -1.171323e+00 -1.213431e+00 -8.449033e-01 -5.958923e-01 4.675867e-01 9.054040e-01 1.147442e+00 1.587096e+00 9.033364e-01 3.539248e-01 6.693810e-01 6.920685e-01 -1.908831e-01
<VARIANCE> 39
 4.526316e+01 5.689956e+01 6.604695e+01 1.330813e+02 7.990057e+01 1.697457e+02 2.045717e+02 1.607872e+02 1.387575e+02 1.525715e+02 1.290470e+02 9.411182e+01 4.977299e+01 8.087288e+00 8.217928e+00 5.881645e+00 7.666991e+00 9.388760e+00 1.245345e+01 1.547562e+01 1.664035e+01 1.044261e+01 1.212341e+01 1.233721e+01 1.081308e+01 8.133703e+00 9.637300e-01 1.175266e+00 1.091436e+00 2.340835e+00 1.635786e+00 2.256053e+00 2.774979e+00 3.351743e+00 1.780999e+00 2.646901e+00 2.044977e+00 2.243829e+00 1.239719e+00
<GCONST> 1.698368e+02
<MIXTURE> 9 8.011273e-02
<MEAN> 39
 1.313794e+01 1.639537e+01 8.960413e+00 1.115044e+01 4.053303e+00 5.613143e-01 -4.456398e-01 -8.663727e+00 -7.804828e+00 -5.905567e+00 -4.872561e+00 -4.849993e+00 -5.823422e+00 -2.140202e-01 6.747746e-01 6.094514e-01 4.179504e-01 3.007517e-01 3.631579e-01 4.708402e-01 -1.131276e-01 3.951250e-01 -5.768292e-01 -5.133193e-01 -3.333342e-02 -7.023979e-01 -7.297231e-02 -2.915646e-01 -1.396053e-01 -2.279285e-01 -7.296856e-03 -3.823319e-02 -2.560694e-01 -1.340271e-01 7.672486e-02 1.952867e-01 2.582641e-01 1.290963e-01 2.257997e-01
<VARIANCE> 39
 4.241139e+01 2.742176e+01 4.638811e+01 6.748354e+01 9.497905e+01 1.494538e+02 1.437026e+02 8.578237e+01 9.418970e+01 1.245147e+02 1.184932e+02 1.050363e+02 4.833016e+01 1.169545e+00 1.820119e+00 1.994459e+00 2.735023e+00 4.235020e+00 5.199945e+00 4.290688e+00 5.053861e+00 4.986792e+00 5.688631e+00 5.730587e+00 4.681542e+00 9.900406e-01 3.189231e-01 3.893542e-01 4.806781e-01 6.532027e-01 8.604109e-01 9.337022e-01 9.678370e-01 7.942926e-01 9.203944e-01 1.038148e+00 1.046597e+00 7.961426e-01 2.522721e-01
<GCONST> 1.383558e+02
<MIXTURE> 10 6.963624e-02
<MEAN> 39
 1.704174e+01 8.842208e+00 2.225470e+00 8.157473e+00 -6.943348e+00 -1.611623e+01 -1.502206e+01 -1.739122e+01 -1.068860e+01 -2.827755e+00 -1.075174e+01 -1.827227e+01 5.606225e+00 1.287001e-01 1.385518e+00 2.701422e-01 2.916070e-01 1.933334e-01 8.867056e-01 -1.243304e-01 -6.395235e-01 -1.589416e-01 5.349580e-02 -2.550927e-01 -3.665890e-01 -1.535387e+00 -2.053244e-01 -2.994658e-01 2.165716e-01 -2.794649e-01 3.822252e-01 5.484257e-01 1.072176e-01 1.214623e-01 5.593911e-02 2.142772e-01 4.605582e-01 5.222466e-01 6.310444e-02
<VARIANCE> 39
 2.436537e+01 6.801447e+01 7.401482e+01 9.482661e+01 1.119602e+02 1.979178e+02 1.657233e+02 2.958291e+02 1.377682e+02 1.410344e+02 1.490828e+02 1.591102e+02 4.628657e+01 7.770509e-01 1.825281e+00 2.336590e+00 2.962562e+00 4.628441e+00 5.892177e+00 4.615408e+00 5.576105e+00 4.690870e+00 6.247413e+00 5.302140e+00 5.298985e+00 9.396083e-01 2.764171e-01 5.308976e-01 7.620818e-01 9.846958e-01 1.201343e+00 1.107849e+00 1.156031e+00 1.537562e+00 8.715287e-01 1.350483e+00 1.222635e+00 1.121913e+00 4.929512e-01
<GCONST> 1.464517e+02
<MIXTURE> 11 3.732902e-02
<MEAN> 39
 1.488573e+00 4.745886e+00 1.679562e+00 7.811476e+00 7.022909e+00 5.950057e+00 7.186430e-01 -3.736765e+00 -3.607128e+00 -2.526053e+00 2.119971e+00 1.560737e-01 -1.252129e+01 2.941490e+00 3.033840e+00 1.920417e+00 1.470419e+00 -1.136761e+00 -1.641359e+00 -2.218200e+00 -3.313133e+00 -2.913594e+00 -2.466274e+00 -2.682393e+00 -2.048594e+00 6.266509e-01 7.478208e-01 1.124284e-01 5.388463e-02 -5.289547e-01 -6.807966e-01 -9.385247e-01 -8.161590e-01 -2.484130e-01 1.178800e-01 3.930596e-01 -3.705135e-01 -5.505041e-01 1.441411e+00
<VARIANCE> 39
 1.349992e+02 3.795610e+01 6.341556e+01 1.227361e+02 6.469455e+01 6.407660e+01 9.547300e+01 7.558112e+01 1.106037e+02 9.346589e+01 7.824548e+01 7.424809e+01 1.303412e+02 1.008773e+01 8.864232e+00 6.921031e+00 9.882759e+00 7.252200e+00 1.431985e+01 2.024982e+01 1.543614e+01 1.195959e+01 9.547042e+00 1.131585e+01 1.333203e+01 1.004551e+01 1.102759e+00 1.335880e+00 1.410686e+00 2.222552e+00 1.547071e+00 1.559623e+00 2.022094e+00 2.669553e+00 2.434577e+00 2.299674e+00 1.973808e+00 2.011748e+00 1.134029e+00
<GCONST> 1.676655e+02
<MIXTURE> 12 7.271162e-02
<MEAN> 39
 1.362778e+01 1.042268e+01 7.729030e+00 9.446696e+00 5.015166e+00 -2.054609e+00 -8.420779e+00 -7.044426e+00 -1.792099e+00 -2.012015e+00 -4.374959e+00 -6.330844e+00 -4.724446e+00 -1.018445e+00 3.500912e+00 1.969099e+00 4.895027e+00 3.255836e+00 2.338637e+00 1.439469e+00 -2.295444e+00 -1.107075e+00 -1.518993e+00 2.371435e-02 -1.355873e+00 -4.485148e+00 -4.346496e-01 -1.144334e+00 -2.869075e-01 -1.883525e+00 -1.351462e+00 -5.524629e-01 3.050504e-01 6.124185e-01 -4.015466e-01 7.761817e-02 -2.007006e-02 3.908828e-01 1.811065e+00
<VARIANCE> 39
 3.474979e+01 5.735258e+01 6.861670e+01 6.788492e+01 7.746392e+01 1.065479e+02 1.052057e+02 8.959203e+01 8.624770e+01 7.737119e+01 7.855643e+01 5.984537e+01 3.760247e+01 7.281719e+00 7.755843e+00 1.270989e+01 1.432653e+01 1.393763e+01 1.260537e+01 1.360009e+01 1.236116e+01 1.263192e+01 1.087780e+01 1.071062e+01 1.296378e+01 8.422873e+00 6.746919e-01 1.087335e+00 1.843105e+00 2.011732e+00 2.061331e+00 1.473398e+00 2.083000e+00 1.527987e+00 1.830615e+00 1.737713e+00 1.436867e+00 1.157503e+00 1.010792e+00
<GCONST> 1.632440e+02
<MIXTURE> 13 9.208012e-02
<MEAN> 39
 1.979640e+01 2.993292e+00 -2.385291e+00 -3.806842e+00 2.491892e-01 -6.179344e+00 -1.320173e+01 -1.331644e+01 -8.579243e+00 3.019916e+00 -4.106422e-01 -7.697808e+00 8.850248e+00 1.181454e-01 2.334586e+00 7.114056e-01 1.792889e+00 1.428331e+00 1.335480e+00 -1.136315e-01 -1.273715e+00 -8.420615e-01 -5.095600e-01 1.145768e+00 3.109939e-01 -3.215151e+00 -5.764824e-01 -1.007832e+00 7.003770e-02 -1.046147e+00 -7.704374e-01 -3.308483e-01 6.843749e-01 1.440740e+00 5.365744e-01 -1.651822e-01 -4.884585e-01 3.015046e-01 1.346472e+00
<VARIANCE> 39
 2.561039e+01 1.058126e+02 1.160285e+02 2.590437e+02 1.125321e+02 2.325582e+02 1.948410e+02 2.578004e+02 2.237565e+02 2.026387e+02 1.786319e+02 1.559179e+02 6.715625e+01 2.710302e+00 5.870041e+00 8.710871e+00 1.162400e+01 1.103922e+01 1.502052e+01 1.414844e+01 1.463916e+01 1.428407e+01 1.502914e+01 9.639963e+00 1.108177e+01 3.924841e+00 3.213953e-01 9.510993e-01 1.563102e+00 2.727526e+00 2.044430e+00 1.931799e+00 3.068359e+00 2.927839e+00 2.986065e+00 3.162389e+00 2.423610e+00 2.537415e+00 7.069368e-01
<GCONST> 1.728382e+02
<MIXTURE> 14 5.463133e-02
<MEAN> 39
 1.643389e+01 1.554029e+01 9.035422e+00 1.324648e+01 2.560350e+00 -3.793159e+00 -1.347537e+01 -2.473441e+01 -1.046424e+01 3.389381e+00 3.685503e+00 -4.172404e+00 -4.664200e+00 -1.253268e+00 1.113718e+00 1.408695e+00 1.639195e+00 1.562884e+00 1.132277e+00 8.775983e-01 4.153088e-01 3.287556e-01 -1.515486e+00 -1.031260e-03 1.852274e-01 -2.158690e+00 -4.014146e-01 -9.382489e-01 -3.026929e-01 -8.175541e-01 -2.094690e-01 -6.439828e-02 5.579050e-01 1.706529e+00 5.602623e-01 -2.886023e-01 -7.394826e-01 -3.082774e-01 7.315106e-01
<VARIANCE> 39
 2.853808e+01 2.679269e+01 4.482417e+01 4.567554e+01 1.048292e+02 1.108094e+02 1.127042e+02 1.326010e+02 1.025042e+02 1.155324e+02 8.817863e+01 1.208699e+02 3.768875e+01 1.995028e+00 2.190881e+00 3.246301e+00 4.669423e+00 8.185608e+00 7.133150e+00 5.168620e+00 8.836974e+00 8.039622e+00 8.023035e+00 8.583964e+00 1.087003e+01 1.850212e+00 4.363239e-01 5.940239e-01 9.214981e-01 1.429425e+00 1.325333e+00 1.091968e+00 1.067529e+00 1.581130e+00 1.573832e+00 1.413620e+00 1.100482e+00 1.599824e+00 6.505489e-01
<GCONST> 1.493500e+02
<MIXTURE> 15 5.835580e-02
<MEAN> 39
 2.014339e+01 6.377995e+00 5.480785e+00 1.817721e+01 7.643552e+00 -3.057832e+00 -1.276488e+01 -2.316615e+01 -1.960266e+01 1.018405e+01 9.406238e+00 -1.117888e+01 3.680040e+00 -1.662014e-01 2.121558e+00 9.182636e-01 3.532212e-01 5.526663e-01 2.153696e+00 5.294340e-01 1.269577e-01 3.426860e-01 -9.083279e-01 -1.793894e-01 4.212957e-02 -2.331640e+00 -2.968470e-01 8.620740e-02 -5.320315e-02 -7.909320e-01 1.590092e-02 2.126278e-01 4.645742e-01 9.692866e-01 1.075191e+00 -7.504642e-01 -4.825134e-01 5.545405e-01 -1.320691e-01
<VARIANCE> 39
 2.230629e+01 4.549109e+01 4.531838e+01 1.038125e+02 5.429263e+01 1.033608e+02 2.002887e+02 1.423542e+02 2.258815e+02 1.335134e+02 1.410742e+02 8.804875e+01 3.250483e+01 1.005746e+00 1.575135e+00 2.540191e+00 4.493795e+00 4.474539e+00 8.090444e+00 5.513712e+00 7.688187e+00 1.062424e+01 7.464092e+00 1.011649e+01 8.362040e+00 1.322366e+00 2.195728e-01 3.962327e-01 6.026570e-01 1.162565e+00 7.813901e-01 1.236951e+00 1.049016e+00 1.166171e+00 1.769521e+00 1.317439e+00 1.269859e+00 1.267711e+00 3.945657e-01
<GCONST> 1.462535e+02
<MIXTURE> 16 2.730857e-02
<MEAN> 39
 9.400651e+00 1.407951e+01 1.138965e+01 1.690872e+01 5.124887e-01 -8.392406e+00 -1.833533e+01 -1.949393e+01 -1.270400e+01 -7.005450e+00 -1.231123e+01 -1.124961e+01 -7.357522e+00 3.355234e+00 1.818347e+00 1.437473e+00 1.880184e+00 -1.342091e+00 -1.541441e+00 -3.505228e+00 -3.529326e+00 -2.327746e+00 -8.411544e-01 -3.437439e+00 -3.604204e+00 1.042855e+00 -5.936552e-01 -1.007942e+00 -9.415311e-01 -1.159132e+00 1.580313e-01 9.157739e-01 1.530366e+00 1.620038e+00 9.248136e-01 5.497103e-01 1.010110e+00 5.907905e-01 2.669668e-01
<VARIANCE> 39
 5.686027e+01 7.684179e+01 6.626844e+01 1.078050e+02 7.725159e+01 2.284560e+02 1.481908e+02 2.390166e+02 1.169646e+02 1.601797e+02 1.425676e+02 9.250389e+01 8.797605e+01 1.093026e+01 1.200701e+01 7.427802e+00 1.185298e+01 1.271489e+01 2.460539e+01 2.319207e+01 4.230244e+01 1.674427e+01 1.979168e+01 1.609370e+01 1.420003e+01 1.357934e+01 1.035278e+00 1.335504e+00 1.020136e+00 2.703507e+00 2.162185e+00 3.505225e+00 2.736340e+00 4.672500e+00 1.686955e+00 3.005793e+00 2.705979e+00 2.448949e+00 1.599737e+00
<GCONST> 1.787187e+02
<STATE> 3
<NUMMIXES> 16
<MIXTURE> 1 4.494905e-02
<MEAN> 39
 1.516405e+01 1.858113e+01 1.690833e+01 1.788188e+01 1.307146e+01 1.071802e+01 1.277844e+00 -1.004296e+01 -4.829989e+00 -2.107578e+00 -1.751322e+00 -3.213917e+00 -9.067845e+00 -1.106674e+00 1.219327e+00 1.906088e+00 5.729361e-01 1.639196e+00 2.661197e+00 2.188653e+00 3.284265e-01 1.365684e+00 -1.676587e+00 -9.172139e-01 2.531900e-01 -2.377059e+00 -2.885422e-01 -1.369160e+00 -6.426668e-01 -1.026748e+00 -1.328900e+00 -2.102763e+00 -9.441882e-01 6.487315e-01 -2.097204e-01 6.096047e-01 4.009770e-01 1.592800e-01 1.961064e+00
<VARIANCE> 39
 1.760506e+01 1.873126e+01 3.457460e+01 5.309041e+01 3.127654e+01 6.522678e+01 7.981352e+01 8.008662e+01 8.659868e+01 8.097179e+01 7.857355e+01 1.117460e+02 1.629929e+01 1.576701e+00 4.347129e+00 4.090638e+00 8.184904e+00 8.408264e+00 8.968498e+00 1.069266e+01 1.063069e+01 9.463640e+00 8.914510e+00 1.087079e+01 5.937924e+00 2.337010e+00 2.784439e-01 4.507084e-01 1.318247e+00 1.503879e+00 1.186723e+00 1.836379e+00 1.334352e+00 1.955259e+00 2.238942e+00 1.782910e+00 1.177232e+00 1.651454e+00 5.277970e-01
<GCONST> 1.478014e+02
<MIXTURE> 2 6.586627e-02
<MEAN> 39
 1.756950e+01 1.405111e+01 6.010206e+00 1.279551e+01 3.841223e+00 8.746569e+00 2.689629e+00 -1.973978e+01 -2.149307e+01 -3.760709e+00 5.655308e+00 -4.645520e+00 -1.677977e+00 -9.163101e-01 4.409655e-01 7.762709e-02 -2.005985e+00 1.195862e+00 -6.692792e-01 -3.868425e-01 3.056889e+00 4.012129e+00 4.790658e-01 -7.753649e-01 1.851431e+00 -7.973273e-01 3.529598e-02 -1.970815e+00 -1.199442e+00 -2.467958e+00 -8.753232e-01 -1.196143e+00 -1.092844e+00 1.446042e+00 1.904673e+00 1.174438e+00 -1.085249e-01 -1.752387e-01 2.419861e+00
<VARIANCE> 39
 3.082935e+01 7.101982e+01 4.874731e+01 1.508145e+02 1.410792e+02 1.020485e+02 1.899170e+02 1.194039e+02 1.568394e+02 1.380147e+02 1.545882e+02 1.286279e+02 3.505293e+01 4.159267e+00 7.443101e+00 9.001471e+00 1.644802e+01 1.177376e+01 1.618029e+01 1.628116e+01 1.436066e+01 1.563087e+01 1.367267e+01 1.689608e+01 1.253924e+01 6.071400e+00 5.960540e-01 8.740869e-01 1.882419e+00 2.730764e+00 2.478129e+00 2.319146e+00 2.240798e+00 2.770117e+00 3.002870e+00 2.169131e+00 3.504223e+00 2.165401e+00 9.365558e-01
<GCONST> 1.713654e+02
<MIXTURE> 3 6.699922e-02
<MEAN> 39
 8.822916e+00 1.709752e+01 1.465190e+01 1.682973e+01 1.071479e+01 7.875474e+00 2.779226e+00 -5.702376e+00 -2.510145e-02 -4.952100e+00 -3.780540e+00 -3.521126e+00 -1.162813e+01 -1.202191e+00 -1.205818e+00 -2.893954e-01 -1.349370e-01 1.794595e-01 -7.499804e-01 3.837235e-01 1.234313e+00 4.031155e-01 6.324506e-01 7.029629e-01 4.911046e-01 1.269571e+00 5.213758e-01 -1.398547e+00 -1.058745e+00 -2.338190e+00 -1.785421e+00 -1.386449e+00 -7.645513e-01 4.069216e-01 -5.713141e-01 7.872523e-01 7.530915e-01 3.849749e-01 2.309637e+00
<VARIANCE> 39
 3.930355e+01 2.683823e+01 4.280595e+01 6.322398e+01 7.501952e+01 1.059390e+02 7.852543e+01 8.601351e+01 7.017468e+01 7.446637e+01 5.413360e+01 8.076279e+01 2.874848e+01 8.345773e+00 5.262982e+00 4.785801e+00 5.866524e+00 5.979403e+00 9.190441e+00 9.550688e+00 8.116213e+00 7.238170e+00 8.002790e+00 5.860665e+00 6.335022e+00 5.108666e+00 1.300280e+00 8.833765e-01 3.063001e+00 2.966875e+00 2.395288e+00 3.443523e+00 1.600675e+00 2.480295e+00 2.269218e+00 2.098816e+00 1.532477e+00 1.573064e+00 1.342746e+00
<GCONST> 1.579916e+02
<MIXTURE> 4 6.803113e-02
<MEAN> 39
 2.110776e+01 3.778713e+00 -4.970514e-01 -2.291228e-01 1.835550e+00 -8.203721e+00 -1.340219e+01 -5.593159e+00 -1.588547e+00 7.121522e+00 5.144965e+00 -3.915679e+00 7.274808e+00 -3.926460e-01 2.114552e-01 1.510670e+00 3.333832e-01 -8.612303e-01 -8.514173e-01 5.016533e-01 7.664444e-01 -2.758430e-01 -8.561196e-01 -8.451948e-02 8.459219e-01 -2.078808e-01 -5.999061e-01 -1.207429e+00 4.940207e-01 -1.045519e+00 -1.499118e+00 -8.246792e-01 7.441620e-01 1.480562e+00 -1.617344e-01 -3.617722e-01 -5.098697e-01 7.573343e-02 1.719254e+00
<VARIANCE> 39
 2.569951e+01 1.066628e+02 9.983156e+01 1.710874e+02 9.494407e+01 1.039850e+02 1.037888e+02 1.236008e+02 1.236265e+02 1.002107e+02 1.194560e+02 8.997776e+01 7.127944e+01 2.027039e+00 3.455050e+00 7.849788e+00 6.661796e+00 6.273250e+00 1.005922e+01 7.060226e+00 7.885533e+00 8.871743e+00 8.027320e+00 5.762241e+00 5.503991e+00 2.836280e+00 5.440627e-01 8.173504e-01 1.656903e+00 1.630812e+00 2.302495e+00 2.670038e+00 2.082843e+00 2.565053e+00 2.595651e+00 1.595659e+00 1.955459e+00 1.436667e+00 5.773462e-01
<GCONST> 1.593824e+02
<MIXTURE> 5 6.779530e-02
<MEAN> 39
 9.926747e+00 1.517442e+01 1.162469e+01 1.648950e+01 7.360939e+00 -2.641768e-01 -4.692611e+00 -8.202976e+00 -4.934864e+00 -8.317121e+00 -7.679128e+00 -1.145463e+01 -1.080624e+01 -1.009315e+00 -3.190407e-01 1.210559e+00 -2.654808e-02 -9.443692e-02 2.351424e-01 8.800074e-01 7.142957e-01 -5.839688e-02 4.262818e-01 1.094597e+00 3.092070e-01 8.300483e-01 2.780012e-01 -1.730551e+00 -6.760591e-01 -3.235889e+00 -1.995986e+00 -9.286179e-01 -2.842818e-01 7.315406e-01 2.001569e-01 1.388762e+00 5.033721e-01 1.292104e+00 2.825110e+00
<VARIANCE> 39
 4.269682e+01 4.080215e+01 4.656044e+01 5.080135e+01 7.979986e+01 7.767773e+01 1.031972e+02 1.151430e+02 9.564172e+01 9.245173e+01 8.548221e+01 8.216700e+01 2.388757e+01 1.060998e+01 7.100037e+00 1.065678e+01 9.836227e+00 9.851246e+00 1.004994e+01 8.602431e+00 1.286866e+01 7.790012e+00 9.608283e+00 8.033075e+00 9.060002e+00 9.302349e+00 1.363291e+00 1.862040e+00 4.741163e+00 2.370126e+00 2.760282e+00 2.438101e+00 2.334083e+00 3.034544e+00 2.413361e+00 2.486477e+00 2.250863e+00 2.058247e+00 1.291945e+00
<GCONST> 1.660470e+02
<MIXTURE> 6 6.795781e-02
<MEAN> 39
 1.337214e+01 1.789901e+01 1.313653e+01 1.497862e+01 8.992829e+00 3.827534e+00 -5.626701e+00 -1.395700e+01 -5.603154e+00 -2.227263e+00 1.647379e+00 -2.258545e+00 -9.366273e+00 -1.371817e+00 -8.620056e-03 8.076470e-01 3.195182e-01 8.725936e-01 8.137263e-01 1.182013e+00 9.017656e-01 7.908740e-01 -9.075146e-01 -1.862363e-01 4.484808e-01 -7.298521e-01 6.632142e-02 -1.618737e+00 -4.260859e-01 -1.402744e+00 -1.466312e+00 -1.399007e+00 -2.592106e-01 1.169534e+00 1.010674e-01 6.819217e-01 -9.425315e-02 -1.409076e-01 1.991555e+00
<VARIANCE> 39
 2.422055e+01 2.049200e+01 3.505957e+01 4.634583e+01 5.576543e+01 1.064100e+02 1.053952e+02 7.601068e+01 6.228516e+01 6.883405e+01 5.534781e+01 6.339576e+01 1.999300e+01 2.603642e+00 3.311994e+00 3.043115e+00 4.053847e+00 6.203470e+00 5.645144e+00 7.533070e+00 8.270147e+00 7.781446e+00 6.536662e+00 5.368931e+00 5.612711e+00 2.206372e+00 3.918780e-01 5.985116e-01 2.335587e+00 1.640787e+00 1.405367e+00 2.457439e+00 1.743147e+00 1.803515e+00 2.046205e+00 1.864427e+00 1.459427e+00 1.145423e+00 4.892464e-01
<GCONST> 1.463736e+02
<MIXTURE> 7 6.605695e-02
<MEAN> 39
 2.067750e+01 8.241472e+00 -3.187958e+00 -5.985763e+00 1.391670e+00 6.986503e+00 -3.409428e+00 -1.382125e+01 -1.607973e+01 -3.337887e+00 8.537393e+00 2.595217e+00 3.440941e+00 3.977035e-01 -1.936125e+00 -1.850894e+00 -2.852136e+00 -6.320466e-01 -6.183463e-01 -1.536466e+00 9.399502e-01 3.403569e+00 2.758188e+00 8.709600e-01 -7.289262e-01 2.259615e+00 -1.104690e-01 -1.637252e+00 -4.916278e-01 -7.903094e-01 -7.452667e-01 -8.283566e-01 -7.215042e-01 1.112383e+00 1.852064e+00 1.055748e+00 -6.756919e-01 -1.025754e+00 1.877783e+00
<VARIANCE> 39
 2.756085e+01 6.106703e+01 8.339852e+01 2.299476e+02 1.075070e+02 9.428606e+01 1.237845e+02 1.219055e+02 1.377451e+02 1.562808e+02 1.527208e+02 1.085627e+02 4.837041e+01 2.190532e+00 6.484431e+00 6.357973e+00 1.886857e+01 9.584750e+00 1.010833e+01 1.587138e+01 1.613533e+01 1.834956e+01 1.469611e+01 1.323578e+01 1.099249e+01 4.988001e+00 4.678790e-01 8.893341e-01 1.641424e+00 3.257201e+00 3.416819e+00 2.118007e+00 1.964982e+00 3.362048e+00 2.515263e+00 2.433630e+00 2.953478e+00 2.857818e+00 8.263980e-01
<GCONST> 1.695497e+02
<MIXTURE> 8 6.594753e-02
<MEAN> 39
 1.773129e+01 1.030432e+01 5.049384e+00 1.296128e+01 4.051960e+00 -1.173920e+01 -2.227016e+01 -2.103523e+01 -3.626406e+00 4.962908e+00 -6.537593e+00 -1.451745e+01 -9.728353e-01 -5.150248e-01 -2.458410e-01 2.021994e-01 -1.345337e+00 3.505806e-01 1.442199e+00 1.791598e+00 2.683667e+00 8.758330e-01 -1.201551e-01 6.463933e-01 1.602145e-01 -2.576520e-01 -4.725202e-01 -2.413401e+00 -4.372914e-01 -2.970611e+00 -1.622650e+00 -6.478096e-01 2.105207e+00 2.431119e+00 3.858831e-01 -3.409181e-01 -3.261034e-01 1.302806e+00 2.697601e+00
<VARIANCE> 39
 1.792707e+01 6.748318e+01 8.257351e+01 1.058392e+02 8.303732e+01 1.146549e+02 8.811676e+01 2.101092e+02 1.249970e+02 1.211906e+02 1.583053e+02 1.070875e+02 3.288153e+01 2.365847e+00 5.073068e+00 6.455315e+00 1.061112e+01 9.018462e+00 1.492861e+01 1.148778e+01 2.201767e+01 1.075431e+01 1.169841e+01 9.176051e+00 1.081356e+01 5.487254e+00 5.533904e-01 9.967986e-01 2.989768e+00 1.987316e+00 2.993565e+00 2.522380e+00 2.420829e+00 3.810277e+00 3.212889e+00 2.936211e+00 3.404773e+00 1.867543e+00 7.087277e-01
<GCONST> 1.671578e+02
<MIXTURE> 9 8.298625e-02
<MEAN> 39
 7.656446e+00 1.555432e+01 1.177806e+01 1.399746e+01 9.412849e+00 5.451674e+00 2.018039e+00 -4.874121e+00 -5.999939e-01 -3.487494e+00 -3.400230e+00 -4.424859e+00 -1.093780e+01 -6.913984e-01 -1.251190e+00 3.614907e-02 -7.161473e-01 -1.087759e+00 -1.592579e+00 -5.517368e-01 7.798522e-01 -1.627094e-01 -2.320176e-01 3.393736e-01 4.795348e-01 1.878675e+00 6.449279e-01 -1.378645e+00 -2.710754e-01 -2.069194e+00 -2.016521e+00 -1.283397e+00 -1.028327e+00 2.252846e-01 -5.209576e-01 4.969483e-01 4.559814e-01 3.773605e-01 2.405964e+00
<VARIANCE> 39
 5.860571e+01 3.931297e+01 4.597848e+01 6.667611e+01 6.621379e+01 9.526434e+01 8.693453e+01 8.054846e+01 6.280862e+01 6.625856e+01 6.150634e+01 7.556303e+01 3.696598e+01 6.709036e+00 4.174316e+00 6.709175e+00 6.237808e+00 7.236390e+00 7.237987e+00 9.415833e+00 6.909723e+00 7.213798e+00 7.350766e+00 6.359799e+00 6.693227e+00 3.780834e+00 1.321925e+00 1.227090e+00 3.773210e+00 3.354457e+00 2.335827e+00 2.616226e+00 2.074907e+00 2.187109e+00 2.390525e+00 2.213842e+00 2.029705e+00 1.553751e+00 1.137747e+00
<GCONST> 1.589794e+02
<MIXTURE> 10 6.213057e-02
<MEAN> 39
 8.406150e+00 1.298013e+01 1.036660e+01 1.409677e+01 6.057587e+00 -2.300435e+00 -6.296904e+00 -1.006955e+01 -7.469292e+00 -1.006016e+01 -9.900337e+00 -1.321536e+01 -1.055311e+01 -4.839078e-01 -1.601171e-01 1.148906e+00 -1.153464e-01 -9.162907e-01 -2.498034e-01 -7.405306e-02 -8.512739e-02 -7.587858e-01 -3.750740e-01 1.817700e-01 -4.672900e-01 9.075764e-01 3.958148e-01 -1.646503e+00 -6.521348e-01 -3.282874e+00 -1.965489e+00 -8.196108e-01 -4.146776e-01 1.050318e+00 5.750368e-01 1.432110e+00 5.559482e-01 1.352304e+00 2.874935e+00
<VARIANCE> 39
 5.232160e+01 4.487498e+01 5.373655e+01 6.550980e+01 6.742702e+01 6.823904e+01 9.205012e+01 9.082634e+01 1.116537e+02 1.046971e+02 7.965035e+01 7.889766e+01 3.161755e+01 8.699020e+00 5.994774e+00 9.453544e+00 9.529993e+00 9.294102e+00 9.987833e+00 9.944329e+00 1.036860e+01 6.610498e+00 7.757946e+00 6.755489e+00 6.499204e+00 9.956166e+00 1.497485e+00 2.025736e+00 4.938086e+00 2.284956e+00 3.227391e+00 2.408657e+00 2.617293e+00 2.831054e+00 3.049845e+00 2.414842e+00 2.153814e+00 2.033472e+00 1.145518e+00
<GCONST> 1.654713e+02
<MIXTURE> 11 7.277291e-02
<MEAN> 39
 1.924447e+01 1.908985e+00 5.403956e-01 -3.437089e+00 -2.184034e+00 -1.075539e+01 -1.361139e+01 -4.125392e+00 -3.263660e+00 4.978972e+00 2.077202e-02 -5.567207e+00 9.442842e+00 -4.333623e-01 1.626797e-01 1.597189e+00 -6.008108e-02 -1.058214e+00 -5.648648e-01 2.857576e-01 3.650665e-01 -7.678465e-01 -5.137403e-01 -5.837995e-02 3.814660e-01 -8.815685e-02 -5.920855e-01 -9.439077e-01 4.806260e-01 -1.186490e+00 -1.290057e+00 -3.164850e-01 8.857725e-01 1.011333e+00 -3.218145e-01 -2.315134e-01 -2.601034e-01 1.512293e-01 1.519732e+00
<VARIANCE> 39
 3.111351e+01 1.143440e+02 1.330633e+02 1.862074e+02 1.012117e+02 1.475818e+02 1.304357e+02 1.267900e+02 1.223165e+02 1.288101e+02 1.334534e+02 1.016160e+02 7.994231e+01 1.493544e+00 2.973612e+00 9.072164e+00 7.576028e+00 5.728119e+00 8.536597e+00 6.073198e+00 7.770278e+00 7.963032e+00 7.455756e+00 5.635111e+00 5.766628e+00 2.347268e+00 4.999703e-01 8.021734e-01 1.628972e+00 1.885120e+00 1.990443e+00 2.218274e+00 1.806882e+00 2.546227e+00 1.992058e+00 1.726414e+00 2.016788e+00 1.409269e+00 5.344099e-01
<GCONST> 1.596140e+02
<MIXTURE> 12 5.638380e-02
<MEAN> 39
 1.937281e+01 7.186918e+00 -1.257878e-02 2.194239e+00 5.757986e+00 3.856016e+00 -9.711408e+00 -2.074508e+01 -1.912728e+01 -1.112785e+00 5.166705e+00 -5.615639e+00 1.260203e+00 -6.443825e-02 -2.089870e+00 -2.144590e+00 -3.602846e+00 -8.095128e-01 -6.853465e-01 -6.087582e-01 3.813389e+00 4.774498e+00 1.983783e+00 -8.855296e-01 -9.646676e-01 2.311114e+00 -2.411555e-01 -2.038720e+00 -8.246309e-01 -1.457035e+00 -1.160545e+00 -9.919746e-01 -2.628910e-01 1.776682e+00 1.980036e+00 6.467142e-01 -1.071792e+00 -1.159911e-01 2.446892e+00
<VARIANCE> 39
 2.550578e+01 6.198053e+01 1.080229e+02 2.484010e+02 9.596608e+01 8.481393e+01 1.780741e+02 2.908076e+02 1.457133e+02 1.989472e+02 1.672852e+02 1.777939e+02 3.755745e+01 2.464711e+00 7.245317e+00 8.098456e+00 2.775755e+01 1.088999e+01 1.137603e+01 2.389969e+01 3.381103e+01 1.724494e+01 1.653287e+01 1.107324e+01 1.373202e+01 6.934081e+00 5.197330e-01 1.111131e+00 2.624197e+00 4.340745e+00 4.365113e+00 2.833943e+00 2.719463e+00 5.269011e+00 2.390625e+00 2.532479e+00 2.924950e+00 4.218973e+00 9.136994e-01
<GCONST> 1.770104e+02
<MIXTURE> 13 5.473845e-02
<MEAN> 39
 1.678818e+01 1.292602e+01 3.577790e+00 8.280700e+00 4.163990e+00 5.850411e+00 -1.838583e+00 -1.854054e+01 -1.896713e+01 -3.325522e+00 3.634706e+00 -4.185686e+00 -1.716470e+00 -8.196539e-01 -5.629885e-02 -4.926616e-01 -2.180761e+00 2.228943e-01 -5.564348e-01 -2.646027e-01 2.434297e+00 3.505069e+00 3.447351e-01 -6.455614e-01 1.179542e+00 1.860083e-01 2.269478e-01 -2.011531e+00 -1.038156e+00 -2.316120e+00 -1.076700e+00 -9.110177e-01 -9.352138e-01 1.508681e+00 1.727130e+00 1.052516e+00 -1.639801e-01 -2.826464e-01 2.446600e+00
<VARIANCE> 39
 3.452403e+01 5.845950e+01 5.757874e+01 1.560401e+02 1.193929e+02 8.078687e+01 1.771337e+02 1.470108e+02 1.517522e+02 1.383717e+02 1.543395e+02 1.225818e+02 3.598415e+01 4.081533e+00 6.667865e+00 8.069788e+00 1.502317e+01 1.095886e+01 1.224588e+01 1.689548e+01 1.536311e+01 1.713780e+01 1.206350e+01 1.379775e+01 9.575628e+00 5.321342e+00 8.225773e-01 1.108296e+00 2.394416e+00 2.874663e+00 2.492290e+00 2.390774e+00 2.210249e+00 3.335042e+00 2.853435e+00 2.155208e+00 3.056889e+00 2.347325e+00 9.429020e-01
<GCONST> 1.709094e+02
<MIXTURE> 14 6.561061e-02
<MEAN> 39
 1.263084e+01 1.683495e+01 1.144181e+01 1.435772e+01 5.626926e+00 7.090280e-02 -6.972341e+00 -1.524629e+01 -7.421443e+00 -5.092247e+00 -3.667330e-02 -3.117386e+00 -9.501001e+00 -1.830436e+00 -2.058291e-01 1.049927e+00 8.343165e-01 1.104365e+00 8.580885e-01 1.277690e+00 1.360817e+00 7.375036e-01 -1.363339e+00 -6.693420e-01 -1.537686e-01 -7.867839e-01 2.176128e-02 -1.542701e+00 -6.303945e-03 -1.691829e+00 -1.460535e+00 -1.004912e+00 -2.997359e-01 1.136124e+00 2.197485e-01 1.057517e+00 -1.770805e-01 -1.835905e-01 2.042179e+00
<VARIANCE> 39
 2.089586e+01 2.166076e+01 3.887203e+01 4.409742e+01 6.667901e+01 9.555617e+01 9.190261e+01 7.256141e+01 5.949780e+01 5.977769e+01 6.488357e+01 7.337437e+01 1.915007e+01 2.935012e+00 3.899999e+00 3.429587e+00 5.027166e+00 6.493183e+00 7.042028e+00 6.376914e+00 8.169295e+00 8.563024e+00 6.330428e+00 5.605430e+00 8.039761e+00 2.524051e+00 3.522443e-01 6.275754e-01 2.474413e+00 1.888636e+00 1.773556e+00 2.246890e+00 1.918865e+00 1.560468e+00 1.867770e+00 1.803990e+00 1.548199e+00 1.343917e+00 5.411274e-01
<GCONST> 1.480334e+02
<MIXTURE> 15 5.028657e-02
<MEAN> 39
 1.329467e+01 1.679008e+01 1.469406e+01 1.626376e+01 1.075042e+01 7.089741e+00 -9.441648e-01 -9.628015e+00 -4.581742e+00 -3.546815e+00 -2.442484e+00 -6.664377e+00 -9.897498e+00 -1.463831e+00 7.704267e-01 1.371205e+00 8.815357e-01 1.260039e+00 1.991097e+00 1.609724e+00 3.080378e-01 6.387206e-01 -1.863372e+00 -8.524809e-01 -2.094528e-01 -1.917369e+00 -1.792614e-01 -1.450903e+00 -4.256810e-01 -1.128530e+00 -1.439202e+00 -1.944851e+00 -8.519012e-01 5.549265e-01 -3.322912e-01 6.593353e-01 3.058845e-01 4.225237e-01 2.015316e+00
<VARIANCE> 39
 2.155491e+01 1.900718e+01 3.658422e+01 5.351218e+01 4.298584e+01 8.006473e+01 8.581931e+01 6.941721e+01 1.014405e+02 8.425517e+01 6.638427e+01 7.143237e+01 2.026847e+01 2.268994e+00 3.649777e+00 3.428031e+00 6.738214e+00 6.534363e+00 7.069165e+00 8.461206e+00 8.464594e+00 1.051941e+01 9.039733e+00 9.398557e+00 7.527498e+00 2.322249e+00 3.254896e-01 4.865410e-01 1.504070e+00 1.946806e+00 1.600228e+00 1.774637e+00 1.426806e+00 1.925178e+00 2.395090e+00 1.702521e+00 1.409598e+00 1.276305e+00 6.397662e-01
<GCONST> 1.484812e+02
<MIXTURE> 16 4.148766e-02
<MEAN> 39
 1.613165e+01 6.026874e+00 2.326967e+00 6.560793e+00 -1.787516e-01 -1.478020e+01 -2.034366e+01 -1.795124e+01 -5.552788e+00 1.248687e+00 -1.072407e+01 -1.692009e+01 2.432163e+00 -7.110906e-01 -7.651142e-01 1.287079e+00 -2.092746e+00 -9.491539e-01 -3.730149e-01 1.114696e+00 1.754261e+00 -7.332733e-01 3.926278e-01 -2.055983e-01 5.218730e-02 6.440068e-01 -6.645123e-01 -1.849118e+00 3.849366e-01 -3.169198e+00 -1.439011e+00 -3.957542e-01 2.204019e+00 1.614300e+00 6.316186e-02 -1.630000e-01 9.573983e-03 1.509227e+00 2.469283e+00
<VARIANCE> 39
 2.366879e+01 7.042834e+01 8.416868e+01 1.321945e+02 1.009530e+02 1.322226e+02 9.699229e+01 2.756353e+02 1.097684e+02 1.206625e+02 9.514812e+01 1.067442e+02 4.083883e+01 2.445240e+00 6.124080e+00 9.741014e+00 1.474541e+01 1.027047e+01 1.691382e+01 1.041686e+01 2.023535e+01 7.676375e+00 1.116172e+01 1.028270e+01 9.893690e+00 6.472683e+00 6.265715e-01 1.278918e+00 2.871755e+00 1.568923e+00 3.168824e+00 2.208409e+00 2.597666e+00 4.106074e+00 3.242667e+00 3.408010e+00 2.756346e+00 1.850844e+00 6.977772e-01
<GCONST> 1.689241e+02
<STATE> 4
<NUMMIXES> 16
<MIXTURE> 1 4.258377e-02
<MEAN> 39
 9.223334e+00 1.677295e+01 1.531185e+01 1.720335e+01 1.307842e+01 1.401444e+01 7.224117e+00 -8.195565e+00 -4.943441e+00 -6.796897e+00 -4.633018e+00 -2.363959e+00 -1.192581e+01 8.148722e-02 -3.178305e+00 -3.781060e+00 -5.347795e+00 -1.606702e+00 -3.274198e+00 -1.872101e+00 2.955796e+00 2.454161e+00 2.465970e+00 2.077594e+00 7.738104e-01 4.902740e+00 9.671205e-01 -1.645472e+00 -1.939858e+00 -2.789627e+00 -1.669019e+00 -1.883039e+00 -1.077455e+00 6.573317e-01 -2.406391e-01 1.495222e+00 1.138472e+00 -1.904428e-01 2.949874e+00
<VARIANCE> 39
 5.185671e+01 3.647439e+01 4.266187e+01 5.312431e+01 7.900465e+01 5.317096e+01 6.618117e+01 7.961083e+01 7.394259e+01 6.370314e+01 8.160801e+01 7.210480e+01 3.643576e+01 5.719059e+00 4.269295e+00 9.210973e+00 1.395853e+01 1.261324e+01 1.599461e+01 1.365039e+01 1.328692e+01 1.402816e+01 1.184944e+01 1.349154e+01 8.975418e+00 8.269502e+00 1.159860e+00 1.222133e+00 2.808406e+00 4.267650e+00 3.031811e+00 5.428177e+00 1.535162e+00 4.135804e+00 2.642843e+00 2.715565e+00 3.055518e+00 2.961502e+00 1.025021e+00
<GCONST> 1.668555e+02
<MIXTURE> 2 6.685919e-02
<MEAN> 39
 1.229253e+01 4.081675e+00 5.684045e-02 -1.498680e+00 -3.351316e-01 -9.526465e+00 -4.224180e+00 2.415984e+00 4.468228e-01 8.205972e-01 2.354691e+00 3.104492e+00 1.044000e+01 2.621592e+00 -4.640361e+00 -2.656919e+00 -8.177445e+00 -6.125436e+00 -3.271288e+00 -1.279456e+00 3.755938e+00 3.036165e-01 2.308438e+00 2.697299e+00 1.422593e+00 7.305883e+00 1.749244e-01 2.194858e-01 7.500923e-01 5.212563e-02 -3.155770e-01 1.327407e+00 1.559051e-01 -9.618440e-01 -7.369571e-01 -1.902046e-02 -1.477283e-01 -7.611702e-01 -4.728496e-01
<VARIANCE> 39
 5.271914e+01 4.449654e+01 1.064748e+02 1.672539e+02 9.632372e+01 1.699626e+02 1.062762e+02 1.020340e+02 9.467391e+01 7.440807e+01 7.505694e+01 5.485938e+01 4.233901e+01 8.184181e+00 1.228435e+01 2.317840e+01 3.715956e+01 2.259774e+01 3.361811e+01 2.521298e+01 2.710073e+01 2.716390e+01 2.281577e+01 1.315996e+01 2.000365e+01 8.003941e+00 9.810642e-01 1.314531e+00 1.315108e+00 2.590018e+00 2.274076e+00 2.220906e+00 2.613677e+00 2.707855e+00 2.049491e+00 1.738377e+00 2.154176e+00 1.839233e+00 9.679455e-01
<GCONST> 1.754306e+02
<MIXTURE> 3 7.396518e-02
<MEAN> 39
 2.021707e+01 -1.659931e-01 -1.312250e+00 -5.593946e+00 -1.924659e+00 -1.338447e+01 -1.292750e+01 -1.790520e+00 8.909988e-02 6.551882e+00 1.187172e+00 -2.034257e+00 1.244134e+01 -6.140434e-01 -2.049157e+00 1.248404e+00 -1.371144e+00 -3.511081e+00 -3.028745e+00 6.967238e-01 3.594513e+00 9.150600e-01 -6.821581e-01 -8.344288e-01 8.624266e-01 2.891635e+00 -4.552749e-01 -2.920277e-01 3.919805e-01 -2.965475e-01 -8.797571e-01 2.676319e-01 9.655537e-01 4.119853e-01 -5.616670e-01 -3.400595e-01 2.265861e-01 1.596255e-01 5.952282e-01
<VARIANCE> 39
 2.928532e+01 1.022654e+02 1.224877e+02 2.015349e+02 1.067924e+02 2.269219e+02 1.482773e+02 1.387834e+02 1.468255e+02 1.405451e+02 1.430111e+02 9.101689e+01 6.207405e+01 2.386328e+00 7.193103e+00 9.627470e+00 1.370935e+01 1.326331e+01 1.525511e+01 1.480105e+01 1.327529e+01 2.115654e+01 1.056085e+01 9.968842e+00 9.526809e+00 4.575938e+00 2.720372e-01 7.433666e-01 7.316747e-01 1.428819e+00 1.692723e+00 1.501036e+00 1.641002e+00 1.919973e+00 1.725109e+00 1.710859e+00 1.649287e+00 1.192328e+00 5.181130e-01
<GCONST> 1.647871e+02
<MIXTURE> 4 5.964516e-02
<MEAN> 39
 1.180473e+01 1.641594e+01 1.380545e+01 1.653166e+01 1.172816e+01 2.504251e+00 -7.222467e+00 -1.196286e+01 -2.819350e+00 -2.408993e+00 -1.259159e+00 -6.202379e+00 -7.088844e+00 -9.197943e-01 -5.208540e+00 4.800713e-01 -2.824436e+00 -4.933044e+00 -6.337500e+00 -2.440188e-01 6.430673e+00 6.252688e-01 7.550643e-01 8.394688e-01 2.880915e+00 6.002672e+00 1.741349e-01 -1.572839e+00 4.072438e-01 -1.476288e+00 -3.124094e+00 -1.573658e+00 9.202547e-02 1.009012e+00 -1.215716e+00 6.373833e-01 3.384772e-01 6.307653e-01 2.390585e+00
<VARIANCE> 39
 2.760457e+01 3.041444e+01 3.927073e+01 4.046484e+01 5.873737e+01 1.007914e+02 1.027761e+02 9.734041e+01 8.747332e+01 9.178528e+01 9.466626e+01 8.934147e+01 3.550187e+01 4.262587e+00 4.106452e+00 1.287439e+01 1.401425e+01 1.700420e+01 2.435675e+01 2.717085e+01 2.016681e+01 2.345998e+01 1.929403e+01 1.091816e+01 1.042300e+01 6.895775e+00 7.079816e-01 1.244630e+00 1.879654e+00 2.384725e+00 2.769125e+00 2.914956e+00 3.463264e+00 3.606013e+00 3.655020e+00 2.985142e+00 2.043500e+00 2.400702e+00 9.800611e-01
<GCONST> 1.683986e+02
<MIXTURE> 5 7.919593e-02
<MEAN> 39
 2.026956e+01 -2.960207e+00 -1.095347e+01 -1.720829e+01 -1.280483e+00 -9.229217e-01 -6.019928e+00 -5.839051e+00 1.242963e+00 1.444909e+01 8.820564e+00 -4.444365e+00 1.888966e+01 7.557886e-01 -6.941051e+00 -4.856115e+00 -5.413358e+00 -2.463521e+00 -2.853663e+00 -6.130389e-01 4.331758e+00 4.743542e+00 3.850758e+00 -8.467726e-01 -2.804538e+00 7.410281e+00 -6.809089e-01 3.643259e-01 1.260140e+00 2.451636e+00 4.649033e-01 4.538603e-01 6.868355e-01 1.656094e-01 -7.868244e-01 -1.968708e+00 -1.448932e+00 -3.987155e-01 -9.893457e-01
<VARIANCE> 39
 2.947714e+01 7.064999e+01 8.227042e+01 1.953950e+02 1.001531e+02 2.466790e+02 1.440775e+02 1.495079e+02 1.531677e+02 1.361796e+02 1.969896e+02 8.960471e+01 5.683348e+01 6.133729e+00 8.269670e+00 1.851583e+01 2.814951e+01 2.311086e+01 3.170859e+01 2.420255e+01 2.343607e+01 2.234127e+01 2.348037e+01 2.577375e+01 2.443515e+01 8.821053e+00 5.478983e-01 1.473041e+00 1.426465e+00 2.531081e+00 2.583156e+00 2.720269e+00 2.964481e+00 3.330445e+00 3.761712e+00 3.022952e+00 3.497810e+00 2.770963e+00 1.457107e+00
<GCONST> 1.812535e+02
<MIXTURE> 6 2.998394e-02
<MEAN> 39
 1.888573e+01 2.674968e+00 -5.402710e+00 -4.244813e+00 3.716722e+00 -3.435772e+00 -1.426707e+01 -9.894394e+00 6.554307e-01 8.014799e+00 -5.150571e+00 -1.644178e+01 5.299832e+00 2.233490e-01 -7.546745e+00 -5.153323e+00 -9.151390e+00 -7.042529e-01 1.589290e-01 3.870795e+00 7.484744e+00 4.029786e+00 -2.190035e-01 -4.098308e+00 8.119007e-01 7.599401e+00 -6.633190e-01 -1.455893e+00 -9.607586e-02 9.893546e-02 -1.024585e-02 -2.079595e-01 8.896286e-01 2.867339e-01 -4.544649e-01 -1.167285e+00 -6.406987e-01 1.414762e+00 1.538565e+00
<VARIANCE> 39
 2.360615e+01 6.483337e+01 9.785426e+01 1.619111e+02 7.670985e+01 9.498623e+01 9.392532e+01 1.476480e+02 1.324732e+02 1.046014e+02 8.763634e+01 7.567443e+01 4.500657e+01 4.520749e+00 1.252100e+01 2.230009e+01 2.107398e+01 1.946474e+01 1.778701e+01 2.272855e+01 3.145012e+01 1.825764e+01 1.614286e+01 1.327262e+01 1.356112e+01 9.139083e+00 3.928372e-01 1.008123e+00 1.501947e+00 2.501530e+00 1.919559e+00 1.853039e+00 2.393655e+00 3.661673e+00 2.577878e+00 2.679072e+00 1.734943e+00 1.651114e+00 7.088650e-01
<GCONST> 1.714323e+02
<MIXTURE> 7 8.717015e-02
<MEAN> 39
 6.628226e+00 9.987190e+00 1.469390e+01 1.643867e+01 3.954345e+00 -5.726919e+00 -5.123484e+00 -1.948104e+00 -2.451493e+00 -3.153776e+00 1.154076e-01 -3.701963e+00 -2.086930e+00 -1.535251e+00 -3.350861e+00 5.479079e+00 -4.796475e+00 -6.448764e+00 -2.844634e+00 -1.377328e-01 7.438393e-01 -2.094548e+00 1.616350e+00 5.340000e-01 2.041978e+00 5.674015e+00 4.033888e-01 1.327054e-01 1.059174e+00 -2.376314e+00 -1.855754e+00 -3.014845e-02 -4.916489e-01 -1.191895e+00 -6.459327e-01 8.210967e-01 -3.656298e-01 3.453713e-01 1.210399e+00
<VARIANCE> 39
 5.628540e+01 6.634498e+01 5.819309e+01 5.422240e+01 1.054193e+02 1.010878e+02 7.182118e+01 9.305699e+01 6.600156e+01 5.495217e+01 6.313486e+01 6.794572e+01 6.053736e+01 5.479094e+00 6.398759e+00 1.071643e+01 2.030842e+01 1.275537e+01 1.537413e+01 1.833784e+01 1.937844e+01 1.831696e+01 1.811332e+01 9.219531e+00 1.001248e+01 5.646619e+00 9.671174e-01 1.700054e+00 1.771502e+00 2.358393e+00 2.387262e+00 2.255428e+00 2.122912e+00 2.452254e+00 2.472431e+00 1.908119e+00 1.668124e+00 1.829134e+00 1.007694e+00
<GCONST> 1.667912e+02
<MIXTURE> 8 6.012547e-02
<MEAN> 39
 7.680398e+00 1.159653e+01 3.248998e+00 5.509992e+00 6.466703e+00 5.288985e+00 3.055574e+00 -4.128926e+00 -4.184983e+00 -3.081469e+00 -5.363070e-01 -1.264889e+00 -3.535710e+00 2.563513e+00 -3.189579e+00 -5.158506e+00 -8.354204e+00 -2.548775e+00 -1.329409e+00 -1.313799e+00 2.144308e+00 2.236062e+00 3.388505e+00 2.054503e+00 1.139180e+00 6.009376e+00 1.214471e+00 -1.165819e+00 -9.426716e-01 -2.051367e+00 -7.772282e-01 2.805016e-02 -6.193194e-01 -3.037522e-01 3.120513e-02 6.097006e-01 2.445140e-02 -3.679719e-01 1.747948e+00
<VARIANCE> 39
 1.118062e+02 5.647787e+01 6.428144e+01 9.847850e+01 7.437003e+01 6.245257e+01 8.536411e+01 1.070700e+02 1.302747e+02 8.430177e+01 8.077586e+01 8.212244e+01 7.056048e+01 7.882111e+00 9.071450e+00 8.499841e+00 2.451243e+01 1.192626e+01 1.533558e+01 1.741829e+01 1.861149e+01 2.047370e+01 1.938107e+01 1.412417e+01 1.597506e+01 8.965816e+00 1.997925e+00 2.269070e+00 1.833632e+00 2.922500e+00 2.369837e+00 2.620790e+00 1.955497e+00 3.592628e+00 3.068959e+00 2.267292e+00 2.705749e+00 2.822318e+00 1.532444e+00
<GCONST> 1.746659e+02
<MIXTURE> 9 7.677826e-02
<MEAN> 39
 1.109044e+01 2.343585e+00 4.967403e+00 1.991567e+00 -1.915036e+00 -1.284721e+01 -7.860112e+00 2.035404e+00 -1.680067e+00 -3.200122e-01 1.842218e-01 1.696125e+00 1.150911e+01 1.169722e+00 -4.875425e+00 -4.866054e-01 -7.375935e+00 -8.033920e+00 -4.006651e+00 -8.333035e-01 3.325321e+00 -7.522396e-02 1.662899e+00 1.974072e+00 2.307157e+00 7.862477e+00 1.701508e-01 4.608051e-01 5.887864e-01 -2.543151e-01 -6.865622e-01 1.342001e+00 5.252969e-01 -1.233394e+00 -7.605284e-01 -3.569162e-02 -4.642864e-02 -6.591196e-01 -3.755781e-01
<VARIANCE> 39
 5.112534e+01 5.461182e+01 1.357882e+02 1.790929e+02 1.093975e+02 1.887550e+02 1.229006e+02 1.086393e+02 1.078373e+02 7.786941e+01 7.789259e+01 5.612290e+01 4.610495e+01 9.006024e+00 1.215563e+01 3.080722e+01 3.760136e+01 2.841311e+01 2.979996e+01 3.106996e+01 2.943726e+01 3.248011e+01 2.330622e+01 1.719378e+01 1.943382e+01 8.623732e+00 8.986856e-01 1.381352e+00 1.614815e+00 2.346708e+00 2.659403e+00 2.652023e+00 3.662024e+00 3.367172e+00 2.165443e+00 1.885905e+00 2.260912e+00 1.828979e+00 9.364264e-01
<GCONST> 1.790757e+02
<MIXTURE> 10 8.314817e-02
<MEAN> 39
 1.929651e+01 -8.273603e+00 -1.336329e+01 -1.858668e+01 8.860801e-01 1.717171e+00 -7.774821e+00 -1.984777e+00 5.065322e+00 1.117525e+01 -1.063848e+00 -1.082642e+01 2.039835e+01 1.457632e-01 -8.905023e+00 -5.834253e+00 -7.003245e+00 -1.984352e+00 -6.226674e-01 1.002039e+00 5.849717e+00 4.464067e+00 1.230054e+00 -3.355724e+00 -7.175230e-01 9.172256e+00 -7.342845e-01 5.006149e-01 1.242684e+00 2.719434e+00 3.276161e-01 3.853661e-03 3.658119e-01 -1.002916e+00 -1.594580e+00 -1.719476e+00 -5.521289e-01 4.407889e-01 -8.356660e-01
<VARIANCE> 39
 3.131224e+01 8.605765e+01 9.313947e+01 1.733208e+02 9.564877e+01 2.007575e+02 1.299951e+02 1.343748e+02 1.167815e+02 1.018231e+02 2.200216e+02 8.985619e+01 6.448109e+01 6.868259e+00 9.942226e+00 1.944604e+01 2.460823e+01 2.617783e+01 2.361639e+01 2.469788e+01 2.362115e+01 1.884738e+01 2.064564e+01 2.233042e+01 2.934073e+01 9.015292e+00 6.034908e-01 1.623798e+00 1.362152e+00 2.677637e+00 2.270070e+00 2.425006e+00 3.010316e+00 3.796425e+00 2.698741e+00 2.560631e+00 2.964823e+00 2.768540e+00 1.389603e+00
<GCONST> 1.799588e+02
<MIXTURE> 11 8.581059e-02
<MEAN> 39
 1.019313e+01 9.905802e+00 1.496797e+01 1.238560e+01 -2.526890e+00 -9.301502e+00 -8.765767e+00 -6.602485e+00 -7.453375e+00 -5.279418e+00 -1.384718e+00 -6.254793e+00 -1.065161e+00 -2.324440e+00 -3.161529e+00 6.995709e+00 -6.445254e+00 -5.913777e+00 -1.444230e+00 5.876013e-01 2.947261e-01 -2.409530e+00 3.196369e+00 -1.245208e-02 1.998111e+00 5.103051e+00 -1.860052e-01 2.133699e-02 9.418459e-01 -2.663455e+00 -1.240328e+00 5.141504e-02 -3.480634e-01 -7.593250e-01 -1.869556e-01 1.197808e+00 -7.370833e-01 1.995904e-01 1.306772e+00
<VARIANCE> 39
 4.759258e+01 5.545462e+01 6.461253e+01 7.196497e+01 1.144223e+02 9.212530e+01 7.731138e+01 8.724337e+01 6.256599e+01 5.950156e+01 7.719117e+01 7.119210e+01 5.679105e+01 4.525875e+00 5.253597e+00 9.445936e+00 1.730543e+01 1.243438e+01 1.518349e+01 1.391303e+01 1.671696e+01 1.448627e+01 1.282423e+01 1.073205e+01 8.903195e+00 5.242810e+00 8.440763e-01 1.179897e+00 1.592157e+00 1.915378e+00 2.594702e+00 2.525286e+00 2.146086e+00 1.971700e+00 2.029254e+00 1.650344e+00 1.730033e+00 1.679383e+00 8.917136e-01
<GCONST> 1.639431e+02
<MIXTURE> 12 6.373029e-02
<MEAN> 39
 1.359589e+01 1.480193e+01 9.872836e+00 1.538284e+01 9.083306e+00 -2.267142e+00 -1.460199e+01 -1.631112e+01 -5.643478e+00 -1.473871e+00 -1.850645e+00 -1.144051e+01 -7.026985e+00 -4.225826e-01 -5.882441e+00 -1.415101e+00 -5.590269e+00 -3.954711e+00 -2.730826e+00 2.415987e+00 7.323271e+00 2.915406e+00 9.525428e-01 -1.201214e-01 2.498071e+00 6.297852e+00 5.784610e-02 -2.333571e+00 -3.741609e-01 -2.133515e+00 -2.498662e+00 -9.348719e-01 8.730977e-01 1.131365e+00 -2.535309e-01 4.545252e-01 -5.779736e-01 9.125034e-01 2.877126e+00
<VARIANCE> 39
 3.009047e+01 2.993650e+01 4.723752e+01 5.006664e+01 6.090539e+01 9.008474e+01 9.323763e+01 1.224574e+02 8.474229e+01 9.454332e+01 1.460576e+02 9.916568e+01 3.644635e+01 3.810205e+00 5.509848e+00 2.068043e+01 1.814595e+01 1.940977e+01 2.018089e+01 3.000962e+01 2.343026e+01 1.819751e+01 1.314696e+01 1.673914e+01 1.360723e+01 5.972842e+00 9.355204e-01 1.678458e+00 3.571579e+00 3.000351e+00 3.673214e+00 2.887274e+00 2.857586e+00 4.105509e+00 2.419767e+00 2.413327e+00 2.758127e+00 2.745775e+00 1.190171e+00
<GCONST> 1.721683e+02
<MIXTURE> 13 6.475178e-02
<MEAN> 39
 1.159264e+01 1.254242e+01 2.846077e+00 5.099977e+00 6.619628e+00 4.507674e+00 -2.522794e+00 -9.892698e+00 -6.109165e+00 -3.057553e+00 7.512662e-01 -6.113772e+00 -3.540736e+00 2.308595e+00 -4.456422e+00 -6.415698e+00 -9.508271e+00 -2.746804e+00 -4.117126e-01 -5.642778e-01 3.373533e+00 3.173385e+00 2.906215e+00 1.792848e-01 2.198240e-01 6.539267e+00 7.524452e-01 -1.762829e+00 -1.227642e+00 -2.064299e+00 -5.206676e-01 1.243255e-01 -3.137457e-01 3.846281e-01 8.665091e-02 3.936948e-01 -6.145480e-01 -7.797974e-02 1.939390e+00
<VARIANCE> 39
 6.834371e+01 3.978164e+01 7.685990e+01 1.142117e+02 8.034551e+01 6.241309e+01 7.582639e+01 1.116676e+02 9.667380e+01 8.115210e+01 9.787805e+01 7.726038e+01 5.293290e+01 6.225902e+00 1.392789e+01 7.762667e+00 1.916275e+01 1.059637e+01 1.515852e+01 1.539423e+01 1.802610e+01 2.132741e+01 1.620914e+01 1.703443e+01 1.616300e+01 8.526818e+00 1.243629e+00 2.725977e+00 1.901239e+00 3.253144e+00 2.403231e+00 2.474150e+00 1.851894e+00 2.717619e+00 2.477029e+00 2.304693e+00 2.689678e+00 2.894447e+00 1.713289e+00
<GCONST> 1.726477e+02
<MIXTURE> 14 4.356129e-02
<MEAN> 39
 1.042341e+01 1.708876e+01 1.332309e+01 1.415937e+01 1.125692e+01 1.078711e+01 4.560822e+00 -9.407255e+00 -7.078570e+00 -7.182286e+00 -4.616559e+00 -4.416511e+00 -1.096959e+01 5.819770e-01 -3.363810e+00 -4.657156e+00 -6.180979e+00 -2.179102e+00 -2.409202e+00 -2.013294e+00 2.419259e+00 2.317899e+00 2.623132e+00 1.908956e+00 5.657100e-01 5.671160e+00 8.932351e-01 -1.940212e+00 -2.140825e+00 -2.764107e+00 -1.657499e+00 -8.982361e-01 -8.408671e-01 6.059034e-01 1.990905e-01 1.273051e+00 8.937466e-01 -8.811528e-02 2.815989e+00
<VARIANCE> 39
 4.761481e+01 3.545810e+01 4.121318e+01 5.726601e+01 7.657513e+01 6.342565e+01 8.142012e+01 7.377963e+01 7.575898e+01 7.227349e+01 8.942476e+01 7.668984e+01 3.842490e+01 3.931197e+00 5.185846e+00 7.694108e+00 1.404299e+01 9.969391e+00 1.433498e+01 1.379387e+01 1.212931e+01 1.186456e+01 1.108653e+01 1.061519e+01 1.081194e+01 7.421273e+00 9.796776e-01 1.740457e+00 2.085296e+00 3.932281e+00 2.377717e+00 3.957490e+00 1.793095e+00 2.874660e+00 2.849094e+00 2.783413e+00 3.532931e+00 3.185450e+00 1.307368e+00
<GCONST> 1.658388e+02
<MIXTURE> 15 5.856312e-02
<MEAN> 39
 1.838571e+01 -1.674542e+00 2.051507e+00 -4.378418e+00 -2.985428e+00 -1.336471e+01 -1.693339e+01 -3.343234e+00 -3.640018e+00 4.431204e+00 -1.650067e+00 -4.855283e+00 1.230619e+01 -1.086845e+00 -2.053272e+00 2.225218e+00 -1.740052e+00 -4.091147e+00 -3.025968e+00 8.179839e-01 3.335217e+00 2.017199e-01 -7.278602e-01 -8.719282e-01 1.114532e+00 3.142166e+00 -5.495231e-01 -1.904163e-01 3.923229e-01 -6.871279e-01 -1.059030e+00 2.517837e-01 1.123174e+00 3.211423e-01 -3.625224e-01 -2.212841e-01 2.519622e-01 2.931117e-01 8.088917e-01
<VARIANCE> 39
 3.240185e+01 9.647866e+01 1.641217e+02 2.000328e+02 1.025504e+02 2.046752e+02 1.526803e+02 1.338352e+02 1.583711e+02 1.595314e+02 1.496861e+02 1.159743e+02 5.908758e+01 2.743418e+00 7.137316e+00 1.133435e+01 1.771281e+01 1.442672e+01 1.847198e+01 1.606646e+01 1.742411e+01 1.993275e+01 1.148265e+01 1.285274e+01 1.008413e+01 5.592036e+00 3.238190e-01 6.886104e-01 8.040886e-01 1.648559e+00 1.838906e+00 1.758321e+00 1.792233e+00 2.346007e+00 1.973044e+00 2.107946e+00 1.930857e+00 1.493063e+00 5.482861e-01
<GCONST> 1.687684e+02
<MIXTURE> 16 2.412728e-02
<MEAN> 39
 1.856058e+01 -6.023669e-01 -4.017038e+00 -6.320365e+00 -2.758554e-01 -7.456179e+00 -1.636577e+01 -1.367770e+01 -2.733016e+00 8.840156e+00 -6.052031e+00 -1.840296e+01 8.031732e+00 -1.108560e+00 -5.554000e+00 -2.049396e+00 -8.498454e+00 -1.730350e+00 5.361374e-01 3.535255e+00 5.384665e+00 2.776106e+00 -3.575009e-01 -3.061868e+00 1.066336e+00 6.613884e+00 -8.397099e-01 -8.813930e-01 -4.758560e-02 -3.673006e-01 2.392568e-02 2.469719e-03 1.185661e+00 5.478033e-01 6.401306e-02 -1.450527e+00 -7.666862e-01 1.482722e+00 1.391294e+00
<VARIANCE> 39
 2.823855e+01 6.508027e+01 1.663335e+02 1.665096e+02 1.264324e+02 1.018074e+02 7.325511e+01 1.785676e+02 1.692351e+02 9.612775e+01 7.415817e+01 8.565017e+01 4.854853e+01 5.865328e+00 1.166359e+01 4.066175e+01 2.704166e+01 1.638068e+01 1.300780e+01 1.521128e+01 3.373312e+01 1.568169e+01 1.893983e+01 1.157623e+01 1.674725e+01 7.769969e+00 2.992031e-01 1.373780e+00 1.491986e+00 3.270103e+00 1.666391e+00 1.730780e+00 1.689737e+00 3.496311e+00 2.738943e+00 1.858698e+00 1.443476e+00 1.684982e+00 6.192602e-01
<GCONST> 1.721102e+02
<TRANSP> 5
 0.000000e+00 1.000000e+00 0.000000e+00 0.000000e+00 0.000000e+00
 0.000000e+00 5.590595e-01 4.409405e-01 0.000000e+00 0.000000e+00
 0.000000e+00 0.000000e+00 4.075782e-01 5.924218e-01 0.000000e+00
 0.000000e+00 0.000000e+00 0.000000e+00 5.254710e-01 4.745290e-01
 0.000000e+00 0.000000e+00 0.000000e+00 0.000000e+00 0.000000e+00
<ENDHMM>
~h "d"
<BEGINHMM>
<NUMSTATES> 5
<STATE> 2
<NUMMIXES> 16
<MIXTURE> 1 6.138254e-02
<MEAN> 39
 1.203818e+01 1.930324e+01 1.688372e+01 1.775920e+01 4.928663e+00 5.697145e-01 -1.599393e+00 -4.226872e+00 1.057094e+00 -4.632731e+00 -6.794178e+00 -5.173461e+00 -1.086587e+01 -4.567249e-01 2.284615e-01 8.393319e-01 9.559553e-01 1.989605e+00 1.850730e+00 1.110718e+00 8.557888e-01 1.438828e+00 1.574234e-01 6.924094e-01 2.387207e-01 -9.868365e-01 -8.185819e-01 -8.170550e-01 -5.783170e-01 -5.975801e-01 -4.761589e-02 -1.474417e-01 6.581936e-02 1.791642e-02 -3.954501e-01 8.399135e-02 3.805327e-01 3.662652e-01 7.791264e-01
<VARIANCE> 39
 2.487573e+01 2.298039e+01 3.590615e+01 5.408844e+01 1.083681e+02 8.949262e+01 7.512070e+01 7.102564e+01 6.895747e+01 8.007557e+01 6.346598e+01 6.407616e+01 2.797272e+01 2.411226e+00 1.986899e+00 2.932734e+00 4.091943e+00 7.310802e+00 7.121284e+00 5.482668e+00 6.313334e+00 6.873186e+00 7.192318e+00 4.735872e+00 7.287436e+00 2.673234e+00 5.684129e-01 5.003053e-01 8.044831e-01 1.107863e+00 1.848141e+00 1.508270e+00 1.159244e+00 1.181026e+00 1.358065e+00 1.418502e+00 1.103584e+00 1.187690e+00 1.276510e+00
<GCONST> 1.447280e+02
<MIXTURE> 2 6.651920e-02
<MEAN> 39
 1.218705e+01 1.372314e+01 7.382781e+00 1.229433e+01 3.616834e+00 -8.688448e+00 -9.297996e+00 -5.042759e+00 1.475239e+00 -1.130569e+00 -4.391533e+00 -4.044864e+00 -2.962294e+00 -1.125189e+00 2.527508e+00 3.223678e+00 4.635987e+00 3.352693e+00 3.265542e+00 2.471653e+00 -4.791526e-01 -6.511269e-01 -7.865689e-01 -3.242052e-01 -5.901548e-01 -5.075043e+00 -5.618027e-01 -1.407560e+00 -6.414747e-01 -1.708058e+00 -1.051511e+00 1.206342e-01 4.138785e-01 7.236573e-01 -3.689125e-02 4.026547e-02 4.425392e-01 2.520508e-01 1.883339e+00
<VARIANCE> 39
 3.474372e+01 4.864918e+01 6.443713e+01 8.883584e+01 1.608565e+02 1.422966e+02 1.080804e+02 1.422520e+02 1.038976e+02 1.272209e+02 1.108266e+02 1.058081e+02 4.334944e+01 5.204497e+00 5.372401e+00 1.042134e+01 1.432430e+01 1.714983e+01 1.614500e+01 1.508233e+01 1.364888e+01 1.331312e+01 1.109961e+01 1.230052e+01 1.302004e+01 1.085530e+01 1.000029e+00 8.296465e-01 1.306021e+00 2.105220e+00 3.419522e+00 3.199035e+00 2.497943e+00 2.682688e+00 1.865810e+00 1.972762e+00 1.787550e+00 1.832067e+00 2.127028e+00
<GCONST> 1.701767e+02
<MIXTURE> 3 8.263918e-02
<MEAN> 39
 1.033239e+01 1.896238e+01 1.698991e+01 1.875481e+01 7.550322e+00 2.741558e+00 -8.023037e-01 -6.282344e+00 -3.401490e-01 -2.233272e+00 -5.154690e+00 -5.726394e+00 -1.044398e+01 -3.142858e+00 -2.618134e+00 -1.541893e+00 -2.338335e+00 1.578117e+00 3.129219e-01 8.097333e-01 2.534203e+00 7.067207e-01 -3.432559e-01 1.845345e+00 2.023386e+00 3.201030e+00 -3.358507e-02 -1.383379e+00 -9.173071e-01 -2.159979e+00 -2.457412e+00 -2.009328e+00 -8.195954e-01 4.498252e-01 -3.210320e-01 6.823729e-01 6.465138e-01 6.227626e-01 3.042944e+00
<VARIANCE> 39
 2.841593e+01 2.891214e+01 4.068810e+01 6.756443e+01 1.089547e+02 1.033383e+02 8.806374e+01 8.313861e+01 8.068283e+01 9.448117e+01 7.449667e+01 8.791897e+01 3.706795e+01 4.335963e+00 5.872676e+00 8.854677e+00 1.319287e+01 1.748016e+01 1.653632e+01 1.606002e+01 1.199701e+01 1.169547e+01 1.311032e+01 1.065595e+01 1.586834e+01 1.006869e+01 7.623070e-01 9.506739e-01 2.019789e+00 1.995054e+00 3.006361e+00 2.887161e+00 2.378623e+00 3.083109e+00 2.856242e+00 2.445064e+00 2.111277e+00 2.480332e+00 8.590233e-01
<GCONST> 1.659442e+02
<MIXTURE> 4 3.150796e-02
<MEAN> 39
 1.248737e+01 5.188799e+00 1.573219e+00 4.098562e+00 -6.966887e+00 -1.577354e+01 -1.273816e+01 -2.738625e+00 3.107129e+00 3.260675e-01 -7.176780e-01 -2.866084e+00 9.656888e+00 1.524248e-01 1.856336e+00 1.205881e+00 1.976971e+00 8.339887e-01 -4.544621e-01 -4.763379e-01 -1.256067e+00 -4.595388e-01 -1.377032e-01 4.163127e-02 5.962591e-01 -1.714888e+00 -1.892256e-01 -4.735709e-01 2.615327e-01 -5.598902e-01 -6.083900e-01 1.638314e-01 5.534913e-01 6.632191e-01 -2.281512e-01 -7.410014e-02 1.029607e-01 1.063706e-01 6.650864e-01
<VARIANCE> 39
 4.534509e+01 6.200676e+01 6.225396e+01 1.304268e+02 1.397626e+02 1.401320e+02 1.468337e+02 1.663093e+02 1.275100e+02 1.289266e+02 1.168499e+02 1.432096e+02 1.556262e+02 3.415928e+00 3.842810e+00 4.734942e+00 6.286011e+00 7.608929e+00 7.260612e+00 7.183517e+00 6.931701e+00 5.441480e+00 5.005997e+00 5.170594e+00 5.002288e+00 5.209147e+00 3.090444e-01 5.634206e-01 4.437734e-01 8.341403e-01 1.393747e+00 1.044574e+00 1.147820e+00 1.317642e+00 1.041039e+00 1.018137e+00 9.429032e-01 1.069521e+00 6.200747e-01
<GCONST> 1.528184e+02
<MIXTURE> 5 6.646232e-02
<MEAN> 39
 1.048623e+01 1.748375e+01 1.209693e+01 1.575412e+01 1.419889e+00 -5.804578e+00 -6.634294e+00 -8.619088e+00 -7.672409e+00 -9.911912e+00 -8.781395e+00 -8.320324e+00 -7.765461e+00 -2.762355e+00 -1.236039e+00 -7.061247e-01 -1.010230e+00 1.397935e+00 1.222536e+00 1.576925e+00 2.118285e+00 1.221015e+00 1.673655e+00 2.874591e+00 2.064943e-01 2.236970e+00 -8.513760e-02 -1.906681e+00 -9.726939e-01 -2.972924e+00 -2.305919e+00 -1.182094e+00 -2.213364e-02 8.649770e-01 8.736837e-01 1.390268e+00 6.078132e-01 1.491579e+00 3.270419e+00
<VARIANCE> 39
 4.152275e+01 3.911349e+01 4.692846e+01 7.049168e+01 1.147233e+02 1.064582e+02 1.008864e+02 1.127123e+02 1.030927e+02 1.167350e+02 1.152692e+02 1.177820e+02 3.944862e+01 5.953654e+00 6.463328e+00 8.809012e+00 1.420620e+01 2.110164e+01 1.915720e+01 1.809370e+01 1.746251e+01 1.390222e+01 1.503380e+01 1.405667e+01 1.585295e+01 1.370224e+01 1.062146e+00 1.146944e+00 1.970625e+00 2.388499e+00 3.650968e+00 2.820675e+00 3.011839e+00 2.977737e+00 2.839958e+00 2.641092e+00 3.103157e+00 2.539744e+00 1.259083e+00
<GCONST> 1.726953e+02
<MIXTURE> 6 7.156673e-02
<MEAN> 39
 8.483020e+00 1.752565e+01 1.514986e+01 1.633101e+01 4.441981e+00 9.277769e-01 -2.439507e+00 -9.357017e+00 -5.759040e+00 -7.991890e+00 -7.420360e+00 -6.229909e+00 -1.250478e+01 2.427952e+00 2.255943e+00 2.043303e+00 1.358334e+00 -5.961029e-02 -4.686098e-01 -3.090502e-01 1.902880e-01 5.834734e-02 -7.613665e-02 -4.335006e-01 -5.926028e-01 1.040352e+00 -1.030543e+00 -1.071227e+00 -9.262353e-01 -6.881987e-01 1.550859e-01 1.971130e-01 4.147955e-01 8.885800e-01 8.202862e-01 5.966629e-01 6.462019e-01 5.436777e-01 3.056986e-01
<VARIANCE> 39
 4.647124e+01 3.267308e+01 3.710250e+01 4.763815e+01 9.864096e+01 1.183906e+02 8.849727e+01 6.709420e+01 6.915421e+01 8.495026e+01 6.967767e+01 7.117300e+01 3.137563e+01 7.490704e+00 5.866354e+00 5.088548e+00 5.163461e+00 7.867301e+00 8.384354e+00 7.562909e+00 7.485114e+00 6.493981e+00 6.689505e+00 6.224492e+00 6.527721e+00 4.085521e+00 1.042660e+00 8.983187e-01 9.269749e-01 1.281786e+00 1.901353e+00 2.138529e+00 1.727923e+00 1.335606e+00 1.250500e+00 1.529266e+00 1.442907e+00 1.581970e+00 1.221523e+00
<GCONST> 1.533478e+02
<MIXTURE> 7 5.819282e-02
<MEAN> 39
 -7.579205e-02 1.135820e+01 1.404735e+00 1.067741e+01 8.741991e+00 1.560941e+00 -3.000984e+00 -4.378802e+00 1.902552e+00 2.333017e+00 -2.861123e-01 -3.566113e+00 -5.816712e+00 4.131846e-01 -2.951021e-02 1.105457e+00 5.421376e-01 -8.442595e-01 -1.645975e+00 -2.861342e-02 6.313766e-01 -8.883151e-02 -4.095352e-01 -1.589415e-01 3.213826e-01 1.268764e+00 8.180481e-01 -7.262273e-01 1.506582e-01 -1.522961e+00 -1.765857e+00 -1.666443e+00 -8.045295e-01 4.281611e-01 -9.395206e-02 -9.943391e-02 2.145507e-01 2.116905e-01 2.397406e+00
<VARIANCE> 39
 1.164376e+02 1.057981e+02 6.067220e+01 1.170115e+02 9.970339e+01 1.294444e+02 2.060016e+02 1.305249e+02 1.062902e+02 1.030907e+02 1.042705e+02 9.254039e+01 1.483299e+02 1.173256e+01 1.066470e+01 7.377240e+00 1.203839e+01 9.811562e+00 1.295801e+01 1.213272e+01 1.126456e+01 1.105723e+01 8.723529e+00 8.546506e+00 9.301449e+00 8.770975e+00 1.311636e+00 3.018189e+00 1.773326e+00 2.222384e+00 2.286312e+00 2.795338e+00 3.527553e+00 3.605219e+00 2.659657e+00 2.103802e+00 2.115928e+00 2.086550e+00 1.575196e+00
<GCONST> 1.741061e+02
<MIXTURE> 8 4.213367e-02
<MEAN> 39
 1.438624e+01 3.830438e-01 -6.494090e+00 -1.043090e+01 -2.089350e+00 -1.727452e+01 -1.684495e+01 -4.249226e+00 1.026826e+01 4.713497e+00 -5.913869e+00 -5.578542e+00 1.944490e+01 -2.019884e-01 8.819552e-01 1.994138e+00 3.129831e+00 -1.028562e+00 -2.181592e+00 -1.482328e-01 2.360549e-01 1.355104e-01 -6.069757e-01 -2.113083e-01 1.463948e+00 -1.192389e+00 -2.030723e-01 -5.283616e-01 2.329967e-01 -4.716298e-01 -8.225217e-01 2.090586e-01 8.676955e-01 9.314743e-01 -5.902812e-01 -3.891876e-01 3.081030e-01 4.238888e-01 6.147604e-01
<VARIANCE> 39
 2.721792e+01 6.683083e+01 9.265142e+01 1.652789e+02 1.666202e+02 1.571807e+02 2.319510e+02 2.560379e+02 1.623862e+02 2.485301e+02 2.457602e+02 1.532183e+02 8.132859e+01 1.089387e+00 4.108400e+00 4.104032e+00 8.073628e+00 7.365134e+00 8.726315e+00 8.736793e+00 1.145323e+01 9.271304e+00 8.314229e+00 9.805920e+00 8.132773e+00 3.352192e+00 1.881039e-01 5.040116e-01 6.339245e-01 1.131879e+00 1.236424e+00 1.181060e+00 1.710553e+00 1.820451e+00 1.591637e+00 1.409949e+00 1.451997e+00 1.194127e+00 6.797825e-01
<GCONST> 1.590259e+02
<MIXTURE> 9 8.857486e-02
<MEAN> 39
 9.101336e+00 1.755270e+01 1.603206e+01 1.793150e+01 8.504908e+00 2.781553e+00 -1.753788e+00 -6.294297e+00 -1.764313e+00 -4.819398e+00 -5.066137e+00 -6.820838e+00 -1.157898e+01 -3.121152e+00 -2.946681e+00 -2.213619e+00 -2.874285e+00 2.573717e-01 -4.233682e-01 6.234608e-01 2.447323e+00 5.010467e-01 6.632724e-01 2.033148e+00 1.572141e+00 4.520875e+00 1.760561e-01 -1.208704e+00 -9.284024e-01 -2.301797e+00 -2.653043e+00 -2.071702e+00 -7.328441e-01 2.558807e-01 6.473924e-02 8.456507e-01 3.364048e-01 9.989122e-01 3.102485e+00
<VARIANCE> 39
 2.918154e+01 2.555708e+01 3.912253e+01 5.383747e+01 8.625255e+01 9.986008e+01 8.180955e+01 7.357514e+01 8.018871e+01 7.742017e+01 6.836700e+01 7.437172e+01 3.570179e+01 4.577332e+00 5.705404e+00 8.373360e+00 1.095168e+01 1.782162e+01 1.634188e+01 1.537790e+01 1.231231e+01 1.282965e+01 1.142264e+01 1.019119e+01 1.128343e+01 9.553536e+00 8.087252e-01 1.027472e+00 1.896593e+00 2.117116e+00 3.053812e+00 3.070159e+00 2.521501e+00 2.812785e+00 2.906535e+00 2.253760e+00 2.211424e+00 1.974376e+00 8.810076e-01
<GCONST> 1.638676e+02
<MIXTURE> 10 7.579470e-02
<MEAN> 39
 6.156075e+00 1.551084e+01 1.275127e+01 1.439752e+01 2.766655e+00 -2.695691e+00 -4.486156e+00 -1.250787e+01 -8.844616e+00 -1.078634e+01 -9.416119e+00 -8.135716e+00 -1.354200e+01 2.827437e+00 2.685750e+00 1.905250e+00 6.658660e-01 -1.210293e+00 -1.534916e+00 -1.264851e+00 -1.330592e+00 -1.550126e+00 -1.626966e+00 -1.719088e+00 -1.421618e+00 1.295100e+00 -6.287822e-01 -7.479017e-01 -6.898004e-01 -5.630035e-01 6.064818e-02 2.688794e-01 5.112364e-01 1.000778e+00 9.385177e-01 8.608735e-01 7.764736e-01 6.757087e-01 5.289421e-01
<VARIANCE> 39
 4.426754e+01 3.462083e+01 3.908018e+01 5.429614e+01 9.652228e+01 9.672227e+01 8.834248e+01 8.279707e+01 6.699580e+01 8.038873e+01 7.092676e+01 7.008081e+01 2.625516e+01 8.035756e+00 7.469447e+00 4.650331e+00 5.425349e+00 9.715408e+00 1.023418e+01 9.775015e+00 9.144034e+00 8.044803e+00 8.915001e+00 8.334867e+00 7.637659e+00 4.785520e+00 9.132143e-01 8.772705e-01 8.353851e-01 1.353577e+00 2.043707e+00 1.838672e+00 1.798590e+00 1.517907e+00 1.245042e+00 1.583506e+00 1.548578e+00 1.591927e+00 1.257362e+00
<GCONST> 1.555283e+02
<MIXTURE> 11 6.821572e-02
<MEAN> 39
 1.116541e+01 1.568638e+01 9.866340e+00 1.318325e+01 -3.596511e-01 -8.994702e+00 -9.468828e+00 -1.075024e+01 -1.012723e+01 -1.076592e+01 -1.233070e+01 -8.480254e+00 -5.556817e+00 -2.529539e+00 -1.332595e+00 -6.549754e-01 -1.713726e+00 1.083511e+00 5.348970e-01 1.195665e+00 2.308754e+00 1.230856e+00 1.314063e+00 2.970190e+00 1.729596e-01 2.538502e+00 -6.690526e-02 -1.928917e+00 -1.051234e+00 -3.106592e+00 -1.978871e+00 -9.714487e-01 2.762651e-01 1.039741e+00 1.371978e+00 1.296211e+00 6.445050e-01 1.357686e+00 3.264313e+00
<VARIANCE> 39
 4.329605e+01 3.925016e+01 5.796748e+01 7.659895e+01 1.107315e+02 1.272546e+02 1.220668e+02 1.235627e+02 1.187905e+02 1.333508e+02 1.366502e+02 1.161664e+02 4.839910e+01 5.401597e+00 6.233267e+00 1.028030e+01 1.486382e+01 2.323078e+01 1.600512e+01 1.883247e+01 1.811431e+01 1.620498e+01 1.522334e+01 1.427833e+01 1.299091e+01 1.125495e+01 1.057450e+00 1.171778e+00 1.956652e+00 2.727253e+00 3.797475e+00 2.831988e+00 3.219156e+00 2.929501e+00 2.796007e+00 2.704557e+00 3.082248e+00 2.609752e+00 1.241292e+00
<GCONST> 1.741913e+02
<MIXTURE> 12 8.562095e-02
<MEAN> 39
 9.878053e+00 1.735264e+01 1.600172e+01 1.717386e+01 5.950831e+00 5.587782e-01 -1.119039e+00 -5.570378e+00 -2.768332e-01 -5.830686e+00 -5.749863e+00 -6.188385e+00 -1.215140e+01 -7.406380e-01 -5.607662e-02 4.969860e-01 7.187600e-01 1.437346e+00 1.664193e+00 1.061157e+00 5.503821e-01 3.623877e-01 -1.425726e-01 4.026439e-01 -3.238956e-01 -6.380075e-01 -6.382521e-01 -7.757166e-01 -7.191320e-01 -9.214240e-01 -4.766242e-01 -5.090007e-01 -1.250378e-01 1.358142e-01 -2.756143e-01 1.617537e-01 3.006293e-01 4.970517e-01 1.313753e+00
<VARIANCE> 39
 2.845017e+01 2.241265e+01 3.841446e+01 4.690588e+01 8.636182e+01 1.060731e+02 7.110069e+01 6.741448e+01 6.477308e+01 6.714405e+01 6.057467e+01 6.607607e+01 3.409098e+01 2.427621e+00 2.108251e+00 2.729141e+00 3.726653e+00 6.073370e+00 6.507663e+00 5.337849e+00 5.644366e+00 5.652801e+00 6.073498e+00 5.016554e+00 5.918827e+00 2.706767e+00 5.848327e-01 5.970889e-01 9.445999e-01 1.245831e+00 1.856644e+00 1.694552e+00 1.219712e+00 1.261419e+00 1.311233e+00 1.261424e+00 1.222240e+00 1.289189e+00 1.473515e+00
<GCONST> 1.444213e+02
<MIXTURE> 13 5.014691e-02
<MEAN> 39
 -2.884808e+00 1.009039e+01 1.203742e+00 1.117035e+01 6.974510e+00 1.065494e+00 -3.104009e+00 -5.776372e+00 7.745183e-02 -8.911121e-01 -5.745618e-01 -3.221502e+00 -8.151797e+00 2.720278e+00 1.332196e+00 1.714929e+00 5.161873e-02 -2.540859e+00 -3.734369e+00 -2.386723e+00 -1.388485e+00 -1.491116e+00 -1.897224e+00 -1.762160e+00 -7.763946e-01 2.412538e+00 1.068761e+00 -4.063325e-01 2.355733e-01 -1.332990e+00 -1.504423e+00 -1.426709e+00 -4.775500e-01 2.970983e-01 -2.676042e-02 -1.216580e-01 -1.432348e-01 2.443474e-01 1.876940e+00
<VARIANCE> 39
 9.365423e+01 1.121352e+02 6.963860e+01 1.037342e+02 1.120259e+02 1.392934e+02 1.920977e+02 1.434821e+02 1.134198e+02 1.209607e+02 1.116498e+02 9.084946e+01 1.697867e+02 1.261163e+01 1.733686e+01 7.536696e+00 1.135791e+01 1.150844e+01 1.487601e+01 1.383635e+01 1.978976e+01 1.694797e+01 1.225061e+01 1.169575e+01 1.083423e+01 6.592057e+00 1.167131e+00 3.170182e+00 1.490314e+00 2.564568e+00 2.101778e+00 2.698229e+00 3.321250e+00 3.374776e+00 2.697649e+00 2.287132e+00 2.322504e+00 2.154162e+00 1.599378e+00
<GCONST> 1.769434e+02
<MIXTURE> 14 5.189227e-02
<MEAN> 39
 1.282953e+01 1.638846e+00 -1.859421e+00 -7.558910e-01 -1.191709e+01 -1.895147e+01 -1.091016e+01 -2.521442e+00 3.764186e+00 -1.425858e+00 -2.538073e+00 -7.917795e-01 1.654894e+01 1.205826e-01 1.274765e+00 1.148806e+00 1.745932e+00 4.198117e-01 -7.657143e-01 -1.031598e+00 -1.067170e+00 -2.664074e-01 -1.496557e-01 8.659109e-02 6.897744e-01 -1.498455e+00 -2.609208e-01 -4.421518e-01 1.966795e-01 -5.857240e-01 -5.327911e-01 2.430135e-01 6.077111e-01 6.181619e-01 -2.190413e-01 -3.182580e-03 6.185425e-02 -7.843930e-02 6.165927e-01
<VARIANCE> 39
 3.472522e+01 6.607819e+01 8.427619e+01 1.247264e+02 1.583467e+02 1.409193e+02 1.841158e+02 1.851032e+02 1.549343e+02 1.660406e+02 1.495413e+02 1.500517e+02 1.163459e+02 1.290041e+00 2.649437e+00 3.484242e+00 5.709042e+00 5.951568e+00 5.456371e+00 5.948650e+00 6.213632e+00 4.852071e+00 4.560004e+00 4.935244e+00 4.336799e+00 3.115577e+00 2.200672e-01 4.602432e-01 5.028447e-01 8.404744e-01 1.109210e+00 1.013908e+00 1.269480e+00 1.368222e+00 1.011395e+00 1.025394e+00 8.674594e-01 9.764464e-01 5.435860e-01
<GCONST> 1.494412e+02
<MIXTURE> 15 6.789869e-02
<MEAN> 39
 1.262546e+01 1.173937e+01 5.883314e+00 1.024143e+01 -2.854868e+00 -1.501018e+01 -1.325126e+01 -8.200656e+00 -1.945758e+00 -8.406670e+00 -8.440995e+00 -1.288903e+00 -8.157020e-01 -3.703258e-01 2.802947e+00 2.806727e+00 3.960488e+00 1.741391e+00 9.092265e-01 2.408562e-01 -1.494743e+00 -1.923527e+00 -7.512130e-01 -8.468003e-02 -6.551003e-01 -3.318828e+00 -7.553350e-01 -1.460154e+00 -6.841431e-01 -1.969558e+00 -8.066303e-01 6.724524e-01 1.235679e+00 1.136334e+00 2.109533e-01 6.000823e-01 6.312503e-01 -6.497140e-03 1.821007e+00
<VARIANCE> 39
 3.254454e+01 6.498032e+01 6.984760e+01 7.741873e+01 1.614854e+02 1.330682e+02 1.194219e+02 1.701029e+02 1.498773e+02 1.443380e+02 1.270071e+02 1.306287e+02 5.475283e+01 6.886477e+00 6.230386e+00 8.698380e+00 1.594228e+01 1.898143e+01 1.654119e+01 1.652302e+01 1.548779e+01 1.172518e+01 1.137921e+01 1.362642e+01 1.340912e+01 1.439238e+01 1.067295e+00 9.362200e-01 1.288787e+00 3.194846e+00 4.919913e+00 3.460044e+00 2.724971e+00 3.000831e+00 2.551449e+00 2.532915e+00 2.283544e+00 2.281838e+00 2.986754e+00
<GCONST> 1.752400e+02
<MIXTURE> 16 3.142593e-02
<MEAN> 39
 1.221664e+01 -1.128861e+00 -1.060134e+01 -1.265528e+01 -2.383951e+00 -1.937349e+01 -1.645893e+01 -7.306686e+00 1.263138e+01 -2.418433e-01 -1.110719e+01 -3.659542e+00 2.095367e+01 -7.090241e-02 7.449576e-01 1.821305e+00 2.749683e+00 -1.059973e+00 -2.223778e+00 -5.487771e-01 3.470767e-02 6.832670e-02 -5.277123e-01 -5.649653e-01 1.151344e+00 -1.171910e+00 -1.946983e-01 -4.741072e-01 2.439373e-01 -3.319247e-01 -7.010345e-01 2.920793e-01 8.858882e-01 9.198946e-01 -5.642344e-01 -3.498656e-01 3.442390e-01 3.582464e-01 5.306734e-01
<VARIANCE> 39
 3.441148e+01 6.245312e+01 1.149653e+02 1.487735e+02 1.904341e+02 1.317664e+02 2.045289e+02 2.494784e+02 1.611212e+02 2.565903e+02 1.933817e+02 1.122789e+02 7.598768e+01 1.031070e+00 3.752162e+00 3.268652e+00 7.561325e+00 6.686821e+00 7.150774e+00 8.353699e+00 9.859868e+00 8.786506e+00 8.237288e+00 9.086945e+00 6.585553e+00 3.131588e+00 1.996350e-01 4.390828e-01 6.490934e-01 9.943295e-01 1.053375e+00 1.058690e+00 1.670591e+00 1.618782e+00 1.437034e+00 1.233076e+00 1.087334e+00 9.614007e-01 5.859096e-01
<GCONST> 1.556809e+02
<STATE> 3
<NUMMIXES> 16
<MIXTURE> 1 5.389342e-02
<MEAN> 39
 -3.411639e+00 6.775960e+00 6.642065e+00 1.372372e+01 1.355817e+01 8.615534e+00 7.431917e+00 1.691422e+00 2.514679e+00 -5.494360e-01 -1.067231e-01 -8.954453e-01 -1.270909e+01 -1.525962e+00 -1.809876e+00 -2.116443e+00 -3.714108e+00 -3.399049e+00 -3.139313e+00 2.024058e-01 1.680102e+00 5.791953e-03 1.150666e+00 2.729151e+00 2.389377e+00 6.791080e+00 1.347246e+00 4.592280e-01 5.740492e-01 -1.067067e+00 -3.128997e+00 -2.394950e+00 -1.391731e+00 -5.302406e-01 -6.632397e-01 1.341916e-02 -7.292781e-02 2.073908e-01 2.592343e+00
<VARIANCE> 39
 4.835458e+01 5.663015e+01 8.337743e+01 5.501818e+01 7.242301e+01 6.090964e+01 6.537211e+01 6.654897e+01 6.378682e+01 8.060261e+01 7.002473e+01 5.983608e+01 7.922611e+01 8.464109e+00 8.423234e+00 9.351254e+00 7.689971e+00 1.697452e+01 1.735333e+01 1.225803e+01 1.186732e+01 1.181131e+01 1.116592e+01 8.970864e+00 7.311935e+00 9.762567e+00 1.004863e+00 1.479666e+00 2.180538e+00 1.818714e+00 2.884291e+00 2.346120e+00 2.085906e+00 2.378230e+00 2.103197e+00 2.381187e+00 2.368768e+00 1.726600e+00 1.519296e+00
<GCONST> 1.653286e+02
<MIXTURE> 2 6.511330e-02
<MEAN> 39
 1.586083e+01 -6.033086e-01 -1.899742e+00 -5.940080e+00 -5.134551e+00 -1.662861e+01 -2.052748e+01 8.206824e-01 8.416023e+00 1.277170e+01 2.215231e+00 -1.159004e+01 2.080190e+01 -5.561175e-01 -8.481382e-01 1.268874e+00 1.262312e+00 -2.317590e+00 -2.402711e+00 7.857701e-01 2.951069e+00 3.272741e-01 -1.364484e+00 -1.098694e+00 2.057609e+00 8.731433e-01 -1.647408e-01 -3.091438e-01 7.271186e-02 -4.325592e-01 -5.904355e-01 2.031440e-01 7.583249e-01 6.063688e-01 -4.456042e-01 -4.844220e-01 1.800366e-01 6.818668e-01 3.826660e-01
<VARIANCE> 39
 2.064720e+01 4.716811e+01 7.870022e+01 1.506062e+02 1.185921e+02 1.284423e+02 1.554264e+02 2.740799e+02 1.713276e+02 1.430999e+02 1.833986e+02 1.178389e+02 4.449640e+01 9.249196e-01 2.650070e+00 3.213379e+00 5.985050e+00 6.533951e+00 7.679505e+00 6.612054e+00 1.025885e+01 7.909845e+00 6.370500e+00 6.776253e+00 5.917407e+00 1.953271e+00 1.453917e-01 4.173754e-01 4.119133e-01 7.219815e-01 1.089121e+00 7.772652e-01 1.083928e+00 1.398541e+00 1.250773e+00 9.033337e-01 1.247094e+00 9.062571e-01 3.342808e-01
<GCONST> 1.477628e+02
<MIXTURE> 3 6.751518e-02
<MEAN> 39
 -7.502290e+00 1.853109e+00 2.464967e+00 -6.641656e-01 8.055943e+00 -8.848532e-01 5.453486e+00 6.448710e+00 9.942554e-01 1.209251e+00 4.229414e+00 4.992104e+00 9.306372e+00 1.060369e+00 -2.067621e+00 -5.139068e-01 -4.942802e+00 -6.051690e+00 -5.199340e+00 -2.271058e+00 1.587302e+00 4.034235e-01 1.038135e+00 1.913762e+00 1.929426e+00 8.547532e+00 2.217375e+00 7.114345e-01 1.044346e+00 1.494018e-01 -2.248729e+00 -6.195785e-01 -1.378776e+00 -1.302285e+00 -3.411554e-01 -1.385416e-02 -6.967834e-01 -8.765815e-01 -1.696806e-01
<VARIANCE> 39
 5.120662e+01 7.002806e+01 1.058415e+02 9.558724e+01 1.087140e+02 1.182700e+02 1.205900e+02 9.833859e+01 1.004923e+02 1.000410e+02 1.022678e+02 8.735326e+01 6.099487e+01 9.446007e+00 1.015589e+01 1.691418e+01 1.573100e+01 2.825008e+01 1.745842e+01 2.043796e+01 1.746443e+01 1.859159e+01 1.558771e+01 1.252826e+01 1.098051e+01 8.248850e+00 1.177598e+00 2.101210e+00 3.576097e+00 2.699038e+00 2.830272e+00 3.502296e+00 3.385399e+00 3.584871e+00 3.326856e+00 3.195309e+00 3.535437e+00 2.592854e+00 9.738615e-01
<GCONST> 1.777957e+02
<MIXTURE> 4 6.309090e-02
<MEAN> 39
 8.317871e+00 1.270438e+01 3.886911e+00 8.137049e+00 4.449433e-01 -1.496594e+01 -9.979914e+00 -1.081918e+00 3.182007e+00 -2.081782e-01 -3.752285e+00 -1.781549e-01 8.307282e+00 9.599699e-01 -4.327824e+00 2.403591e-01 -2.733467e+00 -4.816258e+00 -5.097311e+00 -2.259533e+00 3.646036e+00 8.458862e-02 4.680689e-01 2.512370e+00 2.166045e+00 6.230925e+00 1.362327e-01 -1.076951e+00 4.510798e-01 -9.298782e-01 -1.387074e+00 3.300354e-01 3.947232e-01 5.301177e-01 -6.458735e-01 3.820893e-01 5.289090e-01 -3.321759e-01 7.263466e-01
<VARIANCE> 39
 3.338043e+01 3.972663e+01 4.474790e+01 8.524624e+01 7.097550e+01 7.069985e+01 9.531754e+01 1.029519e+02 1.037907e+02 8.203605e+01 7.747890e+01 7.550224e+01 5.738512e+01 1.108159e+01 5.885717e+00 1.134993e+01 1.298630e+01 2.030582e+01 1.781570e+01 2.285725e+01 1.396980e+01 2.052732e+01 1.522372e+01 1.316707e+01 1.575212e+01 7.272789e+00 9.306164e-01 7.906170e-01 1.046717e+00 1.327222e+00 1.482150e+00 1.579867e+00 2.236299e+00 2.405771e+00 2.093093e+00 1.624915e+00 1.514115e+00 1.897289e+00 7.889632e-01
<GCONST> 1.650888e+02
<MIXTURE> 5 6.711366e-02
<MEAN> 39
 1.403798e+00 1.074665e+01 5.840202e+00 4.119600e+00 3.766906e+00 -4.312608e+00 -5.166713e+00 -2.949983e+00 -3.622467e+00 -2.362080e+00 1.682206e+00 -4.240493e+00 8.565320e+00 -4.454260e-01 -4.714668e+00 -2.429966e+00 -7.393626e+00 -3.736804e+00 -2.913279e+00 -7.142274e-01 3.221776e+00 3.045542e+00 3.221475e+00 2.155443e+00 2.488968e+00 8.250509e+00 1.404961e+00 -7.907850e-01 4.495027e-02 -1.380942e+00 -1.848136e+00 -5.968459e-01 -1.331976e-01 -2.689058e-01 2.231587e-01 6.209351e-01 -9.805252e-01 2.767627e-01 6.246247e-01
<VARIANCE> 39
 4.249749e+01 4.911101e+01 1.077213e+02 9.283058e+01 1.223471e+02 1.284005e+02 1.390490e+02 1.099381e+02 1.042311e+02 9.573938e+01 8.727160e+01 9.875747e+01 4.747391e+01 6.867935e+00 6.501483e+00 1.585240e+01 1.446818e+01 3.368625e+01 2.546090e+01 3.137720e+01 2.376944e+01 1.882289e+01 1.774595e+01 1.871222e+01 1.419194e+01 8.053820e+00 8.962111e-01 1.547470e+00 3.279408e+00 2.351593e+00 2.546672e+00 3.287296e+00 3.762825e+00 3.534163e+00 3.126620e+00 2.901573e+00 2.260398e+00 3.301493e+00 7.876408e-01
<GCONST> 1.770987e+02
<MIXTURE> 6 6.350370e-02
<MEAN> 39
 8.767358e-01 1.509785e+01 1.009327e+01 1.454073e+01 1.156765e+01 3.496370e+00 1.212147e+00 -2.550480e+00 -2.947862e+00 -6.802739e+00 -4.977751e+00 -4.002841e+00 -3.237654e+00 -9.657446e-01 -2.998205e+00 -1.600033e+00 -4.364804e+00 -5.312346e+00 -5.041564e+00 -1.014954e+00 2.194790e+00 2.806915e-01 1.814008e+00 2.998853e+00 3.594537e+00 7.869430e+00 1.180218e+00 -1.055461e+00 2.047339e-01 -1.579896e+00 -3.169850e+00 -1.843465e+00 -8.489767e-01 3.768798e-02 -9.244607e-02 1.181359e+00 3.638501e-01 2.882527e-01 1.803431e+00
<VARIANCE> 39
 5.094443e+01 5.888898e+01 7.012847e+01 7.754828e+01 8.474551e+01 9.983186e+01 6.918781e+01 6.689476e+01 6.941423e+01 6.011027e+01 5.850471e+01 7.936110e+01 5.655259e+01 7.264735e+00 5.415872e+00 1.272353e+01 1.048898e+01 1.865282e+01 1.994087e+01 1.650670e+01 1.640501e+01 1.600425e+01 1.649751e+01 1.121590e+01 1.120060e+01 5.668983e+00 1.110585e+00 1.688143e+00 2.295199e+00 3.366656e+00 2.465168e+00 3.163388e+00 2.908364e+00 2.970297e+00 2.851213e+00 2.421735e+00 2.390484e+00 3.048700e+00 9.786922e-01
<GCONST> 1.695934e+02
<MIXTURE> 7 9.335384e-02
<MEAN> 39
 1.219064e+01 -1.156299e+00 -5.197646e+00 -4.503941e+00 -1.475111e+01 -2.583447e+01 -5.332953e+00 2.992080e+00 1.084157e+01 -5.372714e+00 -9.762244e+00 5.446899e+00 2.281719e+01 -5.386735e-01 1.376126e-01 1.975185e+00 4.558182e-01 -2.298386e+00 -8.135334e-01 1.884938e+00 8.627758e-01 -1.335398e+00 -5.179363e-01 1.655578e+00 1.553832e+00 1.906763e-01 -2.207658e-01 -2.092090e-01 2.250511e-01 -6.689543e-01 -2.881059e-01 6.948144e-01 5.652957e-01 -3.028116e-03 -7.084249e-01 4.866979e-01 4.569638e-01 -5.094877e-01 3.443706e-01
<VARIANCE> 39
 2.515377e+01 5.328713e+01 1.016840e+02 1.389583e+02 1.411281e+02 1.022006e+02 1.866935e+02 1.454865e+02 1.662317e+02 1.645450e+02 1.277788e+02 9.655870e+01 5.723305e+01 6.713281e-01 1.936239e+00 2.372194e+00 3.358902e+00 5.351220e+00 4.351290e+00 7.179784e+00 6.312407e+00 5.605014e+00 6.244006e+00 4.310275e+00 4.998123e+00 1.159357e+00 1.407788e-01 2.447871e-01 3.780347e-01 6.187689e-01 7.147716e-01 6.823613e-01 1.199318e+00 9.368623e-01 8.670860e-01 7.798575e-01 8.032258e-01 6.997907e-01 2.474200e-01
<GCONST> 1.401905e+02
<MIXTURE> 8 5.743937e-02
<MEAN> 39
 1.119892e+01 8.109331e+00 5.752591e+00 1.078662e+01 -7.837694e+00 -2.027760e+01 -1.170066e+01 -1.158028e+00 -1.151603e+00 -9.062478e+00 -3.607368e+00 4.194146e+00 5.204741e+00 -1.306303e+00 -1.024596e+00 1.563053e+00 -2.808518e+00 -4.770588e+00 -3.361457e-01 3.079489e+00 4.111731e-01 -1.188924e+00 1.473789e+00 2.878237e+00 7.752219e-01 3.297428e+00 -2.479290e-01 -1.118168e+00 -1.569870e-01 -2.791996e+00 -1.792282e+00 3.647061e-01 8.890368e-01 -4.116167e-02 8.533376e-02 1.073267e+00 6.125709e-02 -5.399248e-01 2.163645e+00
<VARIANCE> 39
 1.964050e+01 4.602821e+01 6.494769e+01 8.783961e+01 9.134244e+01 7.124957e+01 1.006948e+02 1.128601e+02 1.386472e+02 1.007372e+02 1.212596e+02 8.433750e+01 5.008022e+01 2.532897e+00 4.838001e+00 7.087263e+00 1.206847e+01 1.116252e+01 8.304357e+00 9.549129e+00 1.365607e+01 1.291892e+01 1.138676e+01 9.226257e+00 9.072185e+00 8.110982e+00 4.273459e-01 7.789993e-01 1.299206e+00 1.629112e+00 1.795291e+00 1.746237e+00 2.419615e+00 2.382307e+00 1.674158e+00 1.743285e+00 2.268937e+00 1.534814e+00 8.365281e-01
<GCONST> 1.604939e+02
<MIXTURE> 9 6.991517e-02
<MEAN> 39
 1.104978e+01 -2.953961e+00 -6.720566e+00 -6.211668e+00 -1.152958e+01 -2.751782e+01 -1.069244e+01 -1.358119e+00 1.118544e+01 -9.818065e+00 -1.384074e+01 6.433090e+00 2.161993e+01 -7.364902e-01 -3.892974e-01 1.626782e+00 1.160314e-01 -2.866516e+00 -7.275281e-01 2.642744e+00 1.406313e+00 -1.757272e+00 -8.262830e-01 1.525080e+00 1.284241e+00 7.851890e-01 -3.695547e-01 -3.433146e-01 9.555418e-02 -8.996013e-01 -6.421325e-01 8.087982e-01 1.080431e+00 2.041042e-01 -7.953677e-01 4.513552e-01 5.823200e-01 -6.846819e-01 6.482989e-01
<VARIANCE> 39
 3.548855e+01 4.377753e+01 8.352625e+01 1.312597e+02 1.484029e+02 8.923592e+01 1.321228e+02 1.320944e+02 1.367049e+02 1.275430e+02 1.344877e+02 9.012930e+01 4.668608e+01 9.892225e-01 2.293440e+00 2.355386e+00 4.112778e+00 5.761314e+00 4.234102e+00 8.026678e+00 7.598513e+00 5.588353e+00 5.332996e+00 4.421343e+00 5.330983e+00 1.999365e+00 1.824618e-01 3.287014e-01 4.161590e-01 7.050974e-01 6.951808e-01 7.566321e-01 1.307552e+00 9.972314e-01 9.620112e-01 9.239423e-01 8.946728e-01 7.951216e-01 3.893287e-01
<GCONST> 1.424225e+02
<MIXTURE> 10 7.005061e-02
<MEAN> 39
 1.508752e+01 -5.512633e-01 -2.546574e+00 -7.507341e+00 -2.617599e+00 -1.536618e+01 -2.300943e+01 -2.823990e+00 9.113379e+00 1.013354e+01 6.610416e-01 -1.061477e+01 2.009651e+01 -5.883878e-01 -1.329888e+00 1.096155e+00 1.050601e+00 -2.624908e+00 -2.825104e+00 5.358641e-01 3.851833e+00 7.441684e-01 -1.372681e+00 -1.460558e+00 1.523515e+00 1.402292e+00 -2.072009e-01 -4.228011e-01 5.611091e-02 -5.527506e-01 -7.998539e-01 1.104076e-01 8.307183e-01 8.604545e-01 -4.253662e-01 -5.381880e-01 2.378561e-01 5.616170e-01 5.337632e-01
<VARIANCE> 39
