~o
<STREAMINFO> 1 39
<VECSIZE> 39<NULLD><MFCC_D_A_0><DIAGC>
~s "silst"
<NUMMIXES> 2
<MIXTURE> 1 4.779830e-01
<MEAN> 39
 -1.619950e+01 -1.284176e+01 5.181625e+00 -5.659675e+00 -1.857905e+00 -8.451374e-01 -2.109755e+00 -4.099327e+00 -4.554801e+00 -4.929244e+00 -3.057766e+00 -2.171788e+00 9.352564e+01 -4.190205e-01 -1.350537e-01 2.431281e-01 3.235376e-01 4.962609e-01 4.592353e-01 6.460273e-01 6.834947e-01 5.729135e-01 7.155122e-01 6.505688e-01 4.527335e-01 -2.815036e-01 1.672073e-01 -4.329616e-02 -1.253238e-02 -1.485492e-01 -1.894126e-01 -1.099084e-01 -7.790241e-02 -7.477206e-02 1.078433e-03 -7.613726e-02 -5.787232e-03 -1.983318e-02 1.032831e-01
<VARIANCE> 39
 7.010495e+01 5.689515e+01 6.847765e+01 7.960252e+01 9.144191e+01 9.255033e+01 9.357213e+01 1.025188e+02 9.707948e+01 9.869566e+01 8.472411e+01 6.769120e+01 6.973375e+01 5.180673e+00 4.800570e+00 5.829403e+00 7.367518e+00 8.079504e+00 8.334706e+00 8.669532e+00 8.936610e+00 8.593872e+00 8.649029e+00 7.308557e+00 6.229636e+00 4.984110e+00 8.988497e-01 8.857913e-01 1.182956e+00 1.561753e+00 1.674030e+00 1.687765e+00 1.760239e+00 1.769296e+00 1.723807e+00 1.732546e+00 1.502215e+00 1.248224e+00 9.968184e-01
<GCONST> 1.583975e+02
<MIXTURE> 2 5.219148e-01
<MEAN> 39
 -1.642095e+01 -1.389011e+01 4.906915e+00 -5.998794e+00 -2.707782e+00 -1.086543e+00 -2.403189e+00 -5.602412e+00 -5.248682e+00 -6.099806e+00 -4.004404e+00 -2.960866e+00 9.124812e+01 -1.835737e-01 -1.870941e-01 -1.070099e-01 -1.326451e-01 -3.436771e-01 -4.097844e-01 -4.699965e-01 -6.468326e-01 -6.049660e-01 -5.240902e-01 -5.296949e-01 -3.519907e-01 -3.222743e-01 1.124999e-01 4.788781e-02 1.209183e-02 -1.268012e-01 -1.358885e-01 -1.376228e-01 -1.253336e-01 -7.097761e-02 -2.350246e-02 -6.666085e-02 -3.929269e-02 -3.038591e-02 2.231792e-01
<VARIANCE> 39
 3.269616e+01 3.636850e+01 4.662025e+01 5.278214e+01 6.878166e+01 7.101149e+01 7.927957e+01 9.133369e+01 8.692883e+01 8.832467e+01 7.879631e+01 6.186540e+01 4.273016e+01 3.253428e+00 3.546650e+00 4.241862e+00 5.313734e+00 6.309355e+00 6.568977e+00 7.120507e+00 7.491698e+00 7.429881e+00 7.557181e+00 6.386846e+00 5.470731e+00 2.486333e+00 5.543210e-01 6.056593e-01 7.827477e-01 1.060189e+00 1.264273e+00 1.283605e+00 1.463275e+00 1.544861e+00 1.518164e+00 1.541363e+00 1.329597e+00 1.116631e+00 5.215075e-01
<GCONST> 1.475113e+02
~h "b"
<BEGINHMM>
<NUMSTATES> 5
<STATE> 2
<NUMMIXES> 2
<MIXTURE> 1 5.250005e-01
<MEAN> 39
 7.831976e+00 -2.555693e-01 1.395255e+01 -7.692524e-01 -4.952343e+00 -7.036522e+00 -1.213004e+01 -1.605418e+01 -1.518529e+01 -3.412657e+00 -2.337689e+00 -9.710421e+00 1.066913e+02 -7.025155e-02 1.834067e+00 1.097373e+00 1.196565e+00 1.006709e+00 1.484292e+00 8.405445e-01 -5.066496e-01 2.142646e-01 -8.398148e-01 -1.405484e-02 3.188211e-01 -1.902137e+00 -3.139767e-01 -3.559840e-01 -1.419331e-02 -4.063908e-01 -1.239181e-01 -1.088391e-01 5.757804e-02 4.164650e-01 2.963323e-01 -6.511378e-02 -1.261481e-01 9.708641e-02 3.751369e-01
<VARIANCE> 39
 6.468229e+01 7.749475e+01 8.432262e+01 1.672933e+02 1.121792e+02 1.610897e+02 1.766340e+02 1.680900e+02 1.881398e+02 1.459487e+02 1.598327e+02 1.184202e+02 9.593578e+01 3.874068e+00 4.278743e+00 4.669859e+00 7.138047e+00 7.990085e+00 8.824675e+00 7.769067e+00 8.365645e+00 1.004482e+01 7.803135e+00 8.833213e+00 8.075504e+00 4.808329e+00 5.830097e-01 7.917815e-01 8.557590e-01 1.087936e+00 1.258653e+00 1.210064e+00 1.378210e+00 1.548728e+00 1.779840e+00 1.360863e+00 1.470625e+00 1.364838e+00 6.389135e-01
<GCONST> 1.608961e+02
<MIXTURE> 2 4.749979e-01
<MEAN> 39
 7.433755e+00 -3.695889e+00 8.563869e+00 -8.730494e+00 -1.072877e+01 -1.377326e+01 -1.894254e+01 -2.130819e+01 -1.590606e+01 -7.869491e+00 -1.025249e+01 -1.183861e+01 1.109562e+02 1.916516e-01 2.135026e+00 1.289149e+00 2.181765e+00 1.196657e+00 1.018737e+00 -2.380511e-02 -1.378085e+00 -8.201553e-01 -8.731530e-01 -6.188118e-02 -4.413683e-01 -2.343590e+00 -3.555159e-01 -6.526797e-01 -7.939528e-02 -8.321301e-01 -3.081586e-01 -7.327706e-02 3.769135e-01 8.680878e-01 2.941803e-01 6.209151e-02 -5.888095e-02 1.412744e-01 8.497337e-01
<VARIANCE> 39
 7.978391e+01 1.027198e+02 1.155329e+02 1.903688e+02 1.352856e+02 2.839973e+02 2.010465e+02 2.862499e+02 1.880772e+02 2.041399e+02 2.152675e+02 1.563994e+02 1.154702e+02 5.597897e+00 6.154994e+00 7.164000e+00 1.083107e+01 1.104711e+01 1.304280e+01 1.292807e+01 1.296043e+01 1.155161e+01 1.150491e+01 1.163970e+01 1.110673e+01 7.542295e+00 7.087904e-01 1.114078e+00 1.317607e+00 2.134155e+00 1.981844e+00 1.968302e+00 2.302812e+00 2.723414e+00 2.158023e+00 2.146735e+00 2.069000e+00 1.956382e+00 1.205150e+00
<GCONST> 1.748006e+02
<STATE> 3
<NUMMIXES> 2
<MIXTURE> 1 5.224074e-01
<MEAN> 39
 6.578362e+00 3.008281e+00 1.641496e+01 5.003668e-01 -2.073466e+00 -2.733279e+00 -7.924235e+00 -1.457567e+01 -1.351264e+01 -7.353568e+00 -3.547602e+00 -8.112788e+00 1.026805e+02 -9.952145e-01 2.204943e-01 7.181455e-01 -2.776680e-02 5.092098e-01 3.455566e-01 6.033921e-01 9.135516e-01 9.496999e-01 -5.339405e-01 -2.031740e-01 4.603551e-01 -4.849411e-01 5.809339e-02 -1.532656e+00 -5.174285e-01 -1.627225e+00 -1.402336e+00 -1.387629e+00 -7.486838e-01 7.668842e-01 2.220501e-01 7.897354e-01 2.400965e-01 7.417841e-02 2.134781e+00
<VARIANCE> 39
 5.211668e+01 6.147930e+01 8.140318e+01 1.334441e+02 9.735545e+01 1.263905e+02 1.335913e+02 1.339101e+02 1.572753e+02 1.108059e+02 1.276536e+02 9.455666e+01 7.230077e+01 4.819628e+00 5.054199e+00 6.177974e+00 9.028030e+00 8.828795e+00 9.989758e+00 1.068854e+01 9.795585e+00 1.128569e+01 8.964561e+00 9.375934e+00 7.656622e+00 5.320523e+00 8.724242e-01 8.737910e-01 2.627523e+00 2.615760e+00 2.080276e+00 2.589158e+00 2.021688e+00 2.526717e+00 3.310573e+00 2.135344e+00 2.095394e+00 1.900468e+00 8.419765e-01
<GCONST> 1.667409e+02
<MIXTURE> 2 4.775907e-01
<MEAN> 39
 7.209617e+00 -2.177399e+00 1.035407e+01 -6.960927e+00 -8.276743e+00 -1.304907e+01 -1.986072e+01 -2.228760e+01 -1.676100e+01 -9.427323e+00 -1.186228e+01 -1.412006e+01 1.084203e+02 -8.232113e-01 -1.056899e-02 7.672251e-01 -2.729219e-01 5.323308e-02 3.535897e-01 8.637022e-01 1.186494e+00 2.459068e-01 -3.286140e-01 1.954297e-01 1.121556e-01 -2.673047e-01 -1.069729e-01 -1.675536e+00 -3.668820e-01 -2.457122e+00 -1.494491e+00 -7.418534e-01 3.920895e-01 1.456754e+00 4.927225e-01 6.655871e-01 -4.967889e-02 6.010122e-01 2.363291e+00
<VARIANCE> 39
 5.053316e+01 9.888890e+01 1.172493e+02 1.840314e+02 1.099154e+02 1.941327e+02 1.693074e+02 2.350609e+02 1.530683e+02 1.907661e+02 1.831548e+02 1.272188e+02 9.371946e+01 4.207049e+00 5.254995e+00 7.935355e+00 1.081346e+01 8.705619e+00 1.093668e+01 9.820674e+00 1.536905e+01 1.084907e+01 1.011921e+01 7.845577e+00 9.307765e+00 5.020144e+00 9.168363e-01 1.288518e+00 3.264729e+00 2.768278e+00 2.823171e+00 2.585142e+00 3.263897e+00 3.405329e+00 3.025455e+00 2.896554e+00 2.688345e+00 2.413616e+00 1.077648e+00
<GCONST> 1.742147e+02
<STATE> 4
<NUMMIXES> 2
<MIXTURE> 1 5.140929e-01
<MEAN> 39
 3.593181e+00 -3.990262e-01 1.322153e+01 -3.753011e+00 -3.140924e+00 -4.593999e+00 -7.825705e+00 -1.075385e+01 -1.026453e+01 -6.215170e+00 -2.980603e+00 -6.528433e+00 1.070981e+02 6.918254e-01 -3.658249e+00 -1.688824e+00 -5.112676e+00 -3.588797e+00 -3.066167e+00 -1.743532e+00 2.521447e+00 1.574387e+00 2.103168e+00 1.295323e+00 7.306970e-01 5.578083e+00 4.885948e-01 -1.071492e+00 -2.041709e-01 -1.434675e+00 -1.499169e+00 -4.939503e-01 -3.723440e-01 1.566854e-01 -2.688105e-01 4.583671e-01 7.393251e-02 -2.743907e-01 1.666707e+00
<VARIANCE> 39
 8.977402e+01 7.317015e+01 1.165844e+02 1.806115e+02 1.096029e+02 1.510701e+02 1.318197e+02 1.197875e+02 1.252367e+02 1.095448e+02 1.196093e+02 7.616984e+01 1.176845e+02 9.039884e+00 9.168488e+00 2.515976e+01 2.762733e+01 1.790652e+01 2.049753e+01 1.867284e+01 1.940174e+01 2.504081e+01 1.883973e+01 1.431664e+01 1.375588e+01 9.300737e+00 1.408056e+00 1.953103e+00 3.114004e+00 4.073762e+00 3.394380e+00 3.368713e+00 2.503337e+00 3.450557e+00 3.457860e+00 2.621403e+00 3.021281e+00 2.564031e+00 2.030519e+00
<GCONST> 1.827494e+02
<MIXTURE> 2 4.859073e-01
<MEAN> 39
 6.068974e+00 -5.019929e+00 1.014508e+01 -8.854239e+00 -9.098712e+00 -1.495249e+01 -1.967386e+01 -1.778039e+01 -1.387894e+01 -6.915338e+00 -1.013974e+01 -1.325129e+01 1.120959e+02 -2.988667e-01 -4.136171e+00 -2.340524e-02 -5.908941e+00 -3.909821e+00 -2.038753e+00 1.056602e+00 3.966419e+00 1.431437e+00 1.806113e+00 -4.403810e-01 1.517132e+00 5.489578e+00 -9.426869e-02 -9.608536e-01 7.142476e-02 -1.718682e+00 -1.215309e+00 -1.038992e-01 5.102479e-01 2.658605e-01 -1.402937e-01 2.629763e-01 -4.376814e-01 5.248305e-01 1.577550e+00
<VARIANCE> 39
 5.689658e+01 9.514455e+01 1.446171e+02 2.144619e+02 1.110666e+02 1.853972e+02 1.402755e+02 2.260964e+02 1.386940e+02 1.610865e+02 1.563391e+02 1.160045e+02 1.029944e+02 7.018768e+00 1.141753e+01 3.223380e+01 2.610891e+01 1.924787e+01 2.142871e+01 2.215076e+01 3.261877e+01 2.456984e+01 1.705522e+01 1.525249e+01 1.575698e+01 9.561415e+00 1.028852e+00 2.440831e+00 2.681734e+00 3.809678e+00 3.327981e+00 2.864136e+00 3.181197e+00 4.447999e+00 2.820863e+00 2.883057e+00 2.360544e+00 2.466027e+00 1.902098e+00
<GCONST> 1.855189e+02
<TRANSP> 5
 0.000000e+00 1.000000e+00 0.000000e+00 0.000000e+00 0.000000e+00
 0.000000e+00 5.311138e-01 4.688862e-01 0.000000e+00 0.000000e+00
 0.000000e+00 0.000000e+00 3.684500e-01 6.315501e-01 0.000000e+00
 0.000000e+00 0.000000e+00 0.000000e+00 4.613933e-01 5.386068e-01
 0.000000e+00 0.000000e+00 0.000000e+00 0.000000e+00 0.000000e+00
<ENDHMM>
~h "d"
<BEGINHMM>
<NUMSTATES> 5
<STATE> 2
<NUMMIXES> 2
<MIXTURE> 1 5.359647e-01
<MEAN> 39
 1.727534e+00 4.493753e+00 1.922277e+01 3.819578e+00 -4.378782e+00 -8.365309e+00 -1.048899e+01 -1.095891e+01 -7.628182e+00 -7.724154e+00 -9.721211e+00 -1.071178e+01 1.005648e+02 -8.337311e-01 -9.304997e-02 4.288023e-01 2.065342e-01 9.240572e-01 3.965913e-01 6.865767e-01 9.680884e-01 2.948745e-01 -1.762555e-01 6.021016e-01 4.899112e-01 7.491004e-01 -3.167675e-01 -1.078833e+00 -6.060984e-01 -1.366533e+00 -1.229865e+00 -8.623124e-01 -2.663707e-01 4.515014e-01 1.717501e-02 3.544879e-01 5.061910e-01 5.390207e-01 1.786737e+00
<VARIANCE> 39
 4.798639e+01 5.098676e+01 6.589518e+01 9.335550e+01 1.216255e+02 1.297003e+02 1.223593e+02 1.092997e+02 1.076994e+02 1.219093e+02 1.097869e+02 9.136003e+01 8.902542e+01 8.821893e+00 8.703283e+00 8.903780e+00 1.280484e+01 1.387681e+01 1.479787e+01 1.203822e+01 1.048420e+01 9.784155e+00 9.194313e+00 9.147267e+00 1.090298e+01 1.417646e+01 1.082139e+00 1.073795e+00 1.465703e+00 2.012653e+00 3.498381e+00 3.134633e+00 2.191569e+00 2.177563e+00 2.165231e+00 1.851247e+00 1.654072e+00 1.797838e+00 2.255315e+00
<GCONST> 1.700307e+02
<MIXTURE> 2 4.640104e-01
<MEAN> 39
 -2.332487e-01 -1.398404e+00 1.115189e+01 -4.965889e+00 -1.139420e+01 -1.752784e+01 -1.609239e+01 -1.441453e+01 -1.051848e+01 -1.361775e+01 -1.470970e+01 -8.782602e+00 1.082609e+02 -3.958359e-01 1.279627e-01 6.934311e-01 -3.746098e-02 -7.682277e-01 -8.439798e-01 3.526972e-01 5.647959e-01 -4.764644e-01 -4.079053e-02 8.213006e-01 2.686689e-01 1.534858e+00 9.310613e-03 -1.029595e+00 -4.229761e-01 -1.858872e+00 -1.489735e+00 -4.804051e-01 3.588583e-01 6.137307e-01 2.743284e-01 6.928446e-01 3.804806e-01 5.269431e-01 2.007939e+00
<VARIANCE> 39
 7.825312e+01 1.058960e+02 1.183621e+02 1.581240e+02 1.814646e+02 2.312193e+02 1.789109e+02 1.826190e+02 1.796313e+02 2.097622e+02 1.722176e+02 1.372092e+02 2.064073e+02 1.015377e+01 1.086884e+01 9.794573e+00 1.532531e+01 1.773628e+01 1.615766e+01 1.472675e+01 1.687493e+01 1.308660e+01 1.307859e+01 1.430151e+01 1.200438e+01 1.520594e+01 1.307668e+00 1.816759e+00 1.799911e+00 3.300832e+00 3.887410e+00 3.594624e+00 3.162704e+00 2.904225e+00 2.664836e+00 2.514888e+00 2.370077e+00 2.436811e+00 2.604521e+00
<GCONST> 1.835262e+02
<STATE> 3
<NUMMIXES> 2
<MIXTURE> 1 5.161995e-01
<MEAN> 39
 -4.196462e+00 -5.058080e+00 1.123462e+01 -7.902399e+00 -6.743996e+00 -1.573047e+01 -1.215543e+01 -2.900189e+00 -4.367911e+00 -3.712591e+00 -3.535628e+00 -5.392894e+00 1.190405e+02 1.178897e-01 -2.689299e+00 -8.499964e-02 -3.233586e+00 -4.917144e+00 -4.504327e+00 -1.483160e+00 2.260824e+00 1.187312e-01 5.529306e-01 2.025334e+00 2.161229e+00 6.125065e+00 9.507290e-01 -2.559703e-01 5.336764e-01 -5.400773e-01 -1.843639e+00 -3.381213e-01 -2.643445e-01 -2.459628e-01 -3.775014e-01 3.251023e-01 4.162776e-02 -3.196627e-01 4.894477e-01
<VARIANCE> 39
 1.005827e+02 8.004101e+01 1.023274e+02 1.570918e+02 1.823744e+02 2.303141e+02 2.281971e+02 1.509082e+02 1.341785e+02 1.438071e+02 1.313265e+02 1.290500e+02 1.375859e+02 7.575859e+00 8.585619e+00 1.327728e+01 1.659717e+01 2.210249e+01 2.071090e+01 2.022804e+01 1.825644e+01 1.868587e+01 1.477977e+01 1.308759e+01 1.153087e+01 1.353035e+01 1.592477e+00 1.589850e+00 2.254349e+00 2.243549e+00 2.998020e+00 3.107993e+00 3.395688e+00 3.066087e+00 2.447627e+00 2.266049e+00 2.174688e+00 2.478174e+00 1.241163e+00
<GCONST> 1.815671e+02
<MIXTURE> 2 4.837969e-01
<MEAN> 39
 -5.081042e+00 -5.259583e+00 6.969000e+00 -1.134562e+01 -1.400891e+01 -1.942114e+01 -1.199117e+01 -9.189750e+00 -9.448084e+00 -1.151258e+01 -9.593803e+00 -4.636054e+00 1.194216e+02 -3.384164e-01 -2.850387e+00 -3.934265e-01 -5.354080e+00 -5.193547e+00 -2.546023e+00 1.119896e+00 1.628438e+00 5.807716e-01 2.168864e+00 1.581833e+00 1.917439e+00 6.747771e+00 7.946057e-01 -5.558597e-01 3.809364e-01 -1.591541e+00 -1.519742e+00 -3.266759e-01 -1.242708e-01 -4.151431e-01 -8.223615e-02 5.302608e-01 -7.259200e-01 -1.304717e-01 8.990044e-01
<VARIANCE> 39
 8.282499e+01 8.715763e+01 1.172571e+02 1.531143e+02 2.233816e+02 2.484417e+02 1.575934e+02 1.343403e+02 1.475636e+02 1.439908e+02 1.482092e+02 1.084499e+02 1.281759e+02 7.868947e+00 9.497548e+00 1.569719e+01 1.726879e+01 2.272187e+01 1.839624e+01 1.957450e+01 2.022849e+01 1.888515e+01 1.699077e+01 1.402134e+01 1.317565e+01 1.507783e+01 1.530137e+00 1.536181e+00 2.456331e+00 2.412491e+00 2.885555e+00 3.322803e+00 3.344449e+00 2.741482e+00 2.505023e+00 2.531353e+00 2.630802e+00 2.281275e+00 1.418222e+00
<GCONST> 1.824792e+02
<STATE> 4
<NUMMIXES> 2
<MIXTURE> 1 4.977999e-01
<MEAN> 39
 2.378200e+00 -8.721313e+00 1.256709e+01 -1.132818e+01 -1.915806e+01 -2.807938e+01 -1.872644e+01 -7.375956e-01 -2.563344e+00 -1.945841e+00 -8.914445e-01 -4.116429e+00 1.291565e+02 1.293569e+00 -2.785115e+00 8.437118e-01 -2.823286e+00 -5.995878e+00 -3.274526e+00 -8.890685e-01 2.049563e+00 -3.049312e-01 9.956297e-01 1.824557e+00 1.000846e+00 4.505737e+00 1.785042e-01 4.198101e-01 3.508374e-01 2.362678e-01 2.164881e-01 1.396019e+00 6.243740e-01 -6.053454e-01 -5.289775e-01 1.391704e-01 -3.169346e-01 -6.376332e-01 -1.128398e+00
<VARIANCE> 39
 4.730654e+01 7.366762e+01 1.255638e+02 2.119150e+02 1.737202e+02 1.919638e+02 2.342491e+02 2.217284e+02 1.904761e+02 1.788647e+02 1.780569e+02 1.449090e+02 6.777333e+01 7.384794e+00 9.651833e+00 1.664726e+01 1.827221e+01 2.236147e+01 2.196285e+01 2.267362e+01 2.256228e+01 2.227078e+01 1.702091e+01 1.445877e+01 1.360577e+01 9.154642e+00 9.427346e-01 8.522162e-01 1.255477e+00 1.495695e+00 2.116143e+00 2.071130e+00 2.617076e+00 2.058033e+00 2.066579e+00 1.713224e+00 1.640426e+00 1.920402e+00 1.106932e+00
<GCONST> 1.780437e+02
<MIXTURE> 2 5.021985e-01
<MEAN> 39
 -1.824121e+00 -8.798895e+00 8.300024e+00 -1.995778e+01 -2.871469e+01 -2.717534e+01 -1.064285e+01 -8.324667e+00 -8.542690e+00 -8.802031e+00 -9.194117e+00 3.424555e-01 1.303679e+02 4.629140e-01 -2.937563e+00 9.255501e-01 -6.483667e+00 -6.420229e+00 -1.623715e+00 1.091635e+00 2.338818e-01 -3.262094e-01 2.553964e+00 8.786467e-02 8.033195e-01 6.224593e+00 3.442281e-01 2.009534e-01 4.789620e-01 -4.485815e-02 5.934254e-01 8.915630e-01 -4.018936e-01 -7.670125e-01 -3.374252e-01 6.141207e-02 -9.390888e-01 -8.931295e-01 -1.101890e+00
<VARIANCE> 39
 4.874957e+01 8.382938e+01 1.533136e+02 1.633231e+02 2.195099e+02 2.000415e+02 1.520510e+02 1.805566e+02 1.671720e+02 1.621183e+02 1.487273e+02 1.037019e+02 6.257356e+01 8.210461e+00 1.134039e+01 2.011294e+01 1.885968e+01 2.223764e+01 1.848797e+01 2.502872e+01 2.128641e+01 1.948525e+01 1.713351e+01 1.457222e+01 1.355429e+01 1.207608e+01 9.395360e-01 8.481730e-01 1.211080e+00 1.597493e+00 2.074647e+00 2.105713e+00 2.158421e+00 2.317451e+00 2.107688e+00 2.214661e+00 2.115831e+00 1.905461e+00 1.398406e+00
<GCONST> 1.781627e+02
<TRANSP> 5
 0.000000e+00 1.000000e+00 0.000000e+00 0.000000e+00 0.000000e+00
 0.000000e+00 6.172747e-01 3.827253e-01 0.000000e+00 0.000000e+00
 0.000000e+00 0.000000e+00 1.904414e-01 8.095586e-01 0.000000e+00
 0.000000e+00 0.000000e+00 0.000000e+00 1.016179e-01 8.983821e-01
 0.000000e+00 0.000000e+00 0.000000e+00 0.000000e+00 0.000000e+00
<ENDHMM>
~h "f"
<BEGINHMM>
<NUMSTATES> 5
<STATE> 2
<NUMMIXES> 2
<MIXTURE> 1 4.475820e-01
<MEAN> 39
 -8.154018e+00 -2.924632e+00 9.665342e+00 -3.558345e+00 -1.715347e+00 -3.135295e+00 -4.596351e+00 -2.007910e+00 -6.095250e+00 -5.375549e+00 -4.686916e+00 -4.152276e+00 1.139505e+02 -7.113968e+00 1.338784e-01 9.709010e-01 3.696652e+00 3.665610e+00 2.747905e+00 2.013527e+00 2.806113e+00 2.871733e+00 1.456591e+00 1.522488e+00 1.855041e+00 -2.693530e+00 -3.518274e-01 -1.412645e+00 -8.498518e-01 -1.270898e+00 -1.167389e+00 -7.321934e-01 -3.507087e-01 -3.214289e-02 7.571744e-02 3.464405e-01 1.675906e-01 8.156745e-02 8.791640e-01
<VARIANCE> 39
 1.263399e+02 6.523806e+01 9.940042e+01 8.205579e+01 9.182389e+01 1.132602e+02 9.725250e+01 1.074622e+02 1.103991e+02 1.087307e+02 1.070031e+02 7.308325e+01 1.040926e+02 1.376291e+01 1.115983e+01 1.556020e+01 1.550901e+01 1.654579e+01 1.704498e+01 1.550774e+01 1.703783e+01 1.484675e+01 1.328778e+01 1.476533e+01 1.039500e+01 7.351286e+00 2.316803e+00 1.297596e+00 1.586394e+00 2.034832e+00 2.040068e+00 2.078792e+00 2.130991e+00 2.305103e+00 2.157644e+00 1.879580e+00 1.827576e+00 1.707687e+00 7.242010e-01
<GCONST> 1.727844e+02
<MIXTURE> 2 5.524145e-01
<MEAN> 39
 -1.708897e+01 -6.471307e+00 1.021843e+01 -9.134340e-01 6.230541e-01 -1.638163e+00 -3.226043e+00 -1.289861e+00 -5.098106e+00 -5.218491e+00 -5.024436e+00 -3.731143e+00 1.090442e+02 -6.667917e+00 -2.589874e+00 -1.730441e+00 1.213705e+00 1.218877e+00 1.045618e+00 1.351501e+00 2.685976e+00 2.910465e+00 1.630410e+00 1.939048e+00 1.819072e+00 -1.254427e+00 9.677508e-01 -7.182790e-01 -8.292128e-01 -1.854560e+00 -1.614887e+00 -1.032619e+00 -8.454818e-01 -7.013469e-01 -5.161033e-01 9.658651e-02 -1.149364e-01 -7.131553e-03 1.058816e+00
<VARIANCE> 39
 7.756399e+01 4.667842e+01 8.724600e+01 6.308722e+01 8.680189e+01 9.527270e+01 9.232394e+01 1.088694e+02 1.050222e+02 9.297672e+01 8.545116e+01 7.085442e+01 6.534943e+01 9.892746e+00 7.557598e+00 1.197986e+01 1.209510e+01 1.438013e+01 1.246524e+01 1.146440e+01 1.420234e+01 1.177167e+01 1.098744e+01 1.170390e+01 9.125315e+00 5.756120e+00 1.709222e+00 1.388925e+00 1.743014e+00 2.044415e+00 2.203836e+00 2.116575e+00 2.095803e+00 2.504466e+00 2.208098e+00 2.169267e+00 1.891715e+00 1.758201e+00 8.298185e-01
<GCONST> 1.675661e+02
<STATE> 3
<NUMMIXES> 2
<MIXTURE> 1 5.224136e-01
<MEAN> 39
 -2.799894e+01 -1.433892e+01 2.466944e+00 -4.975161e+00 -2.270608e+00 -3.602601e+00 -4.963641e+00 7.176584e-01 -1.399160e+00 -1.686042e+00 -1.167160e+00 3.413193e-01 1.112751e+02 1.365604e-01 -5.745686e-01 -1.487852e-01 -2.417020e-01 -2.472706e-02 -8.541556e-03 3.260760e-01 4.767174e-01 3.142700e-01 4.050559e-01 4.840601e-01 3.700862e-01 6.509705e-01 1.594249e+00 4.593407e-01 4.490047e-01 -3.241074e-01 -3.381395e-01 -1.980708e-01 -2.361225e-02 -2.957059e-01 -4.918834e-01 -2.021897e-01 -1.284249e-01 -2.663425e-01 2.274540e-01
<VARIANCE> 39
 4.574607e+01 7.016492e+01 7.128194e+01 5.599229e+01 5.942512e+01 6.361969e+01 5.954070e+01 6.732565e+01 6.445947e+01 6.156692e+01 5.311770e+01 4.581952e+01 7.659272e+01 1.027831e+01 5.373583e+00 6.063591e+00 5.383533e+00 5.565769e+00 6.547470e+00 6.335491e+00 6.216796e+00 6.549035e+00 6.753822e+00 5.727185e+00 5.306635e+00 4.540415e+00 1.529711e+00 1.218309e+00 1.423898e+00 1.599823e+00 1.712795e+00 1.567384e+00 1.572198e+00 1.722430e+00 1.721489e+00 1.513668e+00 1.480046e+00 1.178035e+00 8.294205e-01
<GCONST> 1.532379e+02
<MIXTURE> 2 4.775551e-01
<MEAN> 39
 -2.791638e+01 -1.478854e+01 2.193277e+00 -6.288872e+00 -3.353306e+00 -3.854868e+00 -4.557007e+00 1.945218e-01 -2.114568e+00 -1.902722e+00 -4.299159e-01 7.314252e-01 1.096549e+02 1.432888e-01 -9.094241e-01 -8.135222e-01 -1.175414e+00 -1.010483e+00 -9.520860e-01 -7.846306e-01 -8.523993e-01 -7.552008e-01 -6.528789e-01 -5.334963e-01 -2.899638e-01 6.363378e-01 1.963590e+00 5.080374e-01 3.306363e-01 -6.908640e-01 -5.399704e-01 -4.103732e-01 -3.503706e-01 -6.733722e-01 -7.028977e-01 -3.680932e-01 -6.454216e-01 -5.668833e-01 5.587764e-01
<VARIANCE> 39
 4.050725e+01 4.580365e+01 6.240575e+01 4.784489e+01 5.928623e+01 6.351650e+01 6.326030e+01 6.897943e+01 6.494381e+01 6.371107e+01 5.668817e+01 4.830999e+01 6.676696e+01 1.396449e+01 5.036096e+00 6.906518e+00 5.764175e+00 6.151724e+00 6.539479e+00 6.550069e+00 7.125266e+00 7.004555e+00 6.737860e+00 6.580850e+00 5.991297e+00 5.269447e+00 1.634066e+00 1.154538e+00 1.561704e+00 2.229871e+00 1.962789e+00 1.887825e+00 1.864733e+00 2.296077e+00 1.952818e+00 1.689494e+00 1.802045e+00 1.430005e+00 9.624026e-01
<GCONST> 1.556780e+02
<STATE> 4
<NUMMIXES> 2
<MIXTURE> 1 5.336480e-01
<MEAN> 39
 -1.049801e+01 -1.092728e+01 3.522663e+00 -1.029094e+01 -4.110836e+00 -4.883941e+00 -4.432878e+00 -1.723079e-01 -3.850592e+00 -2.808651e+00 -1.794707e+00 -7.742352e-01 1.160801e+02 9.845734e+00 2.193458e+00 1.176511e+00 -4.119590e+00 -4.480361e+00 -1.754912e+00 -5.748655e-01 -1.147851e+00 -3.088194e+00 -2.617171e-01 1.034337e+00 -9.168072e-01 2.239032e+00 2.811381e-01 -4.196213e-01 8.154459e-02 -7.005848e-01 -1.065452e+00 -3.407945e-01 -5.217842e-01 -3.240871e-01 -5.482008e-01 3.942886e-01 5.766353e-01 -2.477061e-01 6.410420e-01
<VARIANCE> 39
 1.982712e+02 7.708694e+01 1.207754e+02 1.402252e+02 9.697456e+01 1.216888e+02 8.249291e+01 8.702259e+01 8.597520e+01 7.384591e+01 6.588615e+01 5.230548e+01 7.346606e+01 8.523643e+00 1.390792e+01 2.114547e+01 2.596753e+01 1.374948e+01 2.003516e+01 1.518591e+01 1.427081e+01 1.588986e+01 1.337971e+01 1.359807e+01 1.016424e+01 5.490534e+00 3.351043e+00 2.064800e+00 1.724297e+00 2.665441e+00 2.285771e+00 2.226949e+00 2.444002e+00 2.215423e+00 2.496213e+00 2.178934e+00 2.099105e+00 1.715842e+00 9.592102e-01
<GCONST> 1.742828e+02
<MIXTURE> 2 4.663512e-01
<MEAN> 39
 -1.675414e+01 -1.311768e+01 5.063987e+00 -9.105315e+00 -5.955881e+00 -6.252271e+00 -4.047305e+00 -2.797698e+00 -6.739707e+00 -5.679578e+00 -3.851075e+00 -2.631944e+00 1.124852e+02 9.352165e+00 9.421297e-01 -7.943965e-02 -7.463452e+00 -4.847662e+00 -3.073199e+00 -2.983446e+00 -4.821041e+00 -4.094471e+00 -1.117751e+00 -4.107433e+00 -2.852826e+00 3.471308e+00 8.388410e-01 -1.467022e-01 -2.722192e-01 -1.942857e+00 -1.055062e+00 -4.148556e-01 -9.786199e-01 -8.091432e-01 -3.107101e-01 5.187770e-01 -7.858185e-01 -2.676459e-01 1.026501e+00
<VARIANCE> 39
 1.442063e+02 5.302113e+01 1.410549e+02 1.141972e+02 1.028007e+02 1.019363e+02 9.687662e+01 1.101724e+02 9.076221e+01 7.637722e+01 7.072803e+01 5.787622e+01 6.151532e+01 6.836872e+00 1.301960e+01 2.998015e+01 2.215556e+01 1.754075e+01 1.708237e+01 1.554714e+01 1.710583e+01 1.505920e+01 1.349159e+01 1.179409e+01 8.898366e+00 7.472992e+00 2.661451e+00 1.928503e+00 1.848774e+00 3.411470e+00 2.441008e+00 2.849564e+00 2.641611e+00 3.272330e+00 2.878395e+00 2.614455e+00 2.421885e+00 1.912808e+00 1.025560e+00
<GCONST> 1.755217e+02
<TRANSP> 5
 0.000000e+00 1.000000e+00 0.000000e+00 0.000000e+00 0.000000e+00
 0.000000e+00 5.974831e-01 4.025169e-01 0.000000e+00 0.000000e+00
 0.000000e+00 0.000000e+00 8.365368e-01 1.634632e-01 0.000000e+00
 0.000000e+00 0.000000e+00 0.000000e+00 4.695599e-01 5.304401e-01
 0.000000e+00 0.000000e+00 0.000000e+00 0.000000e+00 0.000000e+00
<ENDHMM>
~h "g"
<BEGINHMM>
<NUMSTATES> 5
<STATE> 2
<NUMMIXES> 2
<MIXTURE> 1 4.873510e-01
<MEAN> 39
 3.990010e+00 -5.565842e+00 1.012319e+01 -8.146896e+00 -8.552176e+00 -1.250541e+01 -1.412807e+01 -7.800090e+00 -1.135119e+01 -8.867339e-01 -2.693842e+00 -6.183864e+00 1.118879e+02 7.466678e-02 1.739731e+00 -1.350934e-01 4.135240e-01 9.727621e-01 1.116418e+00 1.170544e+00 -4.979083e-01 -1.178687e+00 -2.001009e-01 5.729474e-01 9.755815e-01 -1.945993e+00 8.709258e-02 -5.263342e-01 -1.961979e-01 -8.573725e-01 -9.982935e-01 -2.316069e-01 2.222478e-01 3.307030e-01 1.160191e-01 -5.618127e-02 -6.614728e-02 -1.433711e-02 1.085361e+00
<VARIANCE> 39
 8.895100e+01 1.068701e+02 1.567133e+02 2.218913e+02 2.269913e+02 2.710052e+02 2.519158e+02 2.460071e+02 1.822394e+02 1.951616e+02 2.619001e+02 1.352826e+02 1.544810e+02 6.927219e+00 9.847241e+00 1.321370e+01 1.960710e+01 2.160927e+01 2.006870e+01 1.964649e+01 1.736448e+01 1.685084e+01 1.595008e+01 1.345139e+01 1.193154e+01 1.407317e+01 1.238048e+00 1.675315e+00 2.117152e+00 2.955442e+00 3.563325e+00 3.442149e+00 3.671322e+00 3.228754e+00 2.920177e+00 2.606658e+00 2.906384e+00 2.447755e+00 1.764270e+00
<GCONST> 1.864526e+02
<MIXTURE> 2 5.126510e-01
<MEAN> 39
 -1.539358e+00 -6.017353e+00 6.543633e+00 -8.809330e+00 -5.551120e+00 -8.841399e+00 -1.088924e+01 -1.325303e+01 -1.256470e+01 -3.304414e+00 -1.013264e+01 -5.125515e+00 1.077228e+02 3.760447e-02 -3.280109e-01 -2.154795e+00 -1.262911e+00 1.440190e+00 -1.454707e-01 1.666944e-01 9.297046e-01 -8.338754e-01 7.349400e-01 1.700782e-01 4.348309e-01 7.021590e-01 7.859244e-01 -3.306695e-01 -7.596678e-02 -1.629382e+00 -1.750051e+00 -7.237437e-01 -3.743940e-01 1.036695e-01 7.819827e-03 2.104201e-01 -1.293420e-01 4.988200e-02 1.609311e+00
<VARIANCE> 39
 1.020183e+02 1.101272e+02 2.267095e+02 2.189815e+02 3.228221e+02 2.425726e+02 2.095952e+02 2.155706e+02 1.532208e+02 1.783727e+02 1.873312e+02 1.085227e+02 1.524412e+02 9.132464e+00 1.345629e+01 2.002763e+01 2.641849e+01 2.682253e+01 2.306355e+01 2.161243e+01 2.052124e+01 1.830312e+01 2.004211e+01 1.570612e+01 1.104050e+01 1.780657e+01 1.755209e+00 2.523850e+00 3.717815e+00 4.143865e+00 5.706787e+00 4.069134e+00 3.543434e+00 3.543259e+00 3.250754e+00 3.761573e+00 3.334218e+00 2.703000e+00 2.242900e+00
<GCONST> 1.919191e+02
<STATE> 3
<NUMMIXES> 2
<MIXTURE> 1 5.019886e-01
<MEAN> 39
 7.109942e+00 -4.220827e+00 9.775975e+00 -1.183174e+01 -1.391600e+01 -1.656824e+01 -1.343052e+01 -4.913559e+00 -1.403256e+01 -6.929497e-01 -5.550666e-01 -2.144133e+00 1.153912e+02 9.211808e-01 5.590745e-02 1.121538e-01 -1.663062e+00 -2.849903e+00 -1.253471e+00 2.795581e-01 3.017347e-01 -3.826612e-01 2.918206e-01 7.106549e-01 5.091809e-01 1.563259e+00 1.642861e-01 -9.462976e-01 -2.585489e-01 -5.776798e-01 -6.110727e-01 3.082872e-02 -8.113738e-02 3.779241e-01 6.206563e-01 2.782235e-02 -5.415224e-02 -7.174419e-01 1.071051e+00
<VARIANCE> 39
 5.329990e+01 1.127337e+02 1.391897e+02 2.381958e+02 2.064262e+02 3.063950e+02 2.017797e+02 2.443416e+02 2.280776e+02 1.989308e+02 2.485056e+02 1.406510e+02 1.104447e+02 5.204788e+00 8.786171e+00 8.521425e+00 1.807197e+01 1.802020e+01 1.458181e+01 1.577122e+01 1.741228e+01 1.461381e+01 1.457595e+01 1.524642e+01 1.189112e+01 1.018972e+01 5.839562e-01 1.319317e+00 1.598330e+00 2.055491e+00 2.533849e+00 3.001655e+00 3.026050e+00 2.547375e+00 2.795509e+00 2.658474e+00 2.226223e+00 2.296510e+00 1.601291e+00
<GCONST> 1.805739e+02
<MIXTURE> 2 4.980124e-01
<MEAN> 39
 3.013322e+00 -3.994068e+00 6.210107e+00 -1.381147e+01 -1.211663e+01 -1.532571e+01 -1.291187e+01 -1.372480e+01 -1.586991e+01 -5.451980e-01 -1.031511e+01 -3.802171e+00 1.127526e+02 1.213154e+00 -7.833261e-01 -1.328984e+00 -3.631960e+00 -2.433895e+00 -1.483674e+00 1.338272e-01 1.126107e+00 -3.838310e-01 8.105944e-01 -1.763796e-01 1.135677e-01 3.005203e+00 4.235660e-01 -9.698859e-01 -2.376338e-01 -1.229752e+00 -1.145912e+00 -1.064780e-01 -1.120984e-01 3.544104e-01 4.631628e-01 -1.613894e-01 -1.920945e-01 -3.131337e-01 1.415340e+00
<VARIANCE> 39
 7.392122e+01 9.258878e+01 1.890861e+02 1.893740e+02 2.956886e+02 2.644577e+02 2.077491e+02 2.402184e+02 1.625636e+02 2.158920e+02 2.325847e+02 1.280071e+02 1.123489e+02 7.886217e+00 1.006452e+01 1.249941e+01 2.491984e+01 2.163113e+01 1.729277e+01 1.812102e+01 2.109464e+01 1.663155e+01 1.756278e+01 1.656869e+01 1.149656e+01 1.239951e+01 1.047409e+00 1.719948e+00 2.084062e+00 2.841940e+00 3.644556e+00 3.383685e+00 3.785068e+00 3.244421e+00 3.023239e+00 3.535753e+00 2.546172e+00 2.745285e+00 1.972777e+00
<GCONST> 1.863790e+02
<STATE> 4
<NUMMIXES> 2
<MIXTURE> 1 4.980337e-01
<MEAN> 39
 8.504486e+00 -7.275538e+00 1.071046e+01 -1.730680e+01 -2.474643e+01 -2.066094e+01 -1.185425e+01 1.947708e+00 -1.312687e+01 -1.488359e+00 1.547515e+00 -6.708628e+00 1.236578e+02 7.347149e-01 -1.424958e+00 -6.946785e-01 -1.409435e+00 -1.514433e+00 1.035377e-01 -3.125395e-01 8.063551e-01 1.068172e+00 -1.086600e-01 6.513239e-01 -1.157769e+00 1.923748e+00 -4.807977e-02 -1.486786e-01 -1.284522e-01 4.420163e-01 1.042657e+00 6.942077e-01 -2.050937e-01 -3.358922e-01 3.904762e-01 -1.297935e-01 -2.232386e-01 -1.222901e-01 -5.331903e-01
<VARIANCE> 39
 4.997169e+01 1.876943e+02 1.360943e+02 2.776676e+02 2.308094e+02 3.390926e+02 1.994160e+02 3.300528e+02 2.312540e+02 1.707444e+02 2.982916e+02 2.390893e+02 1.163717e+02 2.689867e+00 6.286300e+00 6.661067e+00 1.278580e+01 1.499313e+01 1.059699e+01 1.212356e+01 1.402582e+01 1.311813e+01 1.094634e+01 1.098166e+01 1.006858e+01 6.166684e+00 4.280432e-01 1.063702e+00 1.078272e+00 1.728415e+00 2.546664e+00 1.981122e+00 2.088240e+00 2.408016e+00 1.779522e+00 1.954314e+00 2.065515e+00 1.950060e+00 1.606143e+00
<GCONST> 1.753925e+02
<MIXTURE> 2 5.019666e-01
<MEAN> 39
 7.274704e+00 -5.616941e+00 3.557211e+00 -2.399709e+01 -2.091920e+01 -1.707399e+01 -1.258503e+01 -9.686981e+00 -1.699607e+01 1.298292e+00 -7.784575e+00 -4.959343e+00 1.211899e+02 1.470755e+00 -1.892973e+00 -1.550150e+00 -3.941298e+00 -2.800040e+00 -9.008138e-01 -1.180246e-01 1.124285e+00 4.833726e-01 2.200949e-01 -1.872617e-01 -9.225639e-01 3.815075e+00 -1.084473e-01 -4.670868e-01 2.328297e-02 5.479380e-01 5.717895e-01 5.975645e-01 -8.706452e-02 1.249452e-02 4.829951e-01 -5.472670e-01 -1.012282e-01 -2.469723e-01 -2.102848e-01
<VARIANCE> 39
 6.927872e+01 1.399377e+02 1.967520e+02 2.568351e+02 2.851563e+02 2.792366e+02 2.345441e+02 3.191803e+02 2.242617e+02 2.310906e+02 3.766735e+02 1.480629e+02 1.219818e+02 6.671172e+00 1.009335e+01 1.046724e+01 2.305895e+01 2.286036e+01 1.611253e+01 1.705045e+01 1.910706e+01 1.965653e+01 1.661217e+01 1.528317e+01 1.468611e+01 8.930943e+00 7.546448e-01 1.263674e+00 1.422796e+00 2.485188e+00 3.585555e+00 2.730895e+00 2.804703e+00 3.185384e+00 2.508234e+00 3.017339e+00 2.714976e+00 1.935593e+00 1.821274e+00
<GCONST> 1.855365e+02
<TRANSP> 5
 0.000000e+00 1.000000e+00 0.000000e+00 0.000000e+00 0.000000e+00
 0.000000e+00 5.258453e-01 4.741547e-01 0.000000e+00 0.000000e+00
 0.000000e+00 0.000000e+00 2.843975e-01 7.156025e-01 0.000000e+00
 0.000000e+00 0.000000e+00 0.000000e+00 4.359244e-01 5.640756e-01
 0.000000e+00 0.000000e+00 0.000000e+00 0.000000e+00 0.000000e+00
<ENDHMM>
~h "k"
<BEGINHMM>
<NUMSTATES> 5
<STATE> 2
<NUMMIXES> 2
<MIXTURE> 1 4.867322e-01
<MEAN> 39
 -3.949017e+00 -4.764845e+00 1.323865e+01 -1.903126e+00 -7.568180e+00 -1.247894e+01 -5.890426e+00 -4.403572e+00 -7.697279e+00 -2.482052e+00 -5.167722e+00 -3.711841e+00 1.044841e+02 -3.526974e+00 3.259611e-02 -4.522415e-01 3.753671e+00 4.277003e+00 4.344413e+00 2.849401e+00 1.334345e+00 3.685957e+00 1.108291e+00 1.860296e+00 1.294592e+00 -7.138679e+00 -3.772441e-01 -1.530751e+00 -1.198756e+00 -1.754925e+00 -8.096381e-01 -4.195740e-03 -3.325291e-02 3.586666e-01 1.723702e-01 7.893868e-02 2.557995e-01 1.321146e-01 1.433811e+00
<VARIANCE> 39
 7.515479e+01 7.389391e+01 1.497034e+02 1.467428e+02 2.031616e+02 2.102491e+02 1.559316e+02 2.150563e+02 1.607883e+02 1.590519e+02 1.841682e+02 1.000547e+02 7.800957e+01 7.113311e+00 1.055436e+01 1.541762e+01 1.856034e+01 2.031703e+01 1.694151e+01 1.636522e+01 2.321174e+01 1.710034e+01 1.594471e+01 2.259282e+01 1.208775e+01 9.201567e+00 1.009896e+00 1.392214e+00 1.766125e+00 2.022527e+00 2.568855e+00 2.909564e+00 2.764152e+00 2.805447e+00 2.942950e+00 2.725771e+00 2.426279e+00 1.953337e+00 1.768850e+00
<GCONST> 1.807826e+02
<MIXTURE> 2 5.132502e-01
<MEAN> 39
 -7.935174e+00 -5.736094e+00 1.230471e+01 -1.857311e+00 -4.740164e+00 -5.511917e+00 -3.360312e+00 -5.588366e+00 -5.094808e+00 -2.235565e+00 -4.432453e+00 -4.470055e+00 9.677302e+01 -3.397366e+00 -2.345136e+00 -1.957242e+00 1.437364e+00 2.081889e+00 2.170853e+00 1.689419e+00 1.602608e+00 2.792871e+00 2.690161e-01 1.683391e+00 9.326490e-01 -4.103616e+00 1.871381e-01 -1.169250e+00 -1.264240e+00 -2.138162e+00 -9.762747e-01 -7.196337e-01 -5.517444e-01 9.441930e-02 -7.539705e-01 3.409601e-01 -1.023349e-01 3.072627e-01 2.395172e+00
<VARIANCE> 39
 5.757196e+01 6.042620e+01 1.159549e+02 1.046528e+02 1.200516e+02 1.379418e+02 1.197430e+02 1.615561e+02 1.227663e+02 1.290707e+02 1.284472e+02 9.327192e+01 4.488867e+01 6.846608e+00 7.979407e+00 1.514213e+01 1.672439e+01 1.718870e+01 1.494785e+01 1.407499e+01 1.663613e+01 1.595283e+01 1.380941e+01 1.497182e+01 1.029931e+01 1.005286e+01 1.003052e+00 1.322278e+00 2.267270e+00 2.301570e+00 2.707616e+00 2.571306e+00 2.470281e+00 2.786174e+00 2.779655e+00 2.780830e+00 2.614745e+00 2.059421e+00 1.656391e+00
<GCONST> 1.750045e+02
<STATE> 3
<NUMMIXES> 2
<MIXTURE> 1 5.019719e-01
<MEAN> 39
 -1.431505e+01 -1.284306e+01 4.934299e+00 -4.752272e+00 -3.392556e+00 -2.496836e+00 -9.337392e-01 -2.865174e+00 -7.631242e-01 -6.553584e-01 -6.818021e-01 8.995365e-02 9.237180e+01 -1.161056e+00 -2.056546e+00 -2.949842e+00 -2.094065e+00 6.176339e-01 2.887519e-01 3.593095e-01 1.034477e+00 -1.678775e-01 1.001786e+00 5.652431e-01 1.153244e+00 1.743416e+00 8.256444e-01 3.571016e-01 -1.366194e-01 -9.574201e-01 -5.069317e-01 -7.689991e-01 -4.982863e-01 -1.838120e-01 -9.228948e-01 -1.601482e-02 -4.997230e-01 -1.829655e-01 2.079464e+00
<VARIANCE> 39
 3.118619e+01 4.314954e+01 6.206944e+01 7.520096e+01 8.995449e+01 9.312179e+01 8.096039e+01 9.889053e+01 8.791267e+01 8.769912e+01 7.939957e+01 6.169602e+01 5.229580e+01 7.552037e+00 8.410848e+00 1.583969e+01 1.752776e+01 1.417473e+01 1.599586e+01 1.249124e+01 1.427224e+01 1.529666e+01 1.326013e+01 1.125226e+01 8.988794e+00 1.882197e+01 1.305729e+00 1.435370e+00 2.464706e+00 2.422239e+00 2.714186e+00 2.525483e+00 2.152381e+00 2.677187e+00 2.532034e+00 2.382951e+00 2.265248e+00 1.632730e+00 1.727656e+00
<GCONST> 1.697473e+02
<MIXTURE> 2 4.979888e-01
<MEAN> 39
 -1.428551e+01 -1.307834e+01 4.915293e+00 -5.117834e+00 -4.167089e+00 -2.887722e+00 -1.007716e+00 -3.381960e+00 -1.115258e+00 -8.853184e-01 -9.130127e-01 1.039299e-01 9.221769e+01 -9.286868e-01 -2.198199e+00 -3.163881e+00 -2.294982e+00 5.727098e-01 -2.616279e-01 -4.451551e-01 2.032394e-01 -1.112182e+00 2.464006e-01 -6.032584e-01 4.653702e-01 2.275244e+00 1.014043e+00 3.943272e-01 -2.933016e-01 -1.211670e+00 -4.345255e-01 -7.902187e-01 -6.097160e-01 -2.377589e-01 -1.043007e+00 5.817751e-02 -6.533479e-01 -2.711660e-01 2.277798e+00
<VARIANCE> 39
 2.881621e+01 3.951991e+01 6.003652e+01 6.986173e+01 8.857738e+01 9.226749e+01 8.316628e+01 1.007084e+02 8.999554e+01 9.167719e+01 7.984383e+01 6.509226e+01 4.456469e+01 7.064949e+00 8.802014e+00 1.614568e+01 1.689585e+01 1.558430e+01 1.540978e+01 1.296941e+01 1.485852e+01 1.449958e+01 1.322630e+01 1.094860e+01 9.347729e+00 1.871819e+01 1.250315e+00 1.354866e+00 2.560342e+00 2.616252e+00 2.984673e+00 2.550941e+00 2.268995e+00 2.942838e+00 2.814683e+00 2.555816e+00 2.482986e+00 1.795641e+00 1.581838e+00
<GCONST> 1.700487e+02
<STATE> 4
<NUMMIXES> 2
<MIXTURE> 1 5.490938e-01
<MEAN> 39
 -1.270528e+01 -1.629419e+01 -7.686479e+00 -1.930500e+01 -1.122448e+00 -4.632587e+00 -4.601249e+00 1.418963e+00 -9.434093e+00 3.292389e+00 -6.525642e-01 8.941264e-01 1.125570e+02 2.616416e+00 2.112436e+00 7.788388e-01 -1.984520e+00 -2.114971e+00 -1.155136e+00 -4.683346e-01 2.608855e-01 -1.135007e+00 -1.659880e-01 8.440766e-01 -2.690209e-01 4.233721e+00 1.243561e+00 9.609981e-01 1.829295e+00 7.080652e-01 -1.234113e+00 -3.501116e-01 -7.501534e-02 -6.466851e-01 2.393191e-01 -6.615794e-01 1.069176e-01 -6.087494e-01 -5.212260e-01
<VARIANCE> 39
 1.509079e+02 1.363658e+02 2.297224e+02 2.891204e+02 2.182639e+02 2.302582e+02 1.669685e+02 1.620750e+02 1.814728e+02 1.493506e+02 1.464043e+02 9.361857e+01 1.120381e+02 2.020399e+01 1.217903e+01 2.567643e+01 2.002908e+01 2.303728e+01 1.903005e+01 1.400498e+01 1.834701e+01 1.574487e+01 1.534075e+01 1.373738e+01 1.173264e+01 1.292511e+01 2.285684e+00 3.289973e+00 3.903832e+00 4.073206e+00 4.094422e+00 4.052828e+00 3.804406e+00 3.578522e+00 3.793000e+00 3.137099e+00 3.220367e+00 2.571579e+00 1.911547e+00
<GCONST> 1.901471e+02
<MIXTURE> 2 4.508685e-01
<MEAN> 39
 -1.128966e+01 -1.559818e+01 -7.773549e+00 -1.872047e+01 -9.823031e-01 -6.582655e+00 -3.336560e+00 -3.324220e+00 -9.165768e+00 4.000444e+00 -6.168092e+00 2.865553e+00 1.135003e+02 4.692663e+00 1.807614e+00 3.894208e-02 -5.281357e+00 -3.501204e+00 -2.335646e+00 -2.226588e+00 -1.805519e+00 -3.303398e+00 -5.490776e-01 -2.597523e+00 -1.996818e+00 5.851949e+00 1.165434e+00 3.295933e-01 1.123291e+00 -3.786305e-01 -1.367987e+00 -1.753998e-01 -4.461670e-01 -4.925579e-01 -8.808456e-02 -8.021032e-01 -1.555741e-01 -1.057280e+00 -1.508592e-01
<VARIANCE> 39
 1.451523e+02 1.416902e+02 2.577868e+02 2.322392e+02 2.743324e+02 2.020042e+02 1.627523e+02 2.011909e+02 1.831779e+02 1.549212e+02 1.211354e+02 9.453140e+01 1.075082e+02 1.065309e+01 1.141000e+01 2.370182e+01 2.018822e+01 2.687771e+01 1.789542e+01 1.736079e+01 2.064582e+01 1.676435e+01 1.846011e+01 1.486247e+01 1.351551e+01 1.152853e+01 2.117171e+00 3.355586e+00 3.660367e+00 3.752688e+00 4.839633e+00 3.975383e+00 3.745428e+00 3.901921e+00 3.842249e+00 3.580889e+00 2.949787e+00 2.759009e+00 1.891745e+00
<GCONST> 1.902909e+02
<TRANSP> 5
 0.000000e+00 1.000000e+00 0.000000e+00 0.000000e+00 0.000000e+00
 0.000000e+00 5.373365e-01 4.626635e-01 0.000000e+00 0.000000e+00
 0.000000e+00 0.000000e+00 6.962305e-01 3.037695e-01 0.000000e+00
 0.000000e+00 0.000000e+00 0.000000e+00 6.582176e-01 3.417824e-01
 0.000000e+00 0.000000e+00 0.000000e+00 0.000000e+00 0.000000e+00
<ENDHMM>
~h "l"
<BEGINHMM>
<NUMSTATES> 5
<STATE> 2
<NUMMIXES> 2
<MIXTURE> 1 5.124164e-01
<MEAN> 39
 -4.438314e-01 -9.178127e+00 1.394009e+01 -7.772107e+00 -1.252485e+01 -1.512936e+01 -1.892816e+01 -9.380875e+00 -2.988776e+00 -3.766080e+00 -4.316557e+00 -6.450204e+00 1.148395e+02 3.608570e-01 2.695826e+00 2.601160e+00 7.593340e-01 7.849971e-01 4.034640e-01 -2.515272e+00 -2.775553e+00 -2.892831e-01 -3.370697e-01 -5.011362e-01 -1.747365e-01 -6.915975e-01 1.876557e-01 -4.280357e-01 -4.120619e-01 -7.897234e-01 -3.714435e-01 2.123583e-01 3.872803e-01 5.011482e-01 -1.336765e-01 1.514515e-01 -1.042351e-01 -2.321958e-02 5.644593e-01
<VARIANCE> 39
 1.211578e+02 8.789789e+01 1.474118e+02 1.514852e+02 1.776808e+02 2.359626e+02 2.652960e+02 2.109211e+02 1.746887e+02 1.796770e+02 1.823325e+02 1.565539e+02 2.361837e+02 9.472841e+00 7.198164e+00 9.604150e+00 1.340070e+01 1.616869e+01 1.897613e+01 2.026709e+01 2.079210e+01 1.508956e+01 1.495625e+01 1.356339e+01 1.311032e+01 1.224716e+01 1.202071e+00 1.598539e+00 1.671368e+00 2.147136e+00 2.493166e+00 3.398853e+00 3.950716e+00 3.041098e+00 2.652696e+00 2.594248e+00 2.464878e+00 2.041751e+00 1.118409e+00
<GCONST> 1.827837e+02
<MIXTURE> 2 4.875778e-01
<MEAN> 39
 6.087320e-02 -1.016277e+01 1.506251e+01 -1.689702e+01 -2.025146e+01 -2.121856e+01 -2.486226e+01 -1.145109e+01 -4.417517e+00 -1.236270e+01 -1.271348e+01 -7.090863e-01 1.202347e+02 8.506177e-01 2.250833e+00 3.070685e+00 -8.514855e-01 -5.265262e-01 -1.029709e+00 -4.348165e+00 -2.501766e+00 4.031731e-01 -1.066691e+00 -1.660910e+00 1.004961e+00 1.745772e-01 -9.244253e-02 -6.455241e-01 -8.999973e-01 -5.817586e-01 4.825998e-02 8.244836e-01 9.970437e-01 3.971012e-01 -2.302814e-01 6.343399e-01 2.597354e-02 -4.950639e-01 3.807162e-01
<VARIANCE> 39
 8.680286e+01 1.133088e+02 1.547015e+02 2.011208e+02 2.066424e+02 2.556957e+02 2.709480e+02 2.208229e+02 2.139751e+02 2.404975e+02 1.772501e+02 1.413855e+02 1.908710e+02 1.002905e+01 8.533155e+00 1.099643e+01 1.959536e+01 1.941193e+01 2.388963e+01 2.051230e+01 2.037974e+01 1.784212e+01 1.736712e+01 1.473493e+01 1.485748e+01 1.693184e+01 1.174111e+00 1.862076e+00 1.737964e+00 2.724140e+00 2.687346e+00 3.952451e+00 3.914671e+00 3.351567e+00 3.085671e+00 3.229842e+00 2.588071e+00 2.258997e+00 1.325080e+00
<GCONST> 1.868918e+02
<STATE> 3
<NUMMIXES> 2
<MIXTURE> 1 5.004557e-01
<MEAN> 39
 3.800446e+00 -6.328909e+00 1.991542e+01 -1.164096e+01 -1.572879e+01 -1.470179e+01 -2.741789e+01 -1.469855e+01 -4.324515e+00 -1.839984e+00 -6.788859e+00 -9.071905e+00 1.200139e+02 -1.662926e-01 4.383397e-01 1.606234e-01 3.279176e-01 4.706323e-01 8.677490e-01 5.314019e-01 -1.638387e-01 -5.065014e-01 2.805921e-01 4.784715e-01 -2.144639e-01 -5.782647e-01 -7.940040e-02 -9.456406e-01 -1.221542e+00 -3.465020e-01 -2.073817e-01 -1.396507e-01 1.381029e+00 1.539652e+00 1.026962e-01 1.013985e-01 2.917851e-01 2.287594e-01 4.534698e-01
<VARIANCE> 39
 5.503456e+01 9.381486e+01 1.713109e+02 1.842486e+02 2.125645e+02 2.245387e+02 2.484992e+02 2.684301e+02 2.245110e+02 2.468222e+02 2.603493e+02 2.173853e+02 8.768509e+01 4.713135e+00 5.870350e+00 7.496230e+00 1.243262e+01 1.058006e+01 1.256099e+01 1.398557e+01 1.538560e+01 1.162643e+01 1.067382e+01 9.766018e+00 9.107094e+00 7.851742e+00 8.532346e-01 1.333741e+00 1.652248e+00 2.323852e+00 3.081855e+00 3.335850e+00 3.194762e+00 3.844618e+00 3.064811e+00 2.918533e+00 2.980577e+00 2.606378e+00 1.000369e+00
<GCONST> 1.788480e+02
<MIXTURE> 2 4.995374e-01
<MEAN> 39
 1.567587e+00 -8.450590e+00 1.860793e+01 -2.287953e+01 -2.348046e+01 -2.009229e+01 -3.249431e+01 -1.592383e+01 -2.708554e+00 -1.107131e+01 -1.750986e+01 2.076932e-01 1.241768e+02 2.241297e-01 -3.899625e-01 -3.701600e-01 -7.633110e-01 2.519064e-02 4.302711e-01 -3.272487e-01 1.213826e-01 5.818580e-02 6.317670e-01 -5.304198e-01 -5.465377e-01 4.364932e-01 -7.866006e-04 -1.188940e+00 -1.565663e+00 6.073483e-02 5.626699e-03 2.825633e-01 2.095415e+00 1.427698e+00 -5.390492e-01 4.001170e-01 5.214483e-01 -6.936182e-01 5.813675e-01
<VARIANCE> 39
 5.834747e+01 1.052079e+02 1.629662e+02 1.911281e+02 2.075296e+02 2.292635e+02 2.417637e+02 2.662202e+02 2.556481e+02 2.838557e+02 2.149573e+02 1.913764e+02 6.848363e+01 3.082454e+00 5.731699e+00 7.415350e+00 1.068148e+01 7.676874e+00 9.157134e+00 1.372490e+01 1.445893e+01 1.097722e+01 9.484058e+00 9.124434e+00 7.798181e+00 6.263868e+00 7.686664e-01 1.534640e+00 1.624620e+00 2.465187e+00 2.693859e+00 3.042329e+00 3.933784e+00 3.500613e+00 3.104034e+00 3.288549e+00 2.726760e+00 2.480967e+00 9.727623e-01
<GCONST> 1.766504e+02
<STATE> 4
<NUMMIXES> 2
<MIXTURE> 1 4.913282e-01
<MEAN> 39
 1.745020e+00 -6.630287e+00 1.781572e+01 -7.144252e+00 -1.334711e+01 -1.485218e+01 -2.066811e+01 -1.221947e+01 -6.414842e+00 -4.105932e+00 -4.918554e+00 -7.447520e+00 1.172072e+02 -5.699732e-01 -8.248235e-01 -1.974387e+00 5.957885e-01 8.185287e-01 7.728946e-01 3.244088e+00 2.667260e+00 -3.162782e-01 7.111568e-01 1.431401e+00 3.399822e-01 -6.961482e-01 -1.549335e-01 -5.176215e-01 -6.609718e-01 -7.423554e-01 -1.977578e-01 1.900878e-01 6.354191e-01 6.530671e-01 2.862724e-01 2.588513e-01 1.944597e-02 2.408485e-01 1.950660e-01
<VARIANCE> 39
 8.702029e+01 1.055670e+02 1.526797e+02 1.722679e+02 1.880844e+02 1.957628e+02 2.125398e+02 2.379300e+02 1.886110e+02 1.905159e+02 2.000247e+02 1.494711e+02 1.278443e+02 8.538900e+00 1.156504e+01 1.162404e+01 2.331964e+01 2.616014e+01 2.571091e+01 2.140527e+01 2.330989e+01 1.913840e+01 1.805608e+01 1.614992e+01 1.532503e+01 1.834713e+01 1.163250e+00 1.697976e+00 1.817976e+00 2.528740e+00 3.069747e+00 3.011622e+00 3.253507e+00 3.453103e+00 2.794544e+00 2.587389e+00 2.537614e+00 2.072734e+00 1.313032e+00
<GCONST> 1.859154e+02
<MIXTURE> 2 5.086681e-01
<MEAN> 39
 3.010152e+00 -1.150091e+01 1.465652e+01 -2.185900e+01 -2.047602e+01 -1.994758e+01 -2.913114e+01 -1.042187e+01 -4.126715e+00 -7.445237e+00 -1.263636e+01 -3.352246e+00 1.255857e+02 7.211924e-01 -3.658568e+00 -4.215530e+00 -1.784874e+00 -5.803388e-01 2.584148e-01 4.242080e+00 4.207689e+00 -5.865840e-01 1.111939e+00 -2.330510e-01 -1.470598e+00 3.016715e+00 -9.607814e-02 -7.209253e-01 -1.184205e+00 -5.131416e-02 2.168652e-01 6.576031e-01 1.712280e+00 3.906783e-01 -2.865086e-01 -1.032322e-01 -1.186085e-01 -2.863418e-01 3.924352e-01
<VARIANCE> 39
 5.883735e+01 1.103340e+02 1.650766e+02 1.994327e+02 2.042153e+02 2.193658e+02 2.375629e+02 2.517639e+02 2.209479e+02 2.546524e+02 2.534616e+02 1.684570e+02 9.227444e+01 4.297539e+00 1.024301e+01 1.144811e+01 1.642382e+01 1.733094e+01 2.002139e+01 2.612301e+01 2.221786e+01 2.123463e+01 1.967154e+01 1.665679e+01 1.291996e+01 9.043504e+00 6.877394e-01 1.914733e+00 1.376459e+00 2.686519e+00 2.641574e+00 2.987070e+00 3.891570e+00 3.366179e+00 2.925062e+00 2.978958e+00 2.581264e+00 1.854842e+00 7.888101e-01
<GCONST> 1.832483e+02
<TRANSP> 5
 0.000000e+00 1.000000e+00 0.000000e+00 0.000000e+00 0.000000e+00
 0.000000e+00 4.473384e-01 5.526617e-01 0.000000e+00 0.000000e+00
 0.000000e+00 0.000000e+00 5.348747e-01 4.651254e-01 0.000000e+00
 0.000000e+00 0.000000e+00 0.000000e+00 2.865227e-01 7.134773e-01
 0.000000e+00 0.000000e+00 0.000000e+00 0.000000e+00 0.000000e+00
<ENDHMM>
~h "m"
<BEGINHMM>
<NUMSTATES> 5
<STATE> 2
<NUMMIXES> 2
<MIXTURE> 1 5.315998e-01
<MEAN> 39
 1.111971e+01 -5.897834e+00 7.427341e+00 -4.579643e+00 -7.232785e+00 -9.095654e+00 -9.330662e+00 -1.353747e+01 -1.598944e+01 -2.825777e+00 -2.361649e-01 -9.084314e+00 1.156777e+02 -1.131021e-01 2.715277e+00 1.995518e+00 4.389514e+00 2.507416e+00 8.111848e-01 9.385195e-01 -4.218665e+00 -4.424582e+00 -6.574860e-01 5.725713e-01 -6.496891e-01 -2.404253e+00 -3.673315e-01 -5.776434e-01 1.286179e-01 -7.937667e-01 -6.412447e-01 -1.662458e-01 -1.163969e-01 6.894103e-01 3.404779e-01 -1.250640e-01 -2.725586e-01 -2.295661e-02 8.596162e-01
<VARIANCE> 39
 5.139043e+01 8.582347e+01 1.209153e+02 1.635618e+02 1.554945e+02 1.682411e+02 1.997820e+02 1.833773e+02 2.028842e+02 1.516637e+02 1.799182e+02 1.164137e+02 9.322215e+01 5.222304e+00 7.551234e+00 1.719958e+01 1.437601e+01 1.496078e+01 1.750422e+01 2.195479e+01 1.668362e+01 2.114118e+01 1.964470e+01 1.675300e+01 1.243137e+01 6.304973e+00 6.751996e-01 9.767119e-01 1.978399e+00 2.239907e+00 1.934272e+00 1.690166e+00 2.382423e+00 2.442215e+00 3.259470e+00 2.055851e+00 2.204678e+00 1.652663e+00 6.544304e-01
<GCONST> 1.761157e+02
<MIXTURE> 2 4.683910e-01
<MEAN> 39
 1.004318e+01 -7.808414e+00 3.130210e+00 -1.213250e+01 -1.417767e+01 -1.850675e+01 -2.366711e+01 -2.590171e+01 -1.988375e+01 -8.245397e+00 -1.446918e+01 -1.637881e+01 1.192444e+02 8.362059e-01 2.860194e+00 1.361815e+00 4.176170e+00 7.265163e-01 -9.321834e-01 -2.451258e+00 -5.664691e+00 -2.051647e+00 1.655152e+00 1.697624e-01 -1.733486e+00 -1.933364e+00 -6.380377e-01 -8.040306e-01 -8.432171e-02 -1.303452e+00 -3.176795e-01 4.927993e-01 8.110985e-01 1.091303e+00 1.285264e-01 -2.992907e-01 4.248009e-02 4.908987e-01 8.718454e-01
<VARIANCE> 39
 3.465812e+01 1.044781e+02 1.165451e+02 1.574719e+02 1.728060e+02 2.649303e+02 2.058086e+02 3.005298e+02 1.773592e+02 2.097026e+02 1.653861e+02 1.373805e+02 7.093188e+01 6.879456e+00 9.620707e+00 1.502769e+01 1.589618e+01 1.515796e+01 1.950603e+01 2.033897e+01 2.015377e+01 1.724732e+01 2.308365e+01 1.421574e+01 1.560900e+01 9.260592e+00 7.699117e-01 1.134203e+00 1.882937e+00 1.867322e+00 2.019151e+00 2.206622e+00 2.591228e+00 3.707506e+00 2.565774e+00 3.104630e+00 2.033988e+00 2.120341e+00 7.205291e-01
<GCONST> 1.793457e+02
<STATE> 3
<NUMMIXES> 2
<MIXTURE> 1 5.419980e-01
<MEAN> 39
 1.089756e+01 -3.643156e+00 1.141047e+01 -2.615739e+00 -7.655710e+00 -6.347226e+00 -8.998834e+00 -1.632928e+01 -2.186724e+01 -5.417189e+00 -1.640240e+00 -1.097810e+01 1.154491e+02 -7.109778e-02 -7.367263e-02 9.668302e-02 -2.029620e-01 -3.220093e-02 6.171587e-02 -2.021046e-02 1.070708e-01 -1.700502e-02 -1.430591e-01 -4.985246e-02 -7.463023e-02 2.201870e-01 3.563987e-02 -5.769773e-01 -5.814652e-01 -1.407190e+00 -6.505635e-01 -1.448268e-01 -1.982025e-01 1.079537e+00 1.190644e+00 1.809100e-01 -2.572586e-02 2.891023e-01 5.960424e-01
<VARIANCE> 39
 2.286073e+01 7.595995e+01 1.019248e+02 1.761924e+02 1.917154e+02 2.336717e+02 2.395311e+02 1.919200e+02 1.825408e+02 2.059746e+02 2.088601e+02 1.425891e+02 5.457133e+01 1.155899e+00 2.853516e+00 4.006323e+00 6.733313e+00 4.833282e+00 6.231736e+00 5.735044e+00 6.660721e+00 8.863288e+00 6.774354e+00 7.110303e+00 5.346149e+00 2.055874e+00 4.395603e-01 8.268479e-01 1.733765e+00 1.709204e+00 1.506409e+00 1.837646e+00 2.173357e+00 1.970045e+00 2.888465e+00 2.260226e+00 2.182629e+00 1.619162e+00 4.970469e-01
<GCONST> 1.601906e+02
<MIXTURE> 2 4.579737e-01
<MEAN> 39
 1.020260e+01 -7.118409e+00 3.543777e+00 -1.096794e+01 -1.395453e+01 -1.649873e+01 -2.424386e+01 -3.044710e+01 -2.431358e+01 -7.498023e+00 -1.272356e+01 -1.691023e+01 1.193573e+02 -8.827390e-02 -3.402552e-01 -2.209180e-01 -6.428026e-01 -5.198340e-02 1.331145e-01 1.163607e-01 6.347679e-01 -1.707833e-01 -3.739156e-01 -1.462044e-01 -6.553722e-01 4.463816e-01 -1.715390e-01 -8.165684e-01 -4.775441e-01 -1.688795e+00 -2.466892e-01 3.536164e-01 8.067244e-01 1.876637e+00 6.894084e-01 -5.637672e-01 -9.941406e-02 3.885008e-01 6.946937e-01
<VARIANCE> 39
 2.497879e+01 8.725134e+01 9.736165e+01 1.717465e+02 2.012940e+02 3.301957e+02 2.220947e+02 2.953751e+02 2.183141e+02 2.866743e+02 1.963270e+02 1.872361e+02 4.407164e+01 1.014741e+00 3.264765e+00 3.971125e+00 6.834617e+00 4.834249e+00 7.953260e+00 6.504107e+00 1.160832e+01 7.684386e+00 9.426080e+00 6.705528e+00 7.832882e+00 2.092123e+00 5.407431e-01 9.097971e-01 1.764937e+00 1.670409e+00 1.447529e+00 2.209023e+00 2.639477e+00 3.285045e+00 2.508797e+00 3.392701e+00 2.011733e+00 2.699877e+00 5.132741e-01
<GCONST> 1.649419e+02
<STATE> 4
<NUMMIXES> 2
<MIXTURE> 1 5.302591e-01
<MEAN> 39
 1.135257e+01 -6.423299e+00 6.736930e+00 -9.384829e+00 -9.787079e+00 -7.922924e+00 -8.394452e+00 -1.250725e+01 -1.576124e+01 -6.007872e+00 -1.293824e+00 -1.017721e+01 1.198953e+02 7.036578e-03 -1.954430e+00 -1.749219e+00 -4.502856e+00 -2.204203e+00 -4.930393e-01 -8.330367e-01 3.856050e+00 4.241992e+00 5.964650e-01 -7.301764e-02 7.870096e-01 2.266859e+00 -3.225985e-01 -3.087619e-01 1.407107e-01 -3.043805e-01 -3.004609e-01 1.858559e-01 1.075946e-01 5.214871e-01 1.246196e-01 2.027033e-02 -7.139056e-02 1.088796e-01 2.103346e-01
<VARIANCE> 39
 2.659870e+01 9.392460e+01 1.510333e+02 2.330476e+02 1.807498e+02 2.042196e+02 2.186216e+02 1.912568e+02 2.458067e+02 1.901133e+02 2.064550e+02 1.231938e+02 8.315105e+01 3.742032e+00 8.452229e+00 1.918460e+01 1.570703e+01 1.737875e+01 1.701671e+01 1.947041e+01 1.836242e+01 2.444367e+01 1.933340e+01 1.763889e+01 1.323653e+01 6.701372e+00 4.492088e-01 9.419022e-01 1.938832e+00 2.403695e+00 2.577362e+00 2.005030e+00 2.634276e+00 2.554799e+00 4.049475e+00 2.379611e+00 2.601467e+00 1.821794e+00 5.090898e-01
<GCONST> 1.780620e+02
<MIXTURE> 2 4.697326e-01
<MEAN> 39
 9.913661e+00 -1.054536e+01 1.897821e+00 -1.610994e+01 -1.332302e+01 -1.913047e+01 -2.306962e+01 -2.191665e+01 -2.014622e+01 -8.628787e+00 -1.390924e+01 -1.874512e+01 1.227505e+02 -1.095576e+00 -3.075225e+00 -6.226143e-01 -5.850894e+00 -1.060761e+00 1.596262e+00 3.159772e+00 5.347226e+00 1.190039e+00 -2.570606e+00 -6.597936e-01 1.361892e+00 2.849416e+00 -5.532799e-01 -2.628681e-01 3.661167e-01 -9.269333e-01 -2.934080e-01 7.744334e-01 7.307303e-01 1.913341e-01 2.469526e-02 -1.484402e-01 4.643938e-02 7.155382e-01 3.939986e-01
<VARIANCE> 39
 2.753322e+01 1.151476e+02 1.269061e+02 1.980749e+02 1.905821e+02 2.532115e+02 1.930627e+02 3.147617e+02 1.815471e+02 2.273788e+02 1.728724e+02 1.457592e+02 6.609211e+01 4.032605e+00 9.149197e+00 2.238514e+01 1.357991e+01 1.625447e+01 1.759226e+01 2.211820e+01 2.250507e+01 1.836627e+01 2.228493e+01 1.358782e+01 1.811125e+01 6.117764e+00 4.386193e-01 1.243160e+00 1.796482e+00 2.445469e+00 2.057841e+00 2.132838e+00 2.838723e+00 3.672684e+00 2.291303e+00 3.041571e+00 1.823108e+00 2.169787e+00 5.035069e-01
<GCONST> 1.784736e+02
<TRANSP> 5
 0.000000e+00 1.000000e+00 0.000000e+00 0.000000e+00 0.000000e+00
 0.000000e+00 4.934991e-01 5.065009e-01 0.000000e+00 0.000000e+00
 0.000000e+00 0.000000e+00 7.012618e-01 2.987383e-01 0.000000e+00
 0.000000e+00 0.000000e+00 0.000000e+00 4.828988e-01 5.171012e-01
 0.000000e+00 0.000000e+00 0.000000e+00 0.000000e+00 0.000000e+00
<ENDHMM>
~h "n"
<BEGINHMM>
<NUMSTATES> 5
<STATE> 2
<NUMMIXES> 2
<MIXTURE> 1 5.271489e-01
<MEAN> 39
 7.876625e+00 -5.128378e+00 1.126776e+01 -6.606739e+00 -1.438206e+01 -1.492295e+01 -8.433033e+00 -7.186748e+00 -1.294802e+01 -2.033272e+00 -6.376975e+00 -1.012024e+01 1.176731e+02 8.610973e-01 2.578276e+00 1.427558e+00 3.687672e+00 6.991143e-01 -7.465664e-01 8.921494e-01 -3.379830e+00 -1.079864e+00 8.100556e-01 -1.655265e+00 -4.315839e-01 -2.547366e+00 -2.717339e-01 -2.980136e-01 7.745410e-02 -8.396585e-01 -2.992734e-01 3.227389e-01 -5.707419e-02 2.851236e-01 1.888972e-01 -1.718204e-01 9.941594e-02 1.770753e-01 5.156526e-01
<VARIANCE> 39
 5.920504e+01 8.524178e+01 1.290152e+02 1.969283e+02 2.022125e+02 2.093967e+02 1.854166e+02 2.906912e+02 1.890484e+02 2.103667e+02 1.858985e+02 1.912644e+02 1.228508e+02 5.123088e+00 6.446147e+00 1.645036e+01 1.112488e+01 1.896556e+01 1.665183e+01 1.976842e+01 2.113721e+01 1.786831e+01 1.647078e+01 1.300219e+01 1.379624e+01 6.915948e+00 6.872980e-01 8.982624e-01 1.496500e+00 1.530390e+00 1.821468e+00 1.830450e+00 2.076359e+00 2.589016e+00 2.080147e+00 2.043839e+00 1.751242e+00 1.614706e+00 5.996825e-01
<GCONST> 1.762884e+02
<MIXTURE> 2 4.728406e-01
<MEAN> 39
 6.860775e+00 -6.751614e+00 5.626233e+00 -1.635051e+01 -2.214079e+01 -2.166640e+01 -1.626550e+01 -1.638860e+01 -1.692194e+01 -1.237821e+01 -1.979593e+01 -8.916400e+00 1.197886e+02 1.715081e+00 3.291915e+00 1.297556e+00 3.475372e+00 -1.242559e+00 -2.413210e+00 -3.617174e-01 -2.582983e+00 -6.314580e-01 -1.235931e-01 -2.087250e+00 6.859977e-01 -2.374091e+00 -4.483084e-01 -4.254856e-01 -8.530419e-02 -9.585150e-01 1.559628e-01 7.279375e-01 2.875017e-01 3.327703e-01 -1.699798e-02 1.619940e-02 3.879390e-01 3.879975e-02 5.401855e-01
<VARIANCE> 39
 5.675552e+01 9.762187e+01 1.370935e+02 1.918711e+02 2.718069e+02 3.020996e+02 2.239704e+02 3.229048e+02 2.347876e+02 2.425881e+02 2.458542e+02 1.505473e+02 1.198852e+02 5.814701e+00 7.024508e+00 1.563500e+01 1.556033e+01 2.075454e+01 1.975157e+01 2.089967e+01 1.743537e+01 1.976535e+01 2.139622e+01 1.822465e+01 1.411031e+01 1.058522e+01 8.396872e-01 1.209619e+00 1.548702e+00 1.734617e+00 2.216936e+00 2.534861e+00 2.259254e+00 2.783893e+00 2.606988e+00 2.572573e+00 2.489271e+00 1.727203e+00 6.701900e-01
<GCONST> 1.818397e+02
<STATE> 3
<NUMMIXES> 2
<MIXTURE> 1 5.598843e-01
<MEAN> 39
 1.029823e+01 -8.839762e-01 1.311255e+01 -4.016491e+00 -1.649866e+01 -1.337137e+01 -7.638515e+00 -1.161211e+01 -1.331940e+01 -1.980469e+00 -8.741620e+00 -9.959093e+00 1.146972e+02 -4.047875e-01 1.129188e+00 8.277704e-01 8.875110e-01 6.459754e-01 5.043916e-01 5.967936e-02 -4.833530e-01 -7.933068e-02 -2.425503e-01 -3.161809e-02 1.140325e-01 -1.291603e+00 -5.029231e-01 -4.139914e-01 -1.947731e-01 -6.576524e-01 3.189695e-01 3.731674e-01 -2.138346e-01 7.574893e-01 3.459084e-01 -2.367528e-01 4.114824e-01 1.906382e-01 2.670612e-01
<VARIANCE> 39
 2.411579e+01 7.096573e+01 1.251505e+02 1.728533e+02 1.767604e+02 1.874228e+02 1.931993e+02 2.444178e+02 1.648956e+02 2.314935e+02 1.602263e+02 2.288259e+02 5.862616e+01 1.629760e+00 3.837160e+00 4.545440e+00 5.225423e+00 6.672593e+00 6.687233e+00 6.518955e+00 7.992951e+00 7.752050e+00 7.164758e+00 7.004737e+00 6.318016e+00 2.949472e+00 6.165231e-01 8.909097e-01 1.380503e+00 1.635691e+00 1.891082e+00 1.654784e+00 2.042965e+00 2.289107e+00 1.974682e+00 1.857397e+00 1.548297e+00 1.766941e+00 6.359652e-01
<GCONST> 1.617988e+02
<MIXTURE> 2 4.400623e-01
<MEAN> 39
 9.766778e+00 -1.542665e+00 6.229541e+00 -1.457656e+01 -2.725982e+01 -2.146453e+01 -1.564353e+01 -1.941805e+01 -1.878623e+01 -1.391603e+01 -2.205290e+01 -5.474934e+00 1.176362e+02 -1.299505e-01 8.713676e-01 5.490286e-01 7.134632e-01 3.466930e-01 -1.071607e-01 -2.808088e-01 -2.055791e-01 -2.156539e-01 -2.938320e-01 -1.258525e-01 -4.779033e-02 -8.727007e-01 -7.137014e-01 -8.548191e-01 -1.063484e-01 -8.014913e-01 7.745598e-01 7.664315e-01 -2.937039e-02 9.552892e-01 1.948048e-01 5.028291e-02 7.769895e-01 -3.747036e-01 5.224207e-01
<VARIANCE> 39
 2.593274e+01 7.401960e+01 1.207671e+02 1.480324e+02 2.153433e+02 2.900344e+02 2.152299e+02 2.630012e+02 2.333463e+02 2.858380e+02 2.805050e+02 1.772534e+02 5.008567e+01 1.991305e+00 5.084079e+00 4.973169e+00 6.999339e+00 8.593390e+00 8.045623e+00 8.389856e+00 9.985826e+00 9.190314e+00 8.752561e+00 9.262931e+00 7.501256e+00 4.717498e+00 7.686040e-01 1.272345e+00 1.826063e+00 2.439555e+00 2.452878e+00 2.867850e+00 2.617307e+00 2.660394e+00 2.831592e+00 2.899293e+00 2.701118e+00 1.978960e+00 9.448978e-01
<GCONST> 1.706472e+02
<STATE> 4
<NUMMIXES> 2
<MIXTURE> 1 5.218059e-01
<MEAN> 39
 6.474478e+00 2.402706e+00 1.524479e+01 -3.136008e+00 -1.194101e+01 -1.273222e+01 -9.746078e+00 -1.237982e+01 -1.542392e+01 -5.220756e+00 -9.349572e+00 -1.086200e+01 1.101621e+02 -2.785182e+00 -6.900818e-01 4.169596e-01 1.178444e-01 2.763403e+00 2.295399e+00 -4.727028e-02 2.121051e+00 1.842698e+00 -4.239265e-01 1.489343e+00 7.703099e-01 -1.436050e+00 -7.971051e-01 -1.233219e+00 -7.724249e-01 -8.247188e-01 -1.390243e-01 3.319680e-01 2.584026e-01 8.066640e-01 7.337795e-01 2.485124e-01 3.933836e-01 4.760147e-01 5.908611e-01
<VARIANCE> 39
 3.684654e+01 7.861432e+01 1.002818e+02 1.507288e+02 1.621644e+02 1.505466e+02 1.797699e+02 2.309933e+02 1.598187e+02 1.973785e+02 1.513654e+02 1.548432e+02 9.422009e+01 6.438635e+00 9.599263e+00 1.036848e+01 1.753717e+01 1.702158e+01 1.421670e+01 1.744403e+01 1.619586e+01 1.463313e+01 1.610451e+01 1.290161e+01 1.309858e+01 1.114835e+01 1.176128e+00 1.265703e+00 1.624006e+00 1.876516e+00 2.371025e+00 1.991332e+00 2.556188e+00 2.601033e+00 2.325697e+00 2.314818e+00 1.899646e+00 1.902664e+00 1.002002e+00
<GCONST> 1.763681e+02
<MIXTURE> 2 4.781732e-01
<MEAN> 39
 6.527009e+00 -3.428978e+00 9.821962e+00 -1.221736e+01 -1.978704e+01 -2.204450e+01 -1.730754e+01 -1.683851e+01 -1.718259e+01 -1.119915e+01 -1.842483e+01 -7.471936e+00 1.172684e+02 -1.959932e+00 -2.588037e+00 -4.850714e-01 -1.963882e+00 2.165152e+00 1.893775e+00 -3.704696e-01 3.265132e+00 8.110355e-01 -4.967465e-01 1.716660e+00 -5.106767e-01 1.258806e+00 -4.488964e-01 -1.111134e+00 -7.172101e-01 -1.167200e+00 2.714458e-01 9.715114e-01 4.620498e-01 8.041223e-01 4.076655e-01 1.685202e-01 5.748059e-01 -2.336689e-02 7.639530e-01
<VARIANCE> 39
 4.181952e+01 1.050526e+02 1.181821e+02 1.815479e+02 2.244595e+02 2.739766e+02 2.023743e+02 2.799041e+02 2.291105e+02 2.648335e+02 2.636517e+02 1.701261e+02 1.114645e+02 6.026126e+00 1.121773e+01 1.348358e+01 2.045090e+01 1.794422e+01 1.959534e+01 2.016995e+01 1.995090e+01 2.101225e+01 1.988757e+01 1.692215e+01 1.238488e+01 1.338319e+01 8.653368e-01 1.313041e+00 1.762430e+00 2.138174e+00 2.575166e+00 2.887112e+00 2.618879e+00 2.854612e+00 2.957032e+00 3.221946e+00 2.706959e+00 2.206301e+00 9.672690e-01
<GCONST> 1.835959e+02
<TRANSP> 5
 0.000000e+00 1.000000e+00 0.000000e+00 0.000000e+00 0.000000e+00
 0.000000e+00 3.858619e-01 6.141381e-01 0.000000e+00 0.000000e+00
 0.000000e+00 0.000000e+00 6.728528e-01 3.271472e-01 0.000000e+00
 0.000000e+00 0.000000e+00 0.000000e+00 4.081807e-01 5.918193e-01
 0.000000e+00 0.000000e+00 0.000000e+00 0.000000e+00 0.000000e+00
<ENDHMM>
~h "p"
<BEGINHMM>
<NUMSTATES> 5
<STATE> 2
<NUMMIXES> 2
<MIXTURE> 1 4.918366e-01
<MEAN> 39
 -1.561551e+00 -2.437328e+00 1.289853e+01 -2.965093e-01 -8.181124e-01 -2.262275e+00 -4.708096e+00 -8.343300e+00 -6.608255e+00 -6.055300e+00 -7.068766e+00 -8.552114e+00 9.814640e+01 -4.054792e+00 -3.096194e-01 7.913730e-01 2.857050e+00 1.993572e+00 2.166191e+00 2.736323e+00 1.884453e+00 2.718811e+00 8.416438e-01 9.797997e-01 1.219010e+00 -5.108129e+00 -2.621161e-01 -1.453823e+00 -1.254730e+00 -1.903956e+00 -1.270326e+00 -7.005194e-01 -3.721782e-01 3.417117e-01 2.076614e-01 4.728974e-01 4.525457e-01 4.697210e-01 1.765621e+00
<VARIANCE> 39
 8.090449e+01 6.653740e+01 9.232630e+01 8.212251e+01 8.826529e+01 1.161248e+02 1.150537e+02 1.226446e+02 1.183431e+02 1.180974e+02 1.205007e+02 9.327041e+01 4.483197e+01 6.498678e+00 9.815290e+00 1.218628e+01 1.757094e+01 1.206118e+01 1.315361e+01 1.172535e+01 1.326467e+01 1.244687e+01 1.343913e+01 1.451582e+01 1.012108e+01 1.336747e+01 1.237033e+00 1.269307e+00 1.570151e+00 2.119777e+00 1.878493e+00 1.867414e+00 1.993164e+00 2.171407e+00 2.119900e+00 2.184279e+00 1.976852e+00 1.688473e+00 1.288808e+00
<GCONST> 1.703701e+02
<MIXTURE> 2 5.081390e-01
<MEAN> 39
 -8.478079e+00 -7.058562e+00 9.670299e+00 -2.692668e+00 -2.687722e+00 -2.061233e+00 -2.627641e+00 -5.441598e+00 -2.344945e+00 -3.681257e+00 -4.894121e+00 -6.126791e+00 9.330464e+01 -2.898121e+00 -2.142201e+00 -1.359646e+00 -3.029000e-01 -5.296045e-01 5.029663e-01 1.217781e+00 8.592412e-01 1.655093e+00 7.442304e-01 9.969195e-01 1.237710e+00 -2.507930e+00 5.086155e-01 -4.649782e-01 -6.488026e-01 -1.284021e+00 -5.847885e-01 -5.764422e-01 -6.840221e-01 -1.680569e-01 -4.361915e-01 5.934530e-02 1.481548e-01 2.281564e-01 1.884986e+00
<VARIANCE> 39
 5.616098e+01 5.624440e+01 8.459677e+01 6.895301e+01 8.699580e+01 9.974600e+01 1.002564e+02 1.206140e+02 1.127127e+02 1.218958e+02 1.118991e+02 9.238026e+01 3.172787e+01 6.593423e+00 4.572716e+00 6.164915e+00 7.823270e+00 6.932660e+00 7.377429e+00 8.599782e+00 1.009466e+01 1.020860e+01 9.598660e+00 9.593395e+00 7.991780e+00 6.062560e+00 7.835298e-01 1.209791e+00 1.616423e+00 2.088260e+00 1.891355e+00 1.784111e+00 1.698408e+00 2.090090e+00 2.117887e+00 2.296027e+00 1.926042e+00 1.640852e+00 1.111278e+00
<GCONST> 1.619950e+02
<STATE> 3
<NUMMIXES> 2
<MIXTURE> 1 5.751486e-01
<MEAN> 39
 -1.447667e+01 -1.227414e+01 6.124898e+00 -4.747415e+00 -2.878678e+00 -4.334924e-01 -7.684459e-01 -4.288150e+00 -1.608557e-01 -1.910895e+00 -1.008600e+00 -1.167352e+00 8.985682e+01 -1.501377e-01 -6.366279e-01 -6.486021e-01 -1.039914e+00 -1.954837e-01 -6.643678e-01 -4.400953e-01 7.286204e-01 4.018858e-01 4.980068e-01 6.837639e-01 6.587211e-01 2.552266e+00 1.516588e+00 3.988629e-01 1.005712e-01 -6.913358e-01 -4.129702e-01 -6.530288e-01 -6.586459e-01 -5.450777e-02 -5.515305e-01 -1.040113e-01 -2.639639e-01 -4.110815e-01 2.115750e+00
<VARIANCE> 39
 1.480255e+01 1.981881e+01 3.016965e+01 3.529021e+01 4.966925e+01 5.418981e+01 5.776048e+01 6.616552e+01 6.524735e+01 7.220571e+01 6.078288e+01 5.224739e+01 4.646473e+01 6.377549e+00 4.340864e+00 5.597687e+00 6.188391e+00 6.484248e+00 8.693624e+00 7.562835e+00 8.992166e+00 8.303430e+00 8.675673e+00 7.534976e+00 6.668535e+00 1.614354e+01 1.282056e+00 8.507146e-01 1.378797e+00 1.980691e+00 1.766611e+00 2.014347e+00 1.824212e+00 2.061423e+00 1.978528e+00 1.900806e+00 1.886679e+00 1.447520e+00 1.787402e+00
<GCONST> 1.535237e+02
<MIXTURE> 2 4.248126e-01
<MEAN> 39
 -1.468375e+01 -1.262048e+01 5.098417e+00 -6.396329e+00 -3.882470e+00 -2.241834e+00 -2.092825e+00 -3.784825e+00 -5.066469e-01 -2.064119e+00 -1.032639e+00 -1.198187e+00 9.338557e+01 1.640220e+00 -4.553254e-01 -9.008164e-01 -2.308694e+00 -1.152797e+00 -1.725133e+00 -1.577229e+00 -1.122253e-01 -9.334076e-01 -5.217255e-01 -7.515608e-01 -3.303993e-01 4.724699e+00 1.846564e+00 9.770924e-02 -1.480393e-01 -1.162416e+00 -6.673247e-01 -5.794822e-01 -6.676476e-01 -3.180745e-01 -6.940856e-01 -1.631621e-01 -6.941278e-01 -5.956395e-01 2.135998e+00
<VARIANCE> 39
 2.188594e+01 2.827590e+01 3.797278e+01 4.200446e+01 5.414778e+01 5.910091e+01 6.129431e+01 7.285716e+01 6.881843e+01 7.595250e+01 6.151664e+01 5.370609e+01 7.574405e+01 1.249633e+01 6.137181e+00 9.442518e+00 1.195233e+01 9.317845e+00 1.231494e+01 9.625587e+00 1.043585e+01 9.784975e+00 9.544912e+00 9.079200e+00 7.863000e+00 2.219797e+01 1.324015e+00 1.706754e+00 2.218193e+00 3.125042e+00 2.580098e+00 2.534606e+00 2.211531e+00 2.440221e+00 2.384722e+00 2.258587e+00 2.218254e+00 1.693300e+00 2.181173e+00
<GCONST> 1.633721e+02
<STATE> 4
<NUMMIXES> 2
<MIXTURE> 1 5.742490e-01
<MEAN> 39
 -6.699315e+00 -1.130183e+01 4.037350e+00 -1.178882e+01 -4.774245e+00 -8.077555e+00 -7.195181e+00 -1.317335e+00 -1.634567e-01 -3.816023e-01 1.726275e-01 -1.432967e+00 1.169210e+02 7.151023e+00 -2.514334e-01 -1.364460e+00 -4.845976e+00 -3.945103e+00 -2.354522e+00 -2.134351e+00 1.173106e-01 -1.543320e+00 6.785606e-01 9.929878e-01 -5.918763e-01 8.012183e+00 8.350216e-01 -2.342111e-01 1.013445e-01 -3.093321e-01 -8.931290e-01 3.271219e-01 -2.030241e-02 -6.023399e-01 -5.509540e-01 -4.170971e-02 -6.918965e-02 -4.857811e-01 -1.096516e+00
<VARIANCE> 39
 1.261362e+02 6.249628e+01 7.122260e+01 1.125191e+02 8.837325e+01 1.160878e+02 1.005231e+02 8.958982e+01 8.867764e+01 8.729971e+01 7.769374e+01 6.188192e+01 9.438516e+01 9.604027e+00 1.389712e+01 2.110192e+01 2.764011e+01 1.822560e+01 2.576007e+01 2.104288e+01 1.943139e+01 1.719963e+01 1.653478e+01 1.605244e+01 1.258080e+01 1.621810e+01 2.997754e+00 2.148743e+00 1.953182e+00 3.933202e+00 3.040028e+00 2.694074e+00 2.972933e+00 3.310297e+00 2.928204e+00 2.618451e+00 2.707187e+00 1.968850e+00 1.993630e+00
<GCONST> 1.798235e+02
<MIXTURE> 2 4.257398e-01
<MEAN> 39
 1.085083e+00 -9.353615e+00 3.999749e-01 -1.840640e+01 -9.319871e+00 -8.154064e+00 -8.121429e+00 -3.374253e+00 -4.645972e+00 -3.523947e+00 -4.655503e+00 -4.261647e+00 1.162359e+02 7.580340e+00 -1.551666e+00 -3.109497e+00 -7.764404e+00 -4.254101e+00 -2.040148e+00 -3.103769e+00 -1.526857e+00 -2.521016e+00 1.739129e-01 -2.705547e+00 -1.814415e+00 8.771781e+00 -4.587521e-01 -9.848884e-01 -6.426255e-02 4.177136e-02 -2.925343e-01 3.235174e-01 -4.721099e-02 -5.945448e-01 -9.116089e-02 6.336684e-02 -3.952371e-01 -1.573937e-01 -8.208721e-01
<VARIANCE> 39
 1.338160e+02 6.917407e+01 1.087449e+02 2.115435e+02 1.037163e+02 1.598379e+02 1.102415e+02 9.537782e+01 9.730180e+01 9.355561e+01 7.797374e+01 6.596665e+01 1.002168e+02 5.473195e+00 1.801752e+01 2.380896e+01 3.309884e+01 2.357749e+01 3.157442e+01 2.148520e+01 2.010891e+01 2.018179e+01 1.730847e+01 1.655550e+01 1.424290e+01 1.865466e+01 2.405600e+00 1.565749e+00 1.793670e+00 4.661111e+00 2.567189e+00 2.957532e+00 2.538006e+00 2.775960e+00 2.708270e+00 2.527038e+00 2.253234e+00 1.844635e+00 2.196484e+00
<GCONST> 1.818504e+02
<TRANSP> 5
 0.000000e+00 1.000000e+00 0.000000e+00 0.000000e+00 0.000000e+00
 0.000000e+00 6.519473e-01 3.480527e-01 0.000000e+00 0.000000e+00
 0.000000e+00 0.000000e+00 7.350644e-01 2.649355e-01 0.000000e+00
 0.000000e+00 0.000000e+00 0.000000e+00 4.350109e-01 5.649891e-01
 0.000000e+00 0.000000e+00 0.000000e+00 0.000000e+00 0.000000e+00
<ENDHMM>
~h "s"
<BEGINHMM>
<NUMSTATES> 5
<STATE> 2
<NUMMIXES> 2
<MIXTURE> 1 4.632844e-01
<MEAN> 39
 -1.053320e+01 4.501214e+00 6.734378e+00 -8.240382e+00 -9.369637e+00 -1.788080e+01 -8.765409e+00 -6.254006e+00 -9.472035e+00 -9.757607e+00 -7.157223e+00 -4.360635e+00 1.219575e+02 -9.020717e+00 3.392002e+00 1.217373e-01 3.777013e+00 5.616183e+00 4.000784e+00 3.081033e+00 2.428106e+00 1.787485e+00 1.007598e+00 2.353725e+00 1.424919e+00 -2.123843e+00 -9.782407e-01 -1.507024e+00 -8.887832e-01 -1.002882e+00 -3.284615e-01 6.406624e-01 2.611314e-01 7.214184e-01 4.837309e-01 8.214561e-01 4.173572e-01 2.476927e-01 2.399417e-01
<VARIANCE> 39
 1.436267e+02 8.430817e+01 1.310756e+02 1.411559e+02 2.498550e+02 2.066717e+02 1.606105e+02 1.968276e+02 1.754226e+02 2.030914e+02 1.267210e+02 9.828985e+01 8.171997e+01 9.599654e+00 1.362625e+01 1.634792e+01 2.085454e+01 1.791404e+01 2.098118e+01 2.089852e+01 1.971056e+01 1.604717e+01 1.930742e+01 1.701650e+01 1.491309e+01 5.351264e+00 2.663911e+00 1.599391e+00 1.637904e+00 1.900488e+00 2.515112e+00 2.777867e+00 2.638357e+00 2.418557e+00 2.438846e+00 2.680875e+00 1.856015e+00 1.917466e+00 6.140653e-01
<GCONST> 1.810789e+02
<MIXTURE> 2 5.366538e-01
<MEAN> 39
 -2.259644e+01 4.132726e+00 7.418578e+00 -5.546036e+00 1.296593e+00 -8.371020e+00 -3.798101e+00 -2.279772e-01 -5.576454e+00 -6.536300e+00 -4.061778e+00 -3.247093e+00 1.183060e+02 -8.611852e+00 6.262556e-01 -1.557949e+00 1.552293e+00 3.048399e+00 2.671966e+00 2.475671e+00 2.665984e+00 1.506896e+00 1.253985e+00 2.114559e+00 1.363286e+00 -1.169477e+00 8.208078e-01 -1.272317e+00 -9.142742e-01 -1.418583e+00 -1.464968e+00 -5.089056e-01 -6.750455e-01 -3.171016e-01 -1.009412e-01 2.965486e-01 -1.062328e-01 5.659908e-02 3.002625e-01
<VARIANCE> 39
 1.605641e+02 1.073194e+02 1.139445e+02 1.382043e+02 1.907199e+02 1.934478e+02 1.762133e+02 1.739212e+02 1.473357e+02 1.298108e+02 1.060051e+02 9.282667e+01 9.889488e+01 1.228794e+01 1.088851e+01 1.466507e+01 1.583861e+01 1.528059e+01 1.842688e+01 1.843589e+01 1.706864e+01 1.490751e+01 1.742595e+01 1.353056e+01 1.090699e+01 6.248274e+00 2.937477e+00 2.061298e+00 1.746908e+00 2.283079e+00 2.326187e+00 2.908485e+00 2.783436e+00 2.677241e+00 2.397382e+00 2.222567e+00 1.983343e+00 2.113188e+00 7.480407e-01
<GCONST> 1.796323e+02
<STATE> 3
<NUMMIXES> 2
<MIXTURE> 1 5.002035e-01
<MEAN> 39
 -3.997873e+01 1.874937e+00 -3.044966e+00 -8.269143e+00 -1.467602e+00 -6.682696e+00 -2.261395e+00 1.777764e+00 -3.940002e+00 -3.877366e+00 3.473062e-01 8.146907e-01 1.154645e+02 -8.465124e-01 -5.168650e-01 -1.260820e-01 -1.389724e-01 7.859824e-02 3.836993e-01 5.125737e-01 5.882304e-01 4.583347e-01 5.593310e-01 5.987086e-01 4.785167e-01 -3.974544e-01 1.486428e+00 -2.495680e-01 6.202953e-01 -5.438093e-02 -3.140706e-01 -3.463870e-01 -1.365845e-01 -2.715211e-01 -1.366443e-01 -1.389902e-01 -3.131171e-01 -2.591762e-01 4.849994e-02
<VARIANCE> 39
 7.474038e+01 7.332023e+01 1.053987e+02 1.411633e+02 1.524969e+02 1.398447e+02 1.253896e+02 1.162310e+02 9.756153e+01 7.959571e+01 7.486784e+01 6.436216e+01 7.484719e+01 7.828534e+00 4.671926e+00 5.773862e+00 5.410535e+00 6.311487e+00 8.027139e+00 7.461460e+00 7.967784e+00 8.195466e+00 8.052371e+00 7.065307e+00 6.302794e+00 4.061551e+00 1.594849e+00 9.163925e-01 1.152441e+00 1.310646e+00 1.521903e+00 1.737379e+00 1.712440e+00 1.788952e+00 1.608539e+00 1.641411e+00 1.534572e+00 1.273926e+00 5.994127e-01
<GCONST> 1.596535e+02
<MIXTURE> 2 4.997031e-01
<MEAN> 39
 -3.937912e+01 1.502631e+00 -2.294118e+00 -7.623343e+00 -4.341031e-01 -5.472590e+00 -9.851696e-01 2.743922e+00 -2.920204e+00 -3.062629e+00 8.983201e-01 7.585357e-01 1.154273e+02 -1.665081e+00 -9.266919e-01 -1.041938e+00 -9.999222e-01 -6.643412e-01 -2.034675e-01 -3.926504e-01 -2.087611e-01 -2.721064e-01 -9.304460e-02 3.394283e-02 1.067336e-01 -3.852426e-01 1.878402e+00 -2.205626e-01 5.821416e-01 -3.120271e-01 -6.983023e-01 -7.001184e-01 -5.571219e-01 -6.205872e-01 -4.178762e-01 -3.792377e-01 -5.603142e-01 -3.667066e-01 1.745327e-01
<VARIANCE> 39
 6.223052e+01 6.900029e+01 1.056832e+02 1.363113e+02 1.600194e+02 1.457170e+02 1.329905e+02 1.219006e+02 1.028137e+02 8.567821e+01 8.017870e+01 6.721742e+01 6.887247e+01 1.142063e+01 4.831670e+00 7.667261e+00 5.592270e+00 6.584671e+00 7.828856e+00 8.160366e+00 8.360762e+00 8.261816e+00 8.271042e+00 7.512120e+00 6.471390e+00 3.692986e+00 1.712867e+00 1.010708e+00 1.257669e+00 1.476401e+00 1.778076e+00 1.985851e+00 2.026141e+00 1.984302e+00 1.836076e+00 1.956995e+00 1.790518e+00 1.428849e+00 6.052825e-01
<GCONST> 1.621621e+02
<STATE> 4
<NUMMIXES> 2
<MIXTURE> 1 5.347650e-01
<MEAN> 39
 -3.193695e+01 -4.780340e+00 5.472326e+00 -1.245351e+01 3.979359e-01 -8.374525e+00 -7.564228e+00 3.718541e+00 -2.179790e+00 -3.038280e+00 -1.403054e+00 -9.307817e-02 1.144008e+02 4.788729e+00 -1.099611e+00 1.343081e+00 1.432145e+00 -1.246577e+00 -2.368608e-02 -1.809217e-02 -1.180226e+00 -1.622274e-01 6.478537e-01 -3.856378e-02 -7.015914e-01 -2.070821e+00 1.165010e+00 1.825001e-01 8.899881e-02 2.461806e-01 -4.045746e-01 4.958174e-02 7.388751e-02 -3.734605e-01 -2.950442e-01 4.349475e-02 4.720408e-02 -1.946971e-01 -3.802079e-02
<VARIANCE> 39
 1.638473e+02 8.922620e+01 1.285080e+02 1.518943e+02 1.532837e+02 1.819305e+02 1.890292e+02 1.453542e+02 1.427900e+02 1.050437e+02 9.126410e+01 8.116451e+01 1.354607e+02 1.728041e+01 7.816077e+00 1.034870e+01 8.883394e+00 1.171750e+01 1.418264e+01 1.202298e+01 1.145863e+01 1.105280e+01 9.666102e+00 8.564579e+00 7.843386e+00 1.166956e+01 2.964394e+00 1.532251e+00 1.678352e+00 1.971303e+00 2.151205e+00 2.514555e+00 2.645215e+00 2.364924e+00 2.275071e+00 2.226156e+00 1.919918e+00 1.618234e+00 1.476534e+00
<GCONST> 1.752163e+02
<MIXTURE> 2 4.651819e-01
<MEAN> 39
 -2.974041e+01 -2.491769e+00 2.030958e+00 -7.976860e+00 -4.881478e+00 -7.573835e+00 1.139055e-01 -1.654292e-02 -4.707654e+00 -3.811127e+00 -4.957326e-01 -8.393468e-01 1.152330e+02 7.522413e+00 -1.109651e+00 2.388556e+00 -2.031007e+00 -3.485144e+00 -2.856632e+00 -2.688559e+00 -2.882760e+00 -1.646581e+00 -1.482875e+00 -3.003691e+00 -1.609707e+00 9.366019e-01 1.479577e+00 -1.996806e-01 -9.353659e-02 -9.844481e-01 -1.124016e+00 -7.427266e-01 -1.108406e+00 -7.634618e-01 -4.231484e-01 -2.214633e-01 -8.101292e-01 -3.148256e-01 8.036825e-01
<VARIANCE> 39
 1.221727e+02 7.127950e+01 1.029978e+02 1.032992e+02 1.447652e+02 1.533939e+02 1.452463e+02 1.307053e+02 1.134355e+02 1.089512e+02 1.029464e+02 7.510226e+01 1.121373e+02 1.822613e+01 8.531238e+00 1.471363e+01 1.527060e+01 1.589460e+01 1.736647e+01 1.766063e+01 1.631295e+01 1.301730e+01 1.334228e+01 1.302485e+01 9.362077e+00 1.024452e+01 2.455623e+00 1.629480e+00 2.120094e+00 2.193833e+00 2.453073e+00 2.982717e+00 2.999932e+00 2.825999e+00 2.459174e+00 2.584589e+00 2.703591e+00 1.896784e+00 1.087811e+00
<GCONST> 1.776283e+02
<TRANSP> 5
 0.000000e+00 1.000000e+00 0.000000e+00 0.000000e+00 0.000000e+00
 0.000000e+00 6.232126e-01 3.767875e-01 0.000000e+00 0.000000e+00
 0.000000e+00 0.000000e+00 8.069580e-01 1.930420e-01 0.000000e+00
 0.000000e+00 0.000000e+00 0.000000e+00 6.390193e-01 3.609807e-01
 0.000000e+00 0.000000e+00 0.000000e+00 0.000000e+00 0.000000e+00
<ENDHMM>
~h "t"
<BEGINHMM>
<NUMSTATES> 5
<STATE> 2
<NUMMIXES> 2
<MIXTURE> 1 5.006854e-01
<MEAN> 39
 -6.216036e+00 -5.802014e-01 1.431926e+01 1.358386e+00 -1.218777e+00 -4.753622e+00 -4.550326e+00 -4.961500e+00 -4.145731e+00 -4.040860e+00 -5.734583e+00 -6.707646e+00 9.823475e+01 -3.211439e+00 -1.805692e+00 -4.252402e-01 1.553006e+00 2.406912e+00 3.834937e+00 3.142165e+00 1.562625e+00 2.330783e+00 1.113555e+00 1.620670e+00 1.283928e+00 -4.905656e+00 -8.646622e-02 -1.279161e+00 -1.054991e+00 -1.788915e+00 -1.339848e+00 -7.844421e-01 -3.902537e-01 3.709062e-03 -1.381562e-01 1.720190e-01 2.636604e-01 3.832269e-01 1.788889e+00
<VARIANCE> 39
 7.987009e+01 6.270590e+01 1.082094e+02 9.425114e+01 1.113392e+02 1.210586e+02 1.061724e+02 1.301681e+02 1.276590e+02 1.251316e+02 1.131223e+02 9.343353e+01 4.878482e+01 7.902349e+00 8.635983e+00 1.172430e+01 1.533813e+01 1.598837e+01 1.303146e+01 1.250609e+01 1.228206e+01 1.217064e+01 1.291153e+01 1.384679e+01 1.035150e+01 1.309855e+01 1.152677e+00 1.415471e+00 1.720878e+00 2.239015e+00 2.136815e+00 2.294966e+00 2.081073e+00 2.097075e+00 2.097090e+00 2.082037e+00 1.940747e+00 1.776367e+00 2.096686e+00
<GCONST> 1.720380e+02
<MIXTURE> 2 4.992822e-01
<MEAN> 39
 -1.237501e+01 -5.205652e+00 9.803515e+00 -7.692369e-01 -3.500351e+00 -2.221548e+00 -2.259607e+00 -5.006149e+00 -3.533102e+00 -3.482473e+00 -3.767773e+00 -4.382607e+00 9.302480e+01 -1.462167e+00 -3.027291e+00 -1.429820e+00 -7.658221e-01 1.077654e-01 1.389925e+00 9.741488e-01 3.058131e-02 8.076631e-01 7.826567e-02 5.758224e-01 5.520753e-01 -2.262555e+00 -3.130242e-03 -1.882013e-01 -3.929484e-01 -1.089247e+00 -6.551254e-01 -8.771923e-01 -5.323606e-01 2.920096e-02 -2.996195e-01 -6.003406e-02 2.753839e-02 2.429582e-01 2.035364e+00
<VARIANCE> 39
 6.770631e+01 4.358980e+01 8.535074e+01 6.696162e+01 9.253387e+01 9.124670e+01 8.890034e+01 1.118621e+02 1.098825e+02 1.102814e+02 9.801194e+01 8.054282e+01 3.335859e+01 1.022127e+01 5.061883e+00 7.713350e+00 6.916925e+00 8.952689e+00 7.634160e+00 8.436957e+00 9.739440e+00 9.420410e+00 9.391091e+00 9.554007e+00 8.097111e+00 6.080203e+00 9.543989e-01 9.764994e-01 1.301487e+00 1.754306e+00 2.356405e+00 1.948003e+00 1.957255e+00 1.989060e+00 2.006363e+00 2.123973e+00 1.903490e+00 1.670707e+00 1.899332e+00
<GCONST> 1.625266e+02
<STATE> 3
<NUMMIXES> 2
<MIXTURE> 1 5.348953e-01
<MEAN> 39
 -1.545042e+01 -1.187727e+01 6.034695e+00 -4.234024e+00 -3.234692e+00 -4.985290e-02 -5.384684e-01 -4.444940e+00 -1.063670e+00 -2.526616e+00 -9.519942e-01 -7.274557e-01 8.917595e+01 -1.268340e+00 -1.273710e+00 -1.003525e+00 -1.813385e+00 -1.964800e-01 -4.386024e-01 2.850201e-01 1.021227e+00 4.175723e-01 4.758274e-01 9.164916e-01 8.672549e-01 2.885493e+00 7.042522e-01 6.735613e-01 2.189148e-01 -4.924091e-01 -5.621728e-01 -1.045792e+00 -5.837440e-01 1.443225e-01 -3.636473e-01 -1.071541e-01 -3.460605e-01 -3.135985e-01 2.435101e+00
<VARIANCE> 39
 1.899492e+01 1.968533e+01 3.268850e+01 3.736155e+01 4.883093e+01 5.301331e+01 5.700383e+01 6.957529e+01 7.028360e+01 7.568510e+01 6.275465e+01 5.362896e+01 3.671795e+01 4.006538e+00 4.615696e+00 6.169410e+00 7.366288e+00 7.067306e+00 8.141089e+00 8.281734e+00 9.722658e+00 8.840137e+00 8.944286e+00 8.459013e+00 7.420838e+00 2.049825e+01 1.259240e+00 7.872941e-01 1.335141e+00 1.418025e+00 1.919142e+00 1.740263e+00 1.798357e+00 2.011314e+00 1.876135e+00 1.913398e+00 1.754285e+00 1.515003e+00 2.034107e+00
<GCONST> 1.539489e+02
<MIXTURE> 2 4.650466e-01
<MEAN> 39
 -1.619296e+01 -1.173506e+01 5.554816e+00 -5.197119e+00 -3.965910e+00 -1.422574e+00 -1.915287e+00 -5.059572e+00 -2.248530e+00 -3.037809e+00 -1.696631e+00 -1.817701e+00 9.180340e+01 -9.598236e-01 -1.109718e+00 -1.223389e+00 -2.404991e+00 -9.750260e-01 -1.362193e+00 -6.448065e-01 4.110172e-01 -5.763372e-01 -6.038077e-01 -1.536328e-02 2.966703e-01 4.279173e+00 1.003345e+00 5.239488e-01 1.522601e-01 -6.791425e-01 -7.211483e-01 -1.140603e+00 -5.854659e-01 1.184969e-01 -2.829379e-01 -1.917888e-01 -5.208731e-01 -2.423283e-01 2.484187e+00
<VARIANCE> 39
 3.052220e+01 2.672392e+01 4.581461e+01 4.689396e+01 6.126405e+01 6.067964e+01 6.406191e+01 8.046510e+01 7.825502e+01 8.260789e+01 6.537782e+01 5.645465e+01 5.873323e+01 5.895336e+00 5.840107e+00 7.368122e+00 8.582834e+00 9.372798e+00 9.539956e+00 9.147979e+00 1.118043e+01 9.431166e+00 9.920820e+00 8.720181e+00 7.792295e+00 2.496703e+01 1.562381e+00 1.075873e+00 1.699914e+00 1.769592e+00 2.587379e+00 2.150531e+00 2.171834e+00 2.445652e+00 2.173820e+00 2.393478e+00 2.284872e+00 1.635077e+00 1.921117e+00
<GCONST> 1.612918e+02
<STATE> 4
<NUMMIXES> 2
<MIXTURE> 1 5.583345e-01
<MEAN> 39
 -2.038312e+01 -1.373155e+01 4.234623e+00 -1.535001e+01 -3.546427e+00 -8.810344e+00 -4.113464e+00 2.958961e+00 -1.291424e+00 -1.395663e+00 2.605378e-01 9.997274e-01 1.193424e+02 4.214061e+00 1.361154e+00 4.446765e-01 -2.101795e+00 -2.702739e+00 -4.190339e+00 -2.870514e+00 4.359818e-01 -1.079981e-01 9.359911e-01 4.102390e-02 -1.361459e+00 8.160410e+00 2.361173e+00 5.554475e-01 6.094368e-01 4.531013e-01 -9.847490e-01 -5.619364e-02 -7.323263e-01 -9.818810e-01 -3.552204e-01 1.862506e-01 -2.752678e-01 -1.053247e+00 -1.212046e+00
<VARIANCE> 39
 6.662836e+01 8.312770e+01 9.448100e+01 1.065374e+02 1.030249e+02 1.075336e+02 1.258192e+02 9.239640e+01 8.854185e+01 8.455246e+01 7.481726e+01 7.835287e+01 8.146012e+01 1.619474e+01 7.621921e+00 1.719578e+01 1.616663e+01 1.705608e+01 1.657235e+01 1.702802e+01 1.881912e+01 1.620437e+01 1.484833e+01 1.331936e+01 1.420534e+01 1.477458e+01 1.768236e+00 2.344084e+00 3.588215e+00 2.677796e+00 2.559427e+00 3.741859e+00 3.878245e+00 3.849572e+00 3.027045e+00 2.930209e+00 3.268318e+00 2.555937e+00 2.054222e+00
<GCONST> 1.791332e+02
<MIXTURE> 2 4.416243e-01
<MEAN> 39
 -1.582284e+01 -9.052295e+00 8.697255e-01 -1.421483e+01 -9.071569e+00 -1.020327e+01 -3.121337e+00 -2.723984e-02 -2.628382e+00 -3.633856e+00 -4.908247e-01 -1.855118e-01 1.226445e+02 5.532988e+00 -3.203182e-01 -5.640222e-01 -4.955097e+00 -5.061142e+00 -5.169622e+00 -3.058037e+00 -4.829323e-02 -6.652918e-01 -1.382267e+00 -3.846061e+00 -8.649811e-01 9.711364e+00 1.361411e+00 -7.281927e-01 3.394828e-01 -4.274230e-01 -5.115025e-01 4.271182e-02 -7.090986e-01 -8.321891e-01 -3.519803e-01 -2.730845e-01 -1.346276e+00 -6.045011e-01 -1.303415e+00
<VARIANCE> 39
 8.821481e+01 6.231579e+01 7.883556e+01 9.055565e+01 1.204707e+02 1.512073e+02 1.165592e+02 8.994876e+01 8.448347e+01 9.273374e+01 9.862724e+01 6.309756e+01 9.152512e+01 9.009142e+00 1.153290e+01 2.273984e+01 1.432073e+01 2.218146e+01 1.602751e+01 2.451579e+01 2.400634e+01 1.805924e+01 2.013539e+01 1.647366e+01 1.214195e+01 1.486584e+01 1.944733e+00 1.726333e+00 2.664130e+00 2.256706e+00 2.916486e+00 4.427783e+00 3.686086e+00 2.940588e+00 2.605530e+00 2.866274e+00 3.078521e+00 2.145669e+00 2.548866e+00
<GCONST> 1.798038e+02
<TRANSP> 5
 0.000000e+00 1.000000e+00 0.000000e+00 0.000000e+00 0.000000e+00
 0.000000e+00 6.038237e-01 3.961763e-01 0.000000e+00 0.000000e+00
 0.000000e+00 0.000000e+00 7.188739e-01 2.811260e-01 0.000000e+00
 0.000000e+00 0.000000e+00 0.000000e+00 5.466444e-01 4.533556e-01
 0.000000e+00 0.000000e+00 0.000000e+00 0.000000e+00 0.000000e+00
<ENDHMM>
~h "w"
<BEGINHMM>
<NUMSTATES> 5
<STATE> 2
<NUMMIXES> 2
<MIXTURE> 1 5.645674e-01
<MEAN> 39
 1.689591e+01 -1.844364e+00 -3.169959e+00 -3.662459e+01 -2.099650e+01 -1.169483e+00 -8.121338e+00 -7.973790e+00 -1.705453e+01 -4.658637e+00 2.872600e+00 -2.547554e+00 1.199395e+02 1.833317e+00 -7.670292e-01 -1.060376e+00 -2.205459e+00 -3.908142e-01 1.325317e+00 -7.054200e-01 -1.886546e+00 -2.024647e+00 9.873828e-01 2.843025e+00 7.987909e-01 2.001889e+00 -1.253827e+00 -1.350719e+00 1.306357e-01 1.520119e+00 1.226102e+00 -5.667090e-01 -8.628762e-01 4.485797e-02 1.314301e+00 1.082232e+00 -3.378917e-01 -8.417052e-01 1.587392e-01
<VARIANCE> 39
 2.619594e+01 9.068456e+01 1.136366e+02 2.299278e+02 2.059028e+02 1.442690e+02 2.008005e+02 2.275012e+02 1.717756e+02 1.848708e+02 2.470946e+02 1.686980e+02 6.629774e+01 1.049913e+01 1.516331e+01 9.433051e+00 1.857543e+01 1.813226e+01 1.325619e+01 1.715730e+01 1.803834e+01 1.726571e+01 1.981429e+01 1.873907e+01 1.301090e+01 1.094464e+01 1.366967e+00 1.493863e+00 1.229479e+00 2.879897e+00 2.707653e+00 2.162503e+00 2.580560e+00 3.109307e+00 3.190395e+00 3.069597e+00 2.871376e+00 2.478185e+00 5.117922e-01
<GCONST> 1.804273e+02
<MIXTURE> 2 4.354250e-01
<MEAN> 39
 1.380770e+01 -2.526961e+00 -8.970927e+00 -3.998576e+01 -1.666594e+01 -9.490334e+00 -1.415077e+01 -1.110775e+01 -1.975290e+01 -3.013964e+00 -1.011063e+01 -5.965058e+00 1.186690e+02 4.666877e+00 -3.561462e-01 -3.115594e+00 -6.546489e+00 -7.333062e-01 -1.753801e-01 -2.465857e+00 -2.982152e+00 -3.325044e+00 2.710220e+00 -6.660538e-01 -8.988748e-01 3.980938e+00 -1.883677e+00 -1.761647e+00 5.002548e-01 1.734481e+00 8.732181e-01 -1.410085e-01 -5.713311e-03 5.501917e-01 1.635418e+00 7.358495e-01 7.441869e-03 -1.745617e-01 5.900322e-02
<VARIANCE> 39
 3.962009e+01 8.804372e+01 1.155100e+02 2.523552e+02 2.038783e+02 1.811990e+02 2.209411e+02 1.908938e+02 2.174307e+02 1.747870e+02 1.626383e+02 9.986089e+01 7.883316e+01 1.576025e+01 1.375515e+01 1.323298e+01 2.770382e+01 2.167202e+01 2.715273e+01 2.476764e+01 2.340544e+01 2.764728e+01 2.462207e+01 2.415180e+01 1.436324e+01 1.154926e+01 1.687616e+00 1.620614e+00 1.776016e+00 4.727100e+00 3.428649e+00 3.735620e+00 3.577007e+00 4.178668e+00 4.826998e+00 3.868371e+00 2.852112e+00 2.380949e+00 1.004632e+00
<GCONST> 1.879671e+02
<STATE> 3
<NUMMIXES> 2
<MIXTURE> 1 5.188199e-01
<MEAN> 39
 1.582540e+01 -1.190887e+01 -5.908504e+00 -3.454320e+01 -1.326498e+01 -2.250444e+00 -1.626512e+01 -1.467209e+01 -1.621408e+01 6.656514e+00 9.647769e+00 -5.722207e+00 1.269646e+02 -7.927650e-01 -3.325967e+00 1.365698e-01 2.321820e+00 1.965503e+00 -2.335251e+00 -3.811647e+00 2.601839e-01 3.634912e+00 3.638406e+00 -2.396200e-01 -3.226817e+00 2.188763e+00 -1.117098e+00 -5.856924e-02 1.039247e+00 1.724741e+00 -1.024232e-01 -1.245599e+00 4.400235e-01 1.673461e+00 1.507484e+00 -9.632581e-01 -1.992041e+00 -4.347727e-01 -5.282996e-01
<VARIANCE> 39
 2.846203e+01 1.011284e+02 1.552619e+02 2.449439e+02 1.922794e+02 2.149783e+02 2.047505e+02 2.501373e+02 2.538833e+02 2.288907e+02 3.917376e+02 1.880893e+02 6.628693e+01 3.426990e+00 1.075477e+01 8.575656e+00 1.738848e+01 1.386887e+01 1.596208e+01 1.697779e+01 1.616493e+01 1.783784e+01 1.787013e+01 1.735157e+01 1.266868e+01 7.098959e+00 1.312605e+00 1.342378e+00 1.261571e+00 2.637537e+00 2.724731e+00 2.573016e+00 2.830532e+00 3.473124e+00 4.083045e+00 2.938767e+00 3.438807e+00 2.944109e+00 5.642533e-01
<GCONST> 1.810060e+02
<MIXTURE> 2 4.811779e-01
<MEAN> 39
 1.359851e+01 -1.604527e+01 -1.579119e+01 -4.623059e+01 -8.568542e+00 -5.033602e+00 -2.190181e+01 -1.812026e+01 -1.833286e+01 1.197739e+01 -7.885000e+00 -1.089235e+01 1.304018e+02 -9.799250e-01 -5.110531e+00 -2.661685e-01 1.727877e+00 1.944628e+00 -3.363839e+00 -3.510135e+00 6.905483e-01 4.776715e+00 3.200764e+00 -3.690166e+00 -3.734937e+00 4.032401e+00 -1.503558e+00 -8.831321e-02 1.761210e+00 2.609138e+00 -1.037153e+00 -1.475006e+00 1.369433e+00 2.279576e+00 1.449531e+00 -2.271650e+00 -1.029679e+00 4.553526e-01 -7.737566e-01
<VARIANCE> 39
 2.987159e+01 6.907135e+01 1.385086e+02 2.075168e+02 1.769502e+02 3.247736e+02 2.529015e+02 1.920652e+02 3.009341e+02 2.627263e+02 2.738308e+02 1.461706e+02 4.680003e+01 6.725379e+00 6.808483e+00 8.313946e+00 2.428613e+01 1.666050e+01 2.573618e+01 1.571062e+01 1.717313e+01 1.947174e+01 2.035149e+01 1.617568e+01 1.125606e+01 4.656496e+00 1.944012e+00 1.354463e+00 1.586814e+00 3.519999e+00 3.039584e+00 3.903286e+00 4.067700e+00 3.188892e+00 4.631748e+00 3.795121e+00 3.584882e+00 2.787892e+00 5.704250e-01
<GCONST> 1.828936e+02
<STATE> 4
<NUMMIXES> 2
<MIXTURE> 1 4.832151e-01
<MEAN> 39
 1.224592e+01 -1.802203e+01 -1.271591e+00 -2.380047e+01 -1.270009e+01 -1.559729e+01 -2.383162e+01 -5.184965e+00 -2.154851e+00 6.859858e+00 -2.782765e+00 -1.292334e+01 1.299090e+02 -1.581916e+00 -1.363713e+00 2.942468e+00 3.395647e+00 -1.327401e+00 -3.708814e+00 6.390041e-01 3.684769e+00 2.284923e+00 -1.973059e+00 -2.715573e+00 6.964876e-02 5.880579e-01 -4.776630e-01 8.427892e-01 5.653881e-01 6.039831e-02 -3.820620e-01 7.121751e-01 1.555341e+00 -1.012551e-01 -1.221812e+00 -1.034071e+00 4.292197e-01 1.036844e+00 -7.252693e-01
<VARIANCE> 39
 3.235318e+01 1.362202e+02 1.819322e+02 2.116627e+02 2.001057e+02 2.646946e+02 2.128083e+02 2.651570e+02 2.138074e+02 2.467570e+02 4.369914e+02 1.848358e+02 8.874477e+01 3.322387e+00 5.881658e+00 1.014246e+01 1.567605e+01 1.691873e+01 1.576763e+01 1.849614e+01 1.745808e+01 1.856521e+01 1.405495e+01 1.459555e+01 1.356572e+01 5.796735e+00 1.246137e+00 1.392391e+00 1.286457e+00 2.349361e+00 2.522881e+00 2.785702e+00 2.914793e+00 3.478323e+00 3.300468e+00 3.055932e+00 3.679476e+00 2.272069e+00 6.687704e-01
<GCONST> 1.810742e+02
<MIXTURE> 2 5.167797e-01
<MEAN> 39
 7.610183e+00 -2.626934e+01 -8.961492e+00 -3.513981e+01 -9.957462e+00 -2.178370e+01 -2.415702e+01 -6.305155e+00 -2.872712e+00 6.730592e+00 -2.438111e+01 -1.472673e+01 1.368990e+02 -2.296763e+00 -2.648821e+00 3.739093e+00 3.640336e+00 -3.664511e+00 -5.242015e+00 2.794623e+00 4.903339e+00 2.130515e+00 -4.711361e+00 -3.060427e+00 1.130510e+00 2.074574e+00 -8.458476e-03 1.396288e+00 7.920911e-01 -1.205048e-01 -1.511621e+00 9.772751e-01 1.856944e+00 -2.804387e-01 -2.049687e+00 -1.353450e+00 1.727450e+00 1.398368e+00 -1.022083e+00
<VARIANCE> 39
 3.714238e+01 7.373190e+01 1.617944e+02 1.608989e+02 2.136141e+02 3.865190e+02 2.587373e+02 2.470060e+02 2.414122e+02 3.057094e+02 2.533450e+02 1.677134e+02 4.442869e+01 2.033186e+00 4.890590e+00 7.806169e+00 1.063656e+01 1.643432e+01 1.590901e+01 2.010839e+01 1.264780e+01 2.292742e+01 1.405663e+01 1.693800e+01 1.236744e+01 1.816291e+00 8.676701e-01 8.006534e-01 1.314465e+00 2.493114e+00 2.303839e+00 3.941317e+00 3.409176e+00 3.940141e+00 2.687938e+00 4.546034e+00 2.779224e+00 2.368045e+00 4.219517e-01
<GCONST> 1.764949e+02
<TRANSP> 5
 0.000000e+00 1.000000e+00 0.000000e+00 0.000000e+00 0.000000e+00
 0.000000e+00 5.814523e-01 4.185476e-01 0.000000e+00 0.000000e+00
 0.000000e+00 0.000000e+00 4.635237e-01 5.364764e-01 0.000000e+00
 0.000000e+00 0.000000e+00 0.000000e+00 4.950797e-01 5.049202e-01
 0.000000e+00 0.000000e+00 0.000000e+00 0.000000e+00 0.000000e+00
<ENDHMM>
~h "y"
<BEGINHMM>
<NUMSTATES> 5
<STATE> 2
<NUMMIXES> 2
<MIXTURE> 1 5.505038e-01
<MEAN> 39
 -8.482723e+00 -3.008048e+00 3.106062e+01 -9.936879e+00 -1.916389e+01 -1.531986e+01 -1.194169e+01 -4.292877e+00 -1.495571e+01 -6.367263e+00 -1.632511e+00 -3.221225e+00 1.195695e+02 1.543148e+00 4.008864e-01 2.976283e+00 -6.923557e-01 -3.043058e+00 -6.135063e-01 -1.120983e+00 -5.330442e-01 -1.614023e+00 -2.323476e-01 8.219756e-01 3.010520e-01 1.128004e+00 1.334483e-01 -5.183635e-01 -1.113433e+00 -7.796744e-01 -6.772211e-02 -2.559979e-02 -1.753060e-01 8.570720e-02 4.523960e-01 4.329316e-01 -3.127803e-02 -1.002041e-01 3.719530e-01
<VARIANCE> 39
 1.868802e+02 1.350406e+02 1.428738e+02 2.398286e+02 2.766025e+02 2.426351e+02 1.744734e+02 2.326594e+02 1.692968e+02 1.313548e+02 1.422659e+02 9.466889e+01 1.293983e+02 3.659146e+01 1.011585e+01 1.820046e+01 2.051748e+01 2.959626e+01 2.287774e+01 1.924079e+01 1.672592e+01 1.771202e+01 1.361326e+01 1.126598e+01 1.003234e+01 1.058422e+01 2.868119e+00 1.750510e+00 2.426518e+00 2.710644e+00 4.328573e+00 3.758593e+00 2.545808e+00 2.960854e+00 2.600577e+00 2.061446e+00 1.903318e+00 1.730526e+00 1.297024e+00
<GCONST> 1.864995e+02
<MIXTURE> 2 4.494740e-01
<MEAN> 39
 -9.990829e+00 7.420237e-01 2.745679e+01 -2.089064e+01 -2.610908e+01 -1.670918e+01 -1.252930e+01 -2.016662e+01 -1.854665e+01 -4.929664e+00 -1.171390e+01 -7.983495e+00 1.212168e+02 5.196408e+00 -4.501607e-01 4.160638e+00 -4.987741e+00 -6.158072e+00 -2.898564e+00 -3.643283e+00 -3.221831e+00 -2.612444e+00 8.348786e-01 -2.654043e+00 -4.395829e-01 3.151746e+00 -5.666539e-01 -9.856634e-01 -1.623021e+00 -3.575274e-01 5.417509e-01 1.909072e-01 5.196658e-01 1.275365e+00 7.572570e-01 4.570570e-01 4.690573e-01 4.353976e-01 2.110374e-01
<VARIANCE> 39
 1.088508e+02 8.991616e+01 1.231842e+02 2.446358e+02 2.068850e+02 1.687938e+02 1.732796e+02 2.087116e+02 1.299703e+02 1.143504e+02 1.584144e+02 8.009642e+01 8.164905e+01 2.767327e+01 1.173455e+01 1.726119e+01 2.574917e+01 2.162773e+01 2.303003e+01 2.297283e+01 1.990770e+01 1.739268e+01 1.598612e+01 1.903840e+01 1.303051e+01 7.307103e+00 2.378358e+00 1.601438e+00 1.841039e+00 2.453442e+00 3.670253e+00 2.592859e+00 3.099802e+00 3.122006e+00 2.345562e+00 2.287885e+00 2.465385e+00 1.597302e+00 1.092470e+00
<GCONST> 1.834473e+02
<STATE> 3
<NUMMIXES> 2
<MIXTURE> 1 5.102084e-01
<MEAN> 39
 -2.529731e+00 -5.701166e+00 3.700504e+01 -2.211308e+01 -3.647877e+01 -1.728962e+01 -1.600658e+01 -1.071197e+01 -2.154808e+01 -3.099146e-01 -2.238519e+00 -3.554204e+00 1.278200e+02 9.590990e-01 -1.755660e+00 -1.278183e+00 -1.223123e+00 -1.736161e+00 -1.487546e+00 2.651521e-01 1.389767e+00 6.383640e-01 1.053588e+00 8.083569e-01 6.511614e-01 1.571034e+00 -2.386582e-01 -4.459854e-01 -1.645884e+00 5.019286e-01 1.241025e+00 -7.073466e-02 5.496992e-01 8.985297e-01 1.106364e+00 -2.051635e-01 -1.807985e-01 -9.699069e-02 -1.972675e-01
<VARIANCE> 39
 3.521433e+01 9.355975e+01 1.434032e+02 3.443382e+02 1.590492e+02 2.410005e+02 2.011438e+02 3.431871e+02 2.304197e+02 1.954277e+02 2.300896e+02 1.188569e+02 6.655442e+01 4.425020e+00 6.538416e+00 8.816132e+00 7.611040e+00 8.537920e+00 1.130257e+01 1.130665e+01 1.160136e+01 9.892341e+00 7.641635e+00 6.798347e+00 6.183822e+00 3.311226e+00 1.377281e+00 6.991128e-01 1.343330e+00 1.773234e+00 2.568258e+00 2.354867e+00 2.089141e+00 2.047654e+00 2.468962e+00 2.101676e+00 1.688552e+00 1.480094e+00 4.335370e-01
<GCONST> 1.694989e+02
<MIXTURE> 2 4.897641e-01
<MEAN> 39
 -5.937455e+00 -3.221721e+00 3.153933e+01 -3.840605e+01 -3.621518e+01 -1.442344e+01 -1.951969e+01 -2.424941e+01 -1.864845e+01 6.466083e-01 -1.683909e+01 -6.654300e+00 1.285896e+02 6.694456e-01 -1.625015e+00 -8.166316e-01 -1.904071e+00 -1.817390e+00 -6.240407e-01 5.512381e-01 7.964432e-01 2.498813e-01 7.669555e-01 4.420749e-02 -2.004124e-02 1.670838e+00 -1.539091e-01 -5.508687e-01 -1.579996e+00 1.314221e+00 1.034852e+00 -8.232626e-02 9.315848e-01 1.253419e+00 5.153931e-01 -6.033897e-01 4.971916e-01 -2.998178e-02 -2.754771e-01
<VARIANCE> 39
 4.773436e+01 9.655054e+01 1.321606e+02 2.670004e+02 1.712293e+02 2.179937e+02 2.258051e+02 2.130955e+02 1.643863e+02 1.472927e+02 2.166064e+02 1.331715e+02 5.660565e+01 5.376032e+00 9.812322e+00 1.039901e+01 1.466844e+01 1.110211e+01 1.242707e+01 1.482982e+01 1.316258e+01 8.759455e+00 9.948123e+00 9.509625e+00 7.009412e+00 4.993798e+00 1.385372e+00 8.235070e-01 1.557516e+00 2.063074e+00 3.083696e+00 2.374565e+00 2.422549e+00 2.134462e+00 2.294999e+00 2.207803e+00 1.990202e+00 1.613945e+00 5.531330e-01
<GCONST> 1.728934e+02
<STATE> 4
<NUMMIXES> 2
<MIXTURE> 1 5.245285e-01
<MEAN> 39
 3.119866e+00 -1.485699e+01 2.448587e+01 -1.622274e+01 -3.366502e+01 -2.698856e+01 -1.538536e+01 3.920900e+00 -1.234009e+01 -1.189214e+00 1.156690e+00 -1.573233e+00 1.305352e+02 1.414045e+00 -1.757832e+00 -4.897530e+00 -7.007582e-01 2.860952e+00 -2.336205e-01 -5.414513e-01 1.951645e+00 4.164216e+00 6.721991e-01 -1.287549e+00 -9.370868e-01 5.364681e-01 -2.925293e-01 4.587799e-01 -4.910473e-01 9.457064e-03 1.318523e+00 1.280057e+00 1.184978e-01 -7.077815e-01 2.133271e-01 1.782184e-02 -3.837399e-01 -6.606727e-01 -5.316464e-01
<VARIANCE> 39
 3.531473e+01 8.455149e+01 1.632368e+02 2.168691e+02 1.979030e+02 2.442655e+02 2.436574e+02 2.965875e+02 2.305101e+02 1.810309e+02 2.003107e+02 1.178717e+02 8.560233e+01 1.959453e+00 4.392276e+00 7.493050e+00 9.705159e+00 1.068572e+01 1.272030e+01 1.201803e+01 1.494428e+01 1.228859e+01 1.508573e+01 8.856707e+00 1.054118e+01 3.340429e+00 6.802472e-01 6.419084e-01 1.212662e+00 1.319733e+00 1.719942e+00 2.222003e+00 2.295688e+00 2.249905e+00 2.780153e+00 2.051280e+00 1.939549e+00 1.477348e+00 2.924624e-01
<GCONST> 1.689811e+02
<MIXTURE> 2 4.754485e-01
<MEAN> 39
 -1.045309e+00 -1.809269e+01 1.450968e+01 -3.493233e+01 -3.527619e+01 -2.532260e+01 -8.082037e+00 -6.866940e+00 -1.364118e+01 -2.773953e+00 -1.494870e+01 -5.700236e+00 1.361001e+02 1.198272e+00 -3.019390e+00 -5.503119e+00 7.267914e-01 3.517590e+00 1.965833e-01 4.663276e-01 3.968329e+00 2.116261e+00 -3.067290e+00 -1.748766e+00 -6.174217e-01 1.154671e+00 -1.274851e-01 6.144487e-01 -3.554038e-02 4.286683e-01 1.185979e+00 1.009240e+00 -8.073435e-01 -8.280079e-01 -1.340057e-01 -2.940823e-01 -2.162651e-01 -2.929514e-01 -6.705828e-01
<VARIANCE> 39
 4.506469e+01 8.111976e+01 1.483956e+02 2.133840e+02 2.316023e+02 2.674502e+02 2.534711e+02 2.566455e+02 1.652698e+02 1.698815e+02 1.860040e+02 1.195539e+02 5.276263e+01 1.413597e+00 3.970107e+00 6.810049e+00 7.037759e+00 1.330916e+01 1.079969e+01 1.919990e+01 1.200832e+01 1.753615e+01 1.353378e+01 1.102602e+01 9.325686e+00 1.607928e+00 4.494171e-01 6.436045e-01 1.159878e+00 1.550238e+00 2.046104e+00 2.295410e+00 2.203098e+00 2.612691e+00 2.431390e+00 2.737945e+00 2.191244e+00 1.837359e+00 2.602663e-01
<GCONST> 1.677454e+02
<TRANSP> 5
 0.000000e+00 1.000000e+00 0.000000e+00 0.000000e+00 0.000000e+00
 0.000000e+00 5.635643e-01 4.364357e-01 0.000000e+00 0.000000e+00
 0.000000e+00 0.000000e+00 6.845643e-01 3.154357e-01 0.000000e+00
 0.000000e+00 0.000000e+00 0.000000e+00 6.338705e-01 3.661295e-01
 0.000000e+00 0.000000e+00 0.000000e+00 0.000000e+00 0.000000e+00
<ENDHMM>
~h "z"
<BEGINHMM>
<NUMSTATES> 5
<STATE> 2
<NUMMIXES> 2
<MIXTURE> 1 5.677021e-01
<MEAN> 39
 -1.785733e+01 6.686326e+00 1.501903e+01 -2.956620e+00 -6.507886e+00 -1.747034e+01 -5.572145e+00 -9.910609e-01 -9.819898e+00 -6.895995e+00 -1.635338e+00 -1.738642e+00 1.223476e+02 -6.850804e+00 1.998370e-01 -2.189162e+00 1.192731e+00 6.346071e+00 3.282867e+00 1.422129e+00 3.080649e+00 3.248062e+00 2.045280e-02 9.518301e-01 6.904312e-01 -1.221177e+00 3.298630e-01 -1.151753e+00 -2.050382e-01 -1.164855e+00 -1.373950e+00 6.485125e-01 -2.416868e-01 -4.648046e-01 -1.046637e-01 4.659636e-01 2.724036e-02 -1.103304e-01 8.535355e-02
<VARIANCE> 39
 1.776353e+02 8.831622e+01 1.169930e+02 1.483318e+02 2.525889e+02 1.688772e+02 1.468405e+02 2.307477e+02 1.375087e+02 1.200160e+02 8.352418e+01 1.071889e+02 6.857751e+01 1.443403e+01 1.067714e+01 1.373881e+01 1.752714e+01 2.000005e+01 1.764547e+01 1.926020e+01 2.171986e+01 1.446303e+01 1.560922e+01 1.527448e+01 1.127272e+01 3.373520e+00 3.320611e+00 1.479140e+00 2.243516e+00 2.225503e+00 2.897635e+00 3.125760e+00 2.769932e+00 2.968743e+00 2.726941e+00 2.368122e+00 2.316099e+00 2.033234e+00 4.826465e-01
<GCONST> 1.796347e+02
<MIXTURE> 2 4.322968e-01
<MEAN> 39
 -2.685869e+01 3.963267e+00 6.625109e+00 -3.484455e+00 -5.350199e+00 -1.066425e+01 1.068855e-01 -3.061786e+00 -8.680059e+00 -9.047116e+00 -2.900059e+00 -4.408948e+00 1.196230e+02 -4.514506e+00 -1.586339e+00 -3.417640e+00 4.900300e-02 2.811628e+00 1.449773e+00 8.685894e-01 2.205487e+00 1.522809e+00 2.709899e-01 7.976254e-01 4.632168e-01 -1.150971e+00 1.825129e+00 -4.321243e-01 5.727248e-01 -1.171830e+00 -1.504086e+00 -6.396046e-01 -1.249830e+00 -1.035085e+00 -3.858280e-01 3.440677e-01 -3.628565e-01 1.278840e-01 -2.324418e-02
<VARIANCE> 39
 2.035722e+02 9.446700e+01 1.327648e+02 1.484867e+02 2.124715e+02 1.876875e+02 1.389525e+02 2.601035e+02 1.845641e+02 1.266681e+02 1.488929e+02 1.292153e+02 6.353816e+01 1.219687e+01 7.446153e+00 1.056046e+01 1.644441e+01 1.554452e+01 1.251977e+01 1.454269e+01 1.766945e+01 1.134129e+01 1.192312e+01 1.195247e+01 9.804047e+00 3.291543e+00 2.101090e+00 1.638770e+00 2.091746e+00 2.385349e+00 2.531846e+00 3.001578e+00 2.413744e+00 2.682181e+00 2.750865e+00 2.924299e+00 2.169643e+00 2.536654e+00 5.738547e-01
<GCONST> 1.779179e+02
<STATE> 3
<NUMMIXES> 2
<MIXTURE> 1 5.998969e-01
<MEAN> 39
 -3.566246e+01 -2.492461e+00 -4.688742e-01 -6.510922e+00 -2.710937e+00 -8.522801e+00 -2.172332e+00 3.330040e+00 -1.907842e+00 -5.492972e+00 2.010294e+00 8.775073e-02 1.173065e+02 1.209195e+00 -6.460297e-01 3.104938e-01 -1.541324e-01 8.093124e-01 8.729863e-01 -3.616219e-01 -2.788670e-01 7.752488e-01 1.034641e+00 1.368802e-01 -9.345733e-02 -1.566970e+00 1.623455e+00 3.644491e-01 1.006089e+00 3.949530e-01 -1.693329e-01 3.440724e-02 -5.970063e-02 -6.170978e-01 -5.105522e-01 1.444444e-01 -3.054277e-01 -3.500585e-01 -3.687395e-01
<VARIANCE> 39
 1.215322e+02 1.018885e+02 1.499493e+02 1.311508e+02 1.447629e+02 1.317949e+02 1.083496e+02 1.194684e+02 1.020717e+02 8.038988e+01 8.290784e+01 7.647162e+01 7.713673e+01 7.985700e+00 5.279682e+00 9.313717e+00 8.279172e+00 9.459287e+00 9.172902e+00 8.841646e+00 1.121404e+01 9.495515e+00 7.085850e+00 7.773531e+00 6.889020e+00 3.753772e+00 1.164802e+00 1.225010e+00 1.620198e+00 1.979731e+00 1.863402e+00 1.753152e+00 2.162074e+00 2.490672e+00 1.994184e+00 1.742389e+00 1.708724e+00 1.368643e+00 8.423122e-01
<GCONST> 1.653963e+02
<MIXTURE> 2 4.001018e-01
<MEAN> 39
 -2.778983e+01 3.265966e+00 3.482755e+00 -6.368742e+00 -3.946593e+00 -1.020791e+01 -4.976811e+00 -2.578893e+00 -7.613928e+00 -7.959224e+00 -1.970229e+00 -3.879801e+00 1.159920e+02 1.606029e+00 -1.053466e+00 4.920071e-01 -4.673865e-01 5.286250e-01 3.469625e-01 -1.460277e+00 -1.128370e+00 -1.193616e-01 -3.544908e-01 -7.883974e-01 -4.812763e-01 -1.841227e+00 1.867320e+00 -1.582303e-01 5.620147e-01 -2.226264e-01 -1.077150e+00 -5.441791e-01 -5.328578e-01 -9.975756e-01 -4.555208e-01 -8.513529e-02 -6.041698e-01 -2.131833e-01 1.549670e-01
<VARIANCE> 39
 2.695859e+02 1.034695e+02 2.056225e+02 1.820625e+02 2.028538e+02 1.855227e+02 2.013267e+02 1.937033e+02 1.821690e+02 1.237312e+02 1.570590e+02 9.118166e+01 9.361619e+01 9.763981e+00 7.269040e+00 1.121163e+01 1.029453e+01 1.212740e+01 1.310691e+01 1.001513e+01 1.364705e+01 1.166185e+01 1.076959e+01 8.714952e+00 8.049623e+00 4.286213e+00 1.840593e+00 1.432707e+00 1.963545e+00 2.811059e+00 2.886276e+00 2.605547e+00 3.103763e+00 3.077315e+00 2.840055e+00 3.183481e+00 2.554635e+00 2.146740e+00 8.478152e-01
<GCONST> 1.779094e+02
<STATE> 4
<NUMMIXES> 2
<MIXTURE> 1 4.763901e-01
<MEAN> 39
 -1.680038e+01 -3.028323e+00 9.907886e+00 -3.957975e+00 2.060867e-01 -2.661236e+00 -3.615894e+00 -2.540156e+00 -3.958152e+00 -9.865011e-01 -7.520133e-01 -2.324630e+00 1.072870e+02 5.100336e+00 6.732345e-01 6.204472e-01 4.709954e-01 -1.305782e+00 -1.932405e-01 3.322123e-01 -2.937153e+00 -1.731212e+00 8.686947e-01 -5.236693e-01 -9.117489e-01 -1.237103e+00 4.246785e-01 3.415406e-01 -2.160620e-01 -3.733186e-01 -5.120320e-01 -8.935111e-01 -2.504189e-01 -1.400176e-01 -3.665203e-01 -2.401503e-01 -7.361332e-02 -1.788930e-01 1.006672e+00
<VARIANCE> 39
